497 64
301 0.178815 0.144487 0.207324 0.480607 0.505470 -0.151313 0.098484 -0.306224 0.224955 -0.388281 -0.025295 0.317601 -0.338663 0.015549 0.343602 -0.030105 -0.230746 0.063359 -0.349911 0.465584 -0.260974 -0.243435 0.499980 -0.033894 0.172888 -0.592480 -0.324510 0.208312 -0.210616 0.255784 0.111767 -0.517994 0.257286 0.121696 -0.436041 -0.300979 -0.275328 -0.119930 -0.296869 0.349716 -0.064225 0.363731 -0.050315 0.062098 -0.328023 -0.047909 0.426570 0.215892 0.050491 0.116580 -0.392216 -0.691061 0.721613 0.155516 -0.107405 0.406857 0.324718 0.019820 -0.882328 0.251332 -0.172185 0.147891 -0.152254 0.149081
233 -0.045830 -0.083144 -0.387590 0.168953 -0.194328 0.032651 0.237073 0.090296 -0.892450 -0.482136 0.111450 0.178990 -0.078657 0.040173 0.244388 0.445542 -0.361420 -0.104810 0.357463 0.606589 -0.070881 -0.796070 0.584775 0.352450 0.358851 0.060921 -0.262692 -0.153797 0.071473 0.510843 -0.188762 -0.267591 -0.271119 0.122571 -0.416660 0.048822 0.131118 0.126334 0.133602 0.129644 -0.053671 -0.283672 -0.444040 0.177891 -0.450164 0.333617 0.360285 -0.181223 -0.075858 -0.251207 0.292494 -0.275375 0.237785 -0.118021 0.278567 -0.205149 -0.086371 0.490820 -0.228226 -0.244348 0.249387 -0.011729 0.239528 -0.290005
196 0.061090 -0.429416 0.533615 0.397738 0.299337 0.273313 -0.489393 0.236946 -0.162324 -0.751832 0.034179 0.129997 -0.327008 -0.321753 0.229135 -0.577698 -0.239321 0.385442 -0.530068 -0.126232 -0.016711 0.077482 0.451741 -0.128530 -0.036940 0.050511 -0.128993 -0.279445 -0.285799 -0.366060 -0.162795 -0.396726 -0.092450 -0.567830 -0.431608 -0.507870 -0.538751 -0.085046 0.009932 -0.289896 -0.215265 -0.093412 -0.172788 0.109833 0.201107 -0.087621 -0.047343 0.033587 -0.218115 -0.403855 -0.593393 -0.214829 0.076159 -0.377376 0.087050 -0.429872 -0.119347 0.270453 0.448759 -0.102573 -0.219646 0.084271 0.494460 -0.138191
141 0.052461 -0.334399 0.311733 0.012565 -0.451800 0.039906 -0.137789 -0.697064 -0.018855 -0.756332 0.310112 0.013202 0.240702 0.395399 0.394736 -0.114705 0.023800 0.019292 0.024511 0.881268 -0.436705 0.295176 -0.183094 -0.330483 0.135286 0.265384 -0.430519 0.774744 -0.378113 -0.223232 0.094712 0.137755 -0.090900 -0.388036 -0.091382 0.197309 0.004687 -0.263674 0.238790 -0.165737 -0.125124 -0.015577 -0.288634 0.285532 0.568139 0.303309 0.205040 0.104486 0.151271 -0.360769 -0.184506 -0.166900 -0.050036 0.192551 0.172793 0.030477 -0.469550 0.266987 -0.828406 -0.344791 -0.099382 -0.061730 0.367943 0.464515
206 -0.052792 -0.193547 -0.134395 0.271075 -0.424148 0.202506 0.310747 0.282891 0.320800 0.165178 0.386889 0.616108 0.028498 -0.444697 0.104147 -0.735745 -0.319668 0.322260 -0.150568 0.535793 -0.191588 -0.290970 -0.080470 0.214294 0.429968 -0.196931 -0.509892 0.258315 -0.118693 -0.288567 -0.499565 0.136949 -0.344952 -0.232673 -0.391808 -0.449673 0.486943 0.112840 -0.106397 0.159519 -0.526225 -0.392256 -0.502325 0.155436 -0.461122 -0.015064 0.189556 -0.277383 0.145279 -0.276391 -0.231066 0.249012 0.691401 -0.152799 -0.139098 -0.079728 0.420653 0.096368 -0.149432 -0.120441 0.237943 -0.206568 0.222357 -0.173600
102 0.330817 -0.376430 0.123294 0.802156 0.672772 -0.166976 0.344053 0.395684 0.285944 -0.337104 0.297998 0.107416 0.312621 -0.044126 0.462061 -0.183616 -0.274400 -0.115923 -0.061415 0.516614 -0.439138 -0.093743 0.342106 0.103757 0.195924 0.231070 -0.375717 0.007255 0.027929 -0.192317 0.141350 -0.077423 0.375877 0.082645 -0.424199 0.415180 -0.392068 -0.231974 0.309027 -0.195152 -0.274554 -0.092846 0.087364 0.079971 -0.032516 -0.427891 0.376112 -0.015694 0.245532 -0.049279 -0.190456 -0.543500 0.220190 -0.193476 0.749652 -0.662509 -0.103618 0.637448 -0.079411 -0.103427 0.320265 -0.368875 -0.051344 0.376550
105 -0.276489 -0.376664 0.022089 -0.113748 -0.449782 0.031911 0.121388 0.083621 -0.357807 -0.235565 -0.034430 -0.258874 0.512605 0.395955 0.035059 -0.070656 -0.264854 0.417571 -0.598938 0.073216 -0.091944 0.016706 0.385544 -0.135805 0.138466 0.032001 0.247209 -0.197984 0.121681 -0.065985 -0.227041 -0.011428 -0.432507 -0.363747 0.023459 -0.636133 -0.197234 -0.009758 0.471376 0.942567 0.050881 -0.291205 -0.122606 0.174873 -0.067014 -0.094617 0.044195 -0.018118 -0.073600 -0.175746 -0.603549 0.039303 0.005540 0.050126 0.250363 0.089105 0.212889 0.368071 -1.057286 -0.445934 0.152325 0.286582 0.399531 0.278801
72 -0.112099 -0.507582 0.525564 0.049013 0.428423 -0.059146 -0.184719 -0.102428 -0.341960 -0.648658 0.496194 -0.129299 0.155732 -0.171490 0.218249 -0.210771 0.137699 0.858848 -0.608499 -0.175741 -0.294445 0.482850 0.197598 0.101567 0.404113 -0.076408 -0.061774 0.219017 -0.051993 0.014883 -0.215255 -1.087931 0.146919 -0.382723 -0.518944 0.184380 -0.034608 -0.233135 0.150286 -0.328174 0.201637 0.120327 -0.244523 -0.221031 0.121679 0.005815 -0.365669 0.031614 -0.474013 0.122069 -0.056399 -0.408513 0.202324 -0.157477 0.159301 0.468339 0.440417 -0.148885 -0.144733 0.346863 0.201220 -0.049034 -0.048265 -0.259017
250 -0.576014 -0.375629 0.044262 0.072281 0.239146 -0.052228 0.152824 0.170779 -0.499242 -0.231408 0.209511 0.047744 -0.184708 -0.351567 0.172463 -0.556895 0.172897 0.110178 -0.581197 0.007980 -0.392140 -0.209675 0.205436 -0.045291 -0.229187 -0.171992 0.064716 -0.390621 0.081311 -0.773585 -0.051181 0.443557 0.078489 -0.173952 -0.359645 -0.079202 -0.142840 -0.789375 0.068073 0.345655 -0.408767 -0.031940 0.060648 0.438645 0.478913 0.254533 0.043781 0.150632 0.012416 -0.333427 -0.276573 0.303983 -0.269383 0.222953 0.845776 -0.134458 0.185123 0.500714 -0.111317 0.462783 -0.118299 -0.417808 0.345163 -0.677975
173 -0.620345 0.228170 0.039714 0.045942 -0.183467 0.051944 0.021161 0.367394 -0.123469 -0.741694 -0.210381 -0.016870 -0.438969 -0.129093 0.868797 -0.207087 0.165803 0.125455 -0.262743 -0.164622 -0.410810 -0.156234 -0.072329 0.218657 -0.428961 0.112424 -0.096428 0.143372 -0.305429 -0.032264 -0.314312 -0.111913 0.165424 -0.136422 0.114936 -0.313978 -0.033276 0.013706 0.083141 0.147180 0.712534 -0.135144 -0.225081 -0.137525 0.507306 -0.084397 0.344609 -0.681888 0.596192 0.417821 -0.699398 -0.357533 0.113153 0.583948 0.002702 -0.087167 0.204495 0.029721 -0.676380 -0.037950 0.565828 0.135284 0.409680 0.170316
139 0.192499 -0.005123 0.382856 -0.266105 -0.041315 0.055605 -0.382001 0.226202 -0.158404 -0.022415 0.106668 -0.282629 -0.278228 0.314872 0.791307 -0.408003 -0.146573 -0.028670 0.121211 0.444036 -0.075475 0.401792 -0.149632 -0.238735 -0.226395 0.053107 -0.251469 0.216101 -0.146504 -0.180351 -0.134690 -0.247480 -0.002881 -0.363251 -0.580336 -0.554062 -0.120148 0.746467 0.027791 -0.291174 -0.104586 -0.398190 -0.123082 0.325022 0.895066 -0.174446 -0.396926 -0.092048 0.486141 0.021517 -0.180039 -0.284684 0.553022 -0.439511 0.378958 -0.373283 0.320736 0.604174 -0.355977 -0.137053 0.035379 -0.191312 0.113312 -0.055578
18 0.295094 0.045398 -0.254871 0.114609 -0.351069 0.647485 0.291714 0.040444 -0.266027 -0.321360 0.233370 0.576666 0.018306 0.043904 0.383139 -0.351328 0.267341 -0.198337 -0.014791 0.039106 -0.332830 -0.222953 -0.204597 0.328413 0.313565 0.131456 -0.151343 -0.400402 -0.403039 -0.077186 0.545131 0.198180 -0.271570 0.030345 -0.126262 -0.337631 -0.270703 -0.087470 -0.216292 0.041206 0.318484 0.135737 0.206446 -0.637938 0.372921 0.052083 0.181870 -0.634357 0.201779 0.477637 -0.498501 0.334469 0.240531 -0.157282 0.483315 -0.168597 0.708888 -0.394174 -0.240894 -0.170738 -0.070718 0.192954 0.182369 -0.387660
261 -0.353693 -0.610241 -0.240667 0.115033 0.146166 0.146524 -0.341125 -0.030807 -0.665783 -0.060435 0.568472 -0.267241 0.283716 0.359081 0.344376 -0.110190 -0.430472 0.152117 -0.375885 -0.286029 -0.419792 0.629442 -0.031745 -0.197043 0.357796 0.112208 0.080474 -0.057482 0.064295 -0.732631 0.404140 -0.064571 0.302205 -0.253155 -0.492230 -0.111115 -0.082866 0.138959 0.506010 0.005270 0.458252 0.050138 -0.050446 0.029937 -0.398838 0.482421 0.085550 0.023305 0.142612 -0.079580 -0.577594 -0.391302 0.204741 -0.097758 -0.017933 0.509945 0.235826 0.025871 -0.102464 0.035089 0.366636 0.164406 0.547683 0.073243
259 -0.128069 -0.305257 -0.104300 0.156357 0.144685 0.252992 -0.056091 0.367920 -0.071068 -0.873840 0.170681 -0.122623 0.584346 -0.098123 0.468097 -0.077803 -0.822255 0.189105 -0.906194 0.212096 0.214898 0.392036 0.453748 -0.559068 -0.133454 -0.045111 -0.156916 0.391321 -0.326517 -0.132443 -0.067887 -0.485751 -0.550217 -0.143981 0.229889 -0.341167 -0.398223 0.062471 0.468648 0.213278 0.193376 -0.121011 0.031633 0.128368 0.046466 0.201148 -0.239563 -0.831511 -0.324749 0.230199 -0.278108 0.353620 0.484868 0.175428 0.392350 0.179103 0.144912 -0.187029 -0.717867 -0.232324 0.114491 0.334939 -0.048014 -0.142359
348 -0.313860 0.391399 0.204109 0.014616 0.678630 -0.130858 -0.075945 -0.141754 -0.249364 -0.217104 0.737431 -0.585008 0.164234 -0.229365 0.212447 -0.152673 -0.134334 0.160549 -0.065651 -0.215187 0.035675 0.032676 0.512902 0.082793 0.099476 -0.009916 -0.377141 0.221453 -0.154036 0.449762 0.397421 0.361168 -0.106996 -0.690330 -0.435104 0.394159 0.024343 -0.056133 0.100674 0.810738 -0.194115 -0.134197 0.047648 0.018460 -0.010717 0.277681 -0.147195 -0.088161 0.494214 -0.420597 -0.339207 -0.576416 0.506168 -0.466503 0.359040 -0.135107 0.267477 0.267273 -0.448544 -0.388110 -0.148426 0.383941 -0.564782 -0.140342
328 -0.527584 -0.027799 0.036884 0.138861 -0.040902 -0.575606 0.268188 0.557602 -0.400507 -0.475619 0.026843 -0.045900 -0.290977 -0.123565 0.714902 -0.338513 0.110597 0.324282 0.027497 -0.203402 -0.486622 -0.355264 0.271779 -0.244218 0.062066 -0.037629 -0.557356 0.106542 -0.103119 -0.176728 0.139479 -0.164619 0.067377 -0.074547 0.588854 -0.162340 0.037199 -0.382934 -0.248154 -0.130652 0.192948 -0.209880 0.263787 0.347913 -0.233223 0.496601 0.127861 0.666687 0.305109 0.307003 0.157930 -0.095125 0.433851 -0.410890 0.328757 -0.707897 0.637712 -0.079174 -0.439780 -0.025943 -0.242067 -0.075149 -0.055150 -0.268462
138 -0.296970 -0.441875 -0.110955 0.115676 0.504287 0.234215 0.148228 -0.279247 -0.231301 -0.423932 0.244663 0.155806 0.046505 0.688062 0.156707 0.231896 -0.190651 0.295141 -0.194847 0.766871 -0.500067 0.301058 -0.313902 0.219664 0.133385 0.259182 -0.294816 0.408728 0.062229 -0.439856 -0.209520 -0.429695 -0.223178 -0.231757 0.047818 -0.056124 -0.416107 -0.658894 0.590323 -0.021675 0.294158 -0.002503 0.337607 0.043352 0.283151 0.219906 -0.007215 -0.661651 0.606758 0.344076 -0.380313 -0.262686 -0.049463 0.416159 -0.072920 0.028550 -0.378573 -0.243729 -0.582020 0.158950 -0.285530 0.057827 -0.106993 -0.131078
262 0.174343 -0.715643 -0.176092 -0.362178 -0.500857 0.104868 0.242203 0.117317 -0.422499 0.006878 0.348089 0.387655 0.008160 -0.296452 0.617421 -0.072845 -0.003688 0.126427 -0.311458 0.424143 0.126943 0.525408 -0.268296 0.026785 -0.404783 -0.058662 -0.103154 -0.124766 0.267786 -0.217855 -0.128651 -0.181225 -0.200189 -0.292075 -0.556336 0.036467 -0.153495 -0.058275 0.036123 -0.073322 0.263863 -0.107233 -0.354459 0.197690 0.172717 0.122862 0.316549 0.677961 -0.161348 0.330310 -0.463931 -0.168822 0.193649 0.332998 0.174770 -0.090282 0.807123 0.573686 -0.080857 0.016229 -0.671036 0.443195 0.512863 0.036048
39 -0.468065 0.282648 0.084710 0.591505 0.053229 -0.091979 0.236780 -0.254774 -0.041058 -0.536616 -0.142530 -0.072706 -0.480761 0.035450 -0.001573 0.378187 0.110972 0.150733 -0.263095 -0.361754 -0.481864 -0.246065 0.180451 -0.391481 0.586735 -0.166035 -0.293520 0.574973 -0.213163 0.309310 -0.319656 -0.580885 -0.208699 0.498749 -0.410621 0.489605 0.012689 -0.073571 -0.066656 0.225827 0.184899 -0.312404 -0.410868 0.567087 -0.486285 0.561189 0.018291 0.287403 0.250503 -0.087431 -0.156031 0.089441 0.482984 -0.473044 0.504163 -0.360949 0.232579 -0.412796 -0.738434 -0.460018 -0.093794 0.088816 0.048951 -0.295244
337 -0.313639 -0.436963 -0.182263 -0.003856 0.182788 -0.667912 0.258170 -0.158356 0.053384 -0.433156 0.436971 0.374895 0.164880 0.067381 0.063640 0.110311 0.291669 0.116670 0.236317 0.015824 -0.181637 0.165255 0.472008 0.242533 0.815785 -0.179563 -0.057902 0.047900 -0.780037 0.007437 0.291515 0.446220 -0.028134 0.218037 -0.136534 -0.205807 -0.599329 0.078474 -0.055932 0.090149 -0.271705 0.256663 0.060120 0.236131 -0.149385 0.242529 0.458414 -0.307673 0.369471 0.051962 0.273770 -0.516437 0.036828 0.033340 0.198053 -0.587198 0.588800 0.403801 -0.515598 0.152879 0.029743 -0.476090 0.401534 0.413527
318 0.618031 -0.155015 -0.048835 0.511862 -0.064005 0.361757 -0.030448 -0.086315 -0.765300 -0.250426 0.161504 0.074641 0.162597 -0.035403 0.689604 -0.084536 0.319999 0.229919 0.119017 -0.117877 -0.537341 -0.136771 0.256404 0.353846 0.716208 0.525857 0.329733 -0.174906 -0.217275 -0.157713 0.095266 0.156340 0.207101 -0.402190 -0.079272 -0.431230 0.365618 0.091660 -0.355577 -0.124396 0.100269 0.106178 -0.428629 0.286060 0.306038 -0.367133 0.214127 -0.078570 0.202124 0.683272 -0.443405 0.015884 0.338307 -0.397990 0.324019 -0.006649 0.192067 0.333069 -0.559559 0.068402 -0.185433 -0.522600 -0.366720 -0.491187
342 -0.047288 -0.005067 -0.259790 -0.007995 0.458645 0.176219 -0.215997 -0.065786 0.160246 -0.253570 -0.171630 -0.368062 -0.141529 0.267890 0.570997 -0.472314 -0.027162 0.044958 0.354980 0.317388 0.051790 -0.048606 0.308029 0.018396 0.217124 0.211459 -0.423061 0.591423 -0.054380 -0.510543 -0.077257 -0.058351 0.441931 -0.178600 -0.368954 0.126268 -0.085704 -0.315274 -0.070172 0.894873 -0.273061 0.484689 -0.241908 0.075237 0.204827 0.319846 0.920228 0.171602 -0.457683 0.495485 0.012689 0.348604 0.091758 0.214322 0.053075 0.367505 0.612115 0.629234 -0.212561 -0.123778 -0.260185 -0.206110 0.229632 -0.467044
227 0.222112 -0.308012 -0.157504 0.293273 0.134177 -0.233255 -0.116886 0.315055 -0.601757 -0.355167 -0.336872 -0.419221 0.132282 0.750514 0.132980 -0.089834 0.620135 0.265806 0.083930 0.566445 0.289697 -0.665716 0.087317 0.731102 -0.242367 0.139489 0.044381 0.092585 -0.472763 0.117464 -0.104909 -0.337665 -0.492605 -0.357949 0.022919 -0.498936 0.304734 -0.179679 0.483038 -0.035146 0.301528 0.128339 0.184743 0.188613 -0.604316 0.345953 -0.163456 -0.151061 0.113744 0.121854 -0.332626 -0.173510 0.017664 0.351739 0.034043 -0.382884 0.581630 0.554259 -0.133413 0.065701 -0.461134 -0.181469 0.470618 -0.085384
24 0.073754 -0.112386 -0.339828 -0.036270 -0.427600 -0.597205 -0.416279 0.018907 0.051464 -0.712704 0.443087 0.127217 -0.278346 0.225418 0.066293 0.009099 0.079836 -0.055905 -0.274764 0.048636 -0.776955 -0.373191 -0.627996 0.372352 -0.094037 -0.291100 -0.642638 -0.171600 -0.705907 -0.224580 0.082788 0.390437 -0.040645 -0.140143 -0.293486 -0.439462 -0.280231 0.148381 -0.097935 0.017366 0.780281 -0.133228 -0.082273 -0.172259 -0.094518 0.218148 0.287329 -0.170095 0.330071 -0.045216 -0.179209 -0.141462 0.319641 0.124069 -0.174788 -0.643120 0.296531 0.492398 -0.194823 0.087020 0.339791 0.159709 0.562755 -0.297344
225 -0.246600 -0.341844 0.457206 -0.411140 0.371040 -0.203143 -0.370781 0.050049 -0.555737 -0.417426 0.536318 0.061717 0.293725 -0.231601 0.719507 -0.196400 0.168370 -0.210728 -0.247188 0.105318 -0.065015 -0.145826 0.121227 -0.146487 -0.204842 0.234217 -0.002428 -0.205071 0.001452 -0.029185 -0.423603 -0.336203 -0.434458 -0.178173 0.180193 -0.296033 -0.031524 0.268904 0.049319 -0.229839 -0.684526 -0.116390 -0.016753 0.192628 -0.206190 0.232983 0.653220 0.273110 -0.159683 0.530803 0.198130 -0.151798 0.258555 0.337920 0.025393 0.414045 0.266433 0.519514 -0.149074 -0.048195 -0.502604 0.107374 0.883341 0.282887
340 -0.169657 0.078961 0.195625 0.303559 0.725014 -0.210668 0.251129 -0.492365 -0.270112 -0.119759 0.218281 -0.107169 -0.358104 -0.414870 0.874067 -0.069757 0.512770 0.576200 -0.647553 0.001237 -0.063351 -0.069883 -0.291260 -0.378402 0.136358 -0.446050 -0.426146 0.503212 -0.078360 -0.000758 0.158439 0.167265 -0.313791 -0.069952 -0.584551 0.033045 -0.156787 -0.006545 -0.208667 -0.285722 -0.094525 -0.170221 0.027094 -0.517400 0.062973 0.505407 0.477404 -0.291673 -0.170883 -0.583074 -0.389598 -0.382954 0.066910 0.726428 0.088048 -0.015016 0.042686 0.300727 -0.590731 -0.136678 0.392208 0.027858 -0.108229 0.179999
115 0.260551 -0.556103 0.384785 -0.056134 0.814292 -0.141833 0.456690 0.646819 -0.073824 0.251443 -0.027836 -0.061223 -0.112901 0.725311 0.491678 -0.203764 0.112520 0.162942 0.101282 0.585405 -0.073589 0.058919 0.409953 0.250124 0.116110 0.438275 -0.231015 0.239560 0.311606 -0.019550 0.015290 -0.549671 -0.073413 -0.314931 -0.570932 0.427841 -0.065455 0.094960 0.535654 -0.127696 0.065274 0.044968 -0.165965 0.002883 0.104708 -0.357315 0.325100 -0.527734 0.577035 0.020652 0.133591 0.073005 0.226872 0.538147 0.543056 -0.407812 0.374228 0.115808 -0.222807 0.104646 0.241157 -0.025317 -0.137255 -0.073372
313 -0.272013 -0.301642 0.383340 0.552382 0.290648 -0.424858 -0.112652 -0.072496 -0.205482 -0.311084 0.604808 0.337060 0.159322 -0.151895 0.254185 -0.541811 -0.217615 0.177953 0.398242 -0.159689 0.594838 -0.087857 0.186164 0.542385 0.628937 0.230680 -0.183652 0.187041 -0.570835 -0.094657 0.169108 -0.031768 -0.564219 -0.602397 0.476737 -0.109523 0.376523 -0.253085 0.447060 0.159209 0.128130 0.181721 -0.017381 -0.015646 -0.043601 -0.374132 0.084070 -0.096712 -0.265806 0.617060 -0.432807 -0.294798 0.268064 -0.415597 0.497810 -0.322310 0.078415 0.108770 -0.525514 -0.003856 -0.178988 -0.469858 0.038106 -0.067860
185 -0.249013 -0.300079 0.135408 0.659109 -0.226296 0.264251 -0.026786 -0.141286 -0.107176 -0.275427 0.600620 0.436684 -0.086076 0.004779 0.406417 -0.238794 -0.217681 0.309107 0.467378 0.434000 -0.112608 -0.602266 -0.153075 -0.143082 -0.060354 0.325234 -0.558789 0.399333 -0.017563 -0.024022 0.504032 -0.023951 -0.616106 -0.249318 -0.137662 -0.140657 0.203443 0.332610 0.372683 0.144355 0.063498 -0.175846 -0.284283 0.001152 -0.762908 -0.403597 -0.112652 0.454520 -0.256974 -0.104330 0.013664 0.316690 0.400525 -0.440193 0.584501 -0.211319 0.134872 0.284428 -0.390599 0.001089 -0.054255 -0.787570 0.017206 -0.418830
98 -0.260320 -0.820686 -0.097192 0.012903 0.630660 -0.088296 -0.146489 -0.036681 -0.512882 0.295119 0.490791 0.049992 0.219482 0.132267 0.464998 -0.682795 0.037178 -0.025461 -0.452958 -0.007635 -0.404397 -0.112341 -0.079367 -0.030596 0.180568 0.098600 -0.418312 0.376936 0.049483 -0.268125 -0.350683 -0.118765 -0.344305 -0.343990 0.085476 -0.470358 0.392336 -0.135802 0.395178 -0.286486 -0.269321 0.008696 -0.271460 0.208480 -0.436526 0.240340 0.285429 -0.230224 0.128644 0.547492 0.008038 -0.301380 0.158979 -0.019571 -0.105681 -0.176415 0.413402 0.097214 -0.466509 0.905061 0.407676 0.279858 0.695483 -0.123137
110 0.055912 0.152250 0.097230 0.353171 -0.165452 0.168388 -0.388928 0.136676 -0.187201 -0.399889 0.166504 0.322843 -0.232754 -0.085484 0.384788 -0.413744 0.217314 -0.010440 -0.619144 -0.034526 -0.481782 -0.005602 0.799902 -0.326722 0.134213 -0.506763 0.203825 -0.493853 -0.256024 0.339650 -0.404023 -0.259021 -0.008567 -0.463189 -0.756677 -0.710007 0.012169 -0.206669 -0.119105 0.261690 -0.336462 0.258654 -0.079602 0.387638 0.495725 0.141329 0.389535 0.042538 -0.027791 -0.185873 -0.635776 0.021717 0.406944 -0.078999 0.148152 -0.131629 -0.098903 0.024160 -0.407890 -0.083962 0.587259 0.386765 -0.069971 -0.146115
329 0.349185 -0.203175 0.016277 0.214953 0.073687 -0.389310 0.069473 0.973193 -0.408267 -0.133351 0.451216 -0.093959 0.519205 0.237236 0.065549 -0.121704 -0.448400 -0.151173 -0.171678 -0.244299 -0.538965 -0.365963 0.033161 -0.473468 0.248014 0.001128 -1.017046 0.496796 -0.307649 -0.356110 -0.072394 -0.291299 -0.156545 0.234873 -0.438394 -0.035837 0.246244 -0.346266 -0.234811 -0.285770 0.160413 0.453197 -0.096649 0.255398 -0.094877 0.499219 -0.631410 0.169800 -0.002260 0.172419 -0.206726 -0.228114 0.739628 -0.315360 -0.123598 -0.346842 0.224926 0.328747 -0.611400 -0.290556 0.295619 -0.131192 0.241049 0.377265
63 0.128129 -0.569548 -0.153067 0.279376 0.053408 -0.122201 0.316746 -0.123913 -0.308414 0.597180 0.456128 -0.225915 -0.129188 0.227523 0.914595 0.126318 -0.344371 -0.328123 -0.140936 0.236566 -0.247895 0.106460 -0.011387 0.397597 -0.393653 0.114524 -0.710521 -0.378887 0.293723 -0.386036 -0.332011 0.186173 -0.145841 0.271542 -0.069152 0.264806 0.279657 0.838429 0.096086 -0.117733 -0.005653 0.080623 0.104619 0.222363 0.240736 0.397578 0.457431 -0.163536 -0.053011 0.412874 -0.681418 0.078133 0.285896 -0.143385 0.650721 0.074553 0.379947 0.973478 0.035156 0.133527 -0.260191 -0.091042 0.102851 -0.152025
82 0.270335 -0.474280 0.059067 0.375591 0.034702 0.045965 0.138080 0.197874 0.277947 -0.118734 0.693986 0.187320 0.320633 0.501373 0.504968 -0.911628 0.771707 0.196657 0.211177 0.005512 0.241934 -0.289557 0.378297 -0.299040 0.045061 0.131367 0.265603 0.038289 -0.249720 0.184828 0.128817 -0.266254 -0.466970 -0.118974 -0.155000 0.366638 0.336118 -0.408274 0.295143 0.274168 0.373632 0.294774 -0.217813 0.007582 0.548899 -0.209103 -0.217493 -0.616476 -0.096611 -0.127593 -0.161162 -0.246237 0.296398 0.235238 0.729950 -0.071792 0.631200 -0.113193 -0.255989 0.411408 0.029264 0.265181 0.141752 0.144697
345 -0.161658 0.152889 0.081568 -0.066698 0.228953 0.290019 0.476301 -0.093638 0.267550 -0.219465 0.249449 0.184473 0.467263 0.104532 0.212229 0.039272 -0.238880 -0.047678 0.312113 -0.336708 0.138340 0.137922 0.243035 0.492816 -0.208538 0.273532 0.167836 0.192720 -0.199696 -0.512000 -0.245426 0.194990 -0.128822 -0.327372 -0.188451 -0.247262 -0.274997 -0.623250 0.809671 0.693880 0.054156 0.365939 -0.431830 0.012498 -0.296369 0.181744 0.538496 0.071488 -0.515875 0.195604 -0.439051 -0.154379 -0.036078 0.007382 0.030487 0.141935 0.173130 0.073141 -0.688828 -0.596894 0.187302 -0.440611 0.346196 -0.473386
310 0.584103 -0.288378 -0.014836 0.069243 0.196891 -0.060550 0.033520 0.732382 0.064467 0.140921 0.236938 0.071451 -0.400894 0.788688 -0.161676 0.065395 0.432588 0.346333 -0.411766 -0.018083 0.143648 -0.370278 0.210845 0.089157 -0.395071 0.230121 0.266853 -0.280836 0.210282 -0.059779 -0.134872 -0.555007 -0.344740 -0.627191 -0.591078 0.467067 -0.145975 0.017757 0.323311 0.308275 0.293272 0.168001 -0.309488 -0.154392 0.056522 0.184793 0.024818 -0.222787 -0.011834 0.267849 0.021301 -0.037713 0.158424 0.582653 0.420709 -0.161799 0.367996 0.227159 -0.492311 0.246422 -0.275765 0.221537 0.096499 0.479403
211 0.707414 -0.182858 -0.262731 -0.297471 0.235969 0.039651 -0.039962 0.099651 -0.043052 -0.035419 -0.144909 0.030744 -0.139566 -0.293022 0.460143 -0.406511 0.344943 0.012954 0.103547 0.488087 -0.279557 0.338631 -0.056175 -0.225333 0.061004 0.325178 0.210811 0.238406 -0.393343 0.435123 0.309888 -0.200323 -0.553592 -0.153724 -0.087315 0.279294 0.033287 0.064311 0.029719 -0.403599 0.088982 0.035766 -0.353243 -0.025964 0.405880 -0.005372 -0.354537 -0.279858 -0.215741 -0.318464 -0.641415 -0.681407 -0.509375 0.126629 0.479062 0.057398 0.977776 0.507100 -0.622713 -0.012670 -0.422594 0.486100 0.254178 -0.237693
114 0.033699 0.097940 -0.519025 -0.206039 0.463256 -0.181488 0.562352 -0.059756 0.389251 -0.248574 0.291351 0.086202 -0.162360 -0.253665 0.782847 -0.298523 0.015680 -0.117690 -0.204194 0.148753 0.103173 -0.003906 0.096128 -0.229500 -0.091085 -0.040049 -0.013723 -0.252207 0.172474 -0.512785 -0.225330 -0.087711 -0.071186 -0.172254 -0.753395 -0.048603 -0.234333 -0.323800 0.069959 0.452999 0.122897 0.342113 0.264924 0.397796 -0.084121 0.234413 0.091776 0.679811 -0.023082 0.362086 -0.307152 0.215388 -0.034988 -0.030619 0.249135 0.664905 0.335503 0.586407 -0.122983 -0.234108 -0.288671 0.073900 0.608315 -0.282948
308 0.394589 -0.362261 0.085862 -0.227162 0.320911 0.174719 -0.021333 -0.224646 -0.683346 -0.293760 0.282756 -0.434810 0.418922 -0.003246 0.141731 -0.323901 0.047489 -0.261394 -0.238868 0.185051 -0.241027 0.020329 0.010309 -0.022554 0.568030 0.326547 -0.237211 0.098837 0.196414 -0.549407 0.632900 -0.031293 0.032187 -0.474341 -0.707024 0.104926 0.060998 0.210194 -0.340560 -0.132123 -0.540812 0.095159 0.201814 0.126893 -0.372639 0.318699 -0.168974 -0.189018 0.292157 0.004237 -0.391360 -1.067459 0.192864 -0.340025 0.322717 -0.059482 -0.240921 0.160883 -0.560281 0.188830 0.370173 -0.060405 -0.021919 0.439202
214 0.013958 -0.226390 0.271626 -0.111019 -0.237958 0.051485 -0.293997 0.109575 -0.490218 -0.255354 0.173168 -0.243549 -0.344711 0.315157 0.516436 -0.283500 -0.758031 0.305707 -0.295415 0.632069 -0.131866 0.094521 0.465355 0.144499 0.163182 -0.008692 0.345568 0.347900 -0.392164 -0.327994 0.272557 0.487895 -0.134675 -0.027247 0.081629 -0.366529 -0.054799 0.059900 -0.053133 0.259628 -0.276412 0.118796 0.244393 -0.294822 -0.546129 -0.060922 -0.250114 0.477611 -0.060550 0.354228 -0.285566 -0.142273 0.526029 -0.233524 0.237925 0.343879 0.921987 -0.412033 -0.204007 -0.035084 0.053918 -0.429250 0.222043 0.600671
2 0.005611 -0.683036 0.896879 0.307630 -0.112409 -0.210755 -0.254956 -0.025149 -0.105663 -0.509260 0.436498 -0.333632 -0.586212 0.009907 0.265960 -0.431726 0.111398 -0.148245 0.221899 0.560129 0.112918 0.186817 -0.097834 -0.025638 0.372572 -0.065286 0.377811 0.341429 0.116337 -0.219112 0.455747 -0.182293 -0.701907 -0.114293 -0.142883 -0.402583 0.270221 0.195960 0.057756 -0.007027 -0.224220 0.201789 0.090400 -0.008715 -0.596128 0.192563 -0.458322 0.695151 -0.000905 0.012294 -0.235201 0.119142 -0.074852 0.151185 -0.000511 -0.118706 0.557959 0.012510 -0.205746 0.045904 0.378734 -0.422630 0.006678 -0.475174
321 -0.029391 0.213797 -0.112124 0.396050 0.688006 0.178569 -0.047752 -0.628784 0.263179 -0.432317 -0.262915 -0.541885 -0.406436 0.603449 0.469758 -0.372593 -0.098424 -0.059884 -0.098167 -0.112619 -0.385314 -0.022093 0.048911 -0.060694 0.620447 0.169820 -0.406490 0.293124 -0.157345 -0.329380 0.050803 -0.345317 0.342961 -0.738376 -0.707331 0.578729 -0.396469 -0.028028 -0.342707 0.176664 -0.110070 -0.326828 -0.096925 0.239673 0.225699 -0.499709 0.431735 -0.086336 0.082636 -0.025257 -0.575252 -0.167561 -0.027597 0.058852 -0.301304 -0.033753 0.720902 0.479082 -0.292865 -0.460273 -0.120734 0.172623 0.366774 -0.065842
299 -0.067259 0.221571 -0.147763 -0.150105 -0.063604 0.128055 0.032884 -0.019636 -0.349792 -1.161774 -0.083464 -0.000021 0.067525 -0.241605 0.262841 -0.231460 -0.344311 0.497389 -0.266858 -0.342075 -0.011722 0.549449 0.178911 0.200256 -0.588872 0.224042 -0.197090 0.010293 -0.078623 -0.010699 -0.458174 -0.490220 0.140455 0.015971 -0.276406 0.693335 0.333717 0.011345 0.001756 0.225485 0.228048 0.142230 -0.056677 -0.379739 0.300710 -0.023136 0.689075 0.240909 0.385152 0.266457 -0.937111 -0.142111 -0.268509 0.112639 -0.000041 -0.284806 0.900323 0.257802 -0.066255 0.426493 -0.697105 -0.231801 0.231715 0.338929
260 0.307488 -0.480164 0.825883 0.320169 -0.523710 -0.279265 -0.515422 0.356282 0.494755 -0.797867 0.574316 -0.099711 -0.255989 0.158838 0.122911 -0.132259 0.679337 0.013662 0.080253 0.036969 -0.150709 0.236170 -0.366246 -0.484269 -0.339268 -0.224268 -0.222870 0.314428 -0.178193 -0.524857 -0.144387 0.290757 -0.311933 -0.158998 -0.661495 -0.422164 -0.252148 -0.300172 -0.138978 0.350286 0.354448 0.048861 0.511008 -0.004472 -0.226399 -0.100935 -0.003520 0.040931 0.258810 -0.129176 -0.225731 -0.218142 0.196514 -0.126813 0.582885 -0.372829 0.146814 0.183186 0.092914 -0.292592 0.598855 -0.065282 0.191774 -0.122620
375 0.010866 -0.167656 -0.221250 0.501629 -0.027180 -0.232719 0.104354 0.386876 -0.338949 -0.185386 0.628216 -0.677060 -0.178446 0.133238 0.047871 0.056751 0.391874 0.392080 -0.310232 0.254577 -0.029035 0.012486 -0.078214 0.756463 -0.178648 0.414489 -0.333020 -0.570096 0.107307 0.369922 0.217492 -0.278029 -0.658760 0.111334 0.109102 0.072457 -0.314945 -0.143473 -0.833753 -0.007581 -0.415190 0.578478 -0.155932 -0.685193 0.521975 0.156636 0.268229 0.148256 -0.103045 -0.748350 -0.446286 0.193209 -0.514597 -0.498408 -0.826331 0.014514 0.410411 -0.655014 -0.266807 -0.525688 0.611601 -0.360450 0.796269 -0.018588
276 -0.161254 0.037016 -0.083068 0.465402 0.362415 0.083963 -0.541346 0.140404 -0.281027 -0.796429 -0.050189 -0.158727 -0.093500 -0.027118 0.395692 -0.248644 -0.531920 0.118545 -0.473411 -0.629583 0.111863 0.130905 0.654025 0.028573 -0.266585 0.043457 -0.308716 0.122505 -0.219704 -0.136409 0.282547 -0.315095 0.070305 -0.562400 -0.917323 -0.488255 -0.005776 -0.025058 -0.127821 0.307332 0.357834 -0.124648 -0.182331 -0.137613 0.299495 0.150684 0.467895 0.120578 0.591295 0.224660 -0.459097 -0.150622 0.048990 -0.195239 0.149627 0.149442 0.492817 0.225070 0.101249 0.086966 0.184917 0.275490 0.260166 0.255722
124 -0.044661 -0.207046 0.199267 0.461780 -0.045665 0.237273 0.452816 -0.233424 -0.161756 -0.467329 0.137505 0.156055 0.478540 0.496486 0.153098 -0.192686 -0.195337 -0.291721 0.110799 -0.327454 -0.257371 -0.323975 0.139303 -0.120054 0.728649 -0.213832 0.086407 0.078698 -0.047888 -0.180430 0.398997 -0.317367 0.073048 0.197168 -0.027877 -0.204663 -0.745618 -0.231089 0.494630 0.804569 -0.172899 -0.124636 -0.251264 -0.248337 0.028928 -0.094431 0.441822 -0.371219 0.103517 0.222230 -0.147260 -0.289226 -0.070360 -0.290264 -0.130163 0.068696 0.280369 0.280479 -0.778647 -0.448311 0.239582 -0.230942 0.686154 -0.178940
217 0.380584 -0.114770 -0.076695 -0.323328 0.235860 -0.192584 -0.294440 -0.363036 -0.035616 -0.267965 0.102318 0.448198 -0.056040 0.115737 0.097986 -0.424687 0.027207 -0.114469 0.014795 -0.135986 -0.040388 0.328940 0.133633 0.025068 0.096440 0.910930 -0.069546 0.020671 -0.628224 -0.846953 -0.093497 0.174098 0.041441 -0.023394 -0.673497 -0.275594 -0.418583 -0.173238 0.596214 0.292569 0.006957 0.408125 -0.285783 0.183843 -0.457716 0.516577 0.131976 0.122984 -0.355716 -0.070456 -0.589521 -0.005098 0.046408 -0.221923 0.484965 1.002029 0.439276 -0.125057 -0.230276 -0.306191 0.332987 0.198693 0.109700 -0.673735
52 0.105505 0.168931 -0.311485 -0.039041 0.282542 -0.063428 0.143665 0.032206 -0.232687 -0.707256 0.138701 0.349246 0.197206 -0.417271 0.454062 -0.087912 -0.141387 0.167256 0.522403 0.132335 0.187298 0.401224 0.163903 0.203550 1.060356 0.507708 -0.128623 -0.412165 -0.405446 -0.340755 -0.153736 0.197900 -0.175701 0.159921 -0.179705 -0.192281 -0.159991 -0.266202 0.078019 -0.080833 0.165482 0.564235 -0.211038 0.039502 0.164435 -0.274261 -0.042104 0.254984 0.415797 0.545045 -0.037280 -0.406693 0.110325 0.082451 0.960112 -0.587735 0.218379 0.378831 -0.602347 0.082930 -0.077911 -0.611861 0.052278 0.216855
34 0.132123 -0.386033 0.064744 -0.296742 0.192763 0.186756 0.256669 -0.059401 -0.358500 -0.202220 -0.100505 -0.209359 0.069051 0.689228 0.179873 -0.533765 -0.037102 0.050382 -0.323409 0.241422 -0.033238 -0.561088 -0.023896 0.108750 0.205669 -0.132925 0.194394 0.126528 0.022608 -0.449999 0.406550 -0.614684 -0.257367 -0.517813 -0.738408 0.105176 -0.300105 0.608088 -0.548798 0.516721 0.258292 0.234904 0.890212 -0.232247 0.255456 0.847559 0.166343 -0.181866 0.595635 -0.014499 -0.216311 -0.532461 0.352259 -0.513246 0.165805 -0.596064 -0.116238 0.204387 0.062787 -0.161257 0.315989 0.117077 -0.320952 -0.243443
100 0.247745 -0.196001 -0.083173 0.979899 0.256376 0.932129 -0.277163 0.021692 -0.816921 -0.163217 0.292967 0.057310 -0.008321 0.237138 0.512807 -0.013455 0.282997 0.148363 0.577322 0.037884 -0.005337 -0.585836 0.306991 -0.399718 -0.095994 -0.002444 -0.462451 -0.010435 -0.748557 -0.098584 -0.640649 0.339744 0.344523 -0.068337 -0.226712 0.140761 0.030037 0.282777 0.136167 0.195261 -0.015800 0.007359 -0.041395 -0.189933 0.063164 0.769534 0.184547 -0.469457 -0.190314 0.001806 0.299681 -0.430415 0.009932 -0.290056 -0.213979 0.039462 0.431496 0.376303 -0.337357 -0.226946 0.598315 0.264133 0.070182 -0.169479
32 -0.024363 -0.292687 0.150573 -0.475736 0.165001 -0.526153 0.344094 0.139886 -1.188007 -0.214025 -0.208304 0.219199 -0.464897 0.258152 0.236046 -0.728090 -0.292893 0.444261 -0.096503 0.864534 -0.376013 -0.249348 0.267556 0.093043 -0.027418 0.216066 0.462217 -0.201801 0.491811 0.528908 0.008144 0.042829 -0.326497 -0.246052 -0.268760 0.102936 -0.034611 -0.023214 0.289185 -0.323236 0.082519 -0.039385 -0.392460 -0.107856 -0.447883 0.162609 0.368876 -0.412796 0.316469 0.098519 0.226612 -0.367536 0.441271 -0.470676 -0.012137 -0.223952 0.068038 0.351862 -0.773152 -0.250799 -0.143040 -0.134123 -0.124579 -0.405456
246 0.679228 -0.747713 0.004280 0.059529 -0.305659 -0.609052 -0.111180 0.698489 -0.338452 -0.138039 0.615488 -0.333928 -0.319110 0.153642 0.542579 -0.024997 -0.449906 0.379158 -0.015561 -0.109424 0.503528 -0.249544 -0.159439 -0.030634 0.333380 0.144687 0.245146 0.092912 0.171615 0.070809 -0.297861 -0.336405 0.202776 -0.765097 -0.104125 0.247244 -0.665387 0.275030 -0.318630 0.089508 0.317003 -0.085551 0.446674 0.022616 -0.084398 0.373203 0.119163 -0.008606 -0.623163 -0.083611 0.407651 0.195806 0.268182 0.330983 0.670632 -0.124072 0.081621 -0.570468 -0.164922 0.348572 -0.486626 -0.084873 0.237491 0.020332
50 0.240050 0.270993 0.045541 0.256611 0.404678 -0.486634 -0.162047 0.095368 -0.003305 -0.373295 0.305432 -0.027424 -0.140493 -0.261923 -0.224812 -0.280447 0.344780 0.096294 -0.122001 0.352296 -0.267931 -0.287062 0.412802 0.045915 0.195306 0.289062 -0.609521 0.332742 -0.249452 -0.194224 0.601977 0.225589 0.147004 -0.118460 0.178550 -0.115978 -0.214381 0.221918 -0.040960 0.772986 -0.160809 0.160634 -0.149737 -0.056277 -0.144950 0.105138 0.737324 0.039953 -0.064135 0.174216 0.009806 -0.619178 0.493544 -0.129940 -0.199500 -0.019375 0.339120 0.418977 -0.836469 0.043401 -0.357018 -0.090173 -0.265417 -0.088360
134 0.686777 -0.149907 -0.138226 0.229102 0.514646 -0.768341 -0.297772 0.624539 0.113977 -0.720952 0.457571 -0.433435 0.325956 0.162348 -0.014125 -0.376596 0.072521 0.011053 0.026592 0.084991 0.293989 -0.078484 0.474189 0.303395 -0.039487 -0.035544 -0.272896 0.315947 -0.388881 -0.154972 0.806097 -0.101089 -0.044831 -0.087435 -0.238494 -0.463391 0.340439 0.161189 0.809794 0.666996 0.272023 0.076680 -0.024593 -0.152085 -0.095839 0.104366 0.203185 -0.154756 0.492562 0.414789 -0.121069 -0.025272 0.110476 -0.311469 0.220883 -0.089027 -0.013394 0.318237 -0.203550 -0.009254 -0.292509 0.091100 0.311825 -0.522296
314 -0.432849 -0.407598 0.214362 0.978209 0.220732 0.106746 -0.150596 0.109262 0.106545 -0.355761 0.114591 0.467425 -0.730127 -0.191952 0.133810 -0.218390 0.139153 -0.199680 -0.054739 0.228861 0.146063 -0.243723 0.095320 -0.110156 0.503354 0.804757 0.056385 0.029800 -0.214220 -0.355205 0.113719 -0.352227 -0.206322 -0.337836 0.180522 -0.517565 -0.163060 -0.299085 0.287451 0.020088 -0.619385 0.397931 -0.045813 -0.247118 0.095516 -0.183111 0.158139 -0.489353 -0.050403 -0.228020 -0.813420 0.081478 0.234794 -0.265646 0.479534 -0.465575 0.068282 0.758537 -0.171168 -0.109409 -0.115064 -0.148804 0.391437 0.273505
123 -0.314995 -0.334249 -0.195105 0.277691 0.417618 -0.288502 0.047468 -0.266655 -0.276160 -0.334167 0.424427 0.370122 -0.066820 0.249434 -0.089709 -0.812924 0.358242 0.246926 -0.330719 0.092315 -0.084620 0.064743 0.573334 0.529731 0.036254 0.057590 -0.195212 0.562945 -0.621415 0.190843 0.308718 -0.078404 -0.609009 -0.621068 0.269562 0.284924 0.186768 0.058598 0.252056 -0.026302 0.298218 0.386194 -0.014144 0.315581 -0.041586 -0.259618 -0.282210 -0.472710 0.221613 0.118567 -0.077009 0.334113 -0.176389 0.433111 0.330515 -0.520916 0.428291 0.108984 -0.608870 0.329164 -0.070015 -0.373982 0.478408 -0.280880
273 -0.060846 -0.013464 0.669584 0.247202 0.358661 0.528565 -0.119977 0.206434 0.172560 0.101289 0.181762 -0.219488 0.256465 -0.303939 0.456604 -0.536688 -0.143756 0.173173 -0.058551 0.543379 -0.166916 0.176008 0.231584 -0.235364 0.417921 0.427166 -0.342285 0.334290 -0.008248 -0.139194 -0.578659 -0.498097 0.163842 -0.571453 -0.474056 0.115054 -0.205255 -0.183665 -0.088292 0.383639 -0.302046 -0.433431 -0.402654 0.020326 -0.193893 -0.802672 0.418870 -0.144942 0.215572 -0.061019 -0.242823 0.037818 0.217345 0.163334 0.196627 -0.361008 0.359420 0.703869 0.027086 -0.403147 -0.017162 -0.295614 0.241983 -0.133442
146 -0.916064 0.127765 0.058510 0.219627 0.044600 0.319707 0.141495 0.525331 -0.325999 -0.408453 0.399740 -0.255746 -0.042394 0.335124 0.440617 -0.096631 0.285793 -0.360211 -0.080488 -0.470913 0.192110 -0.193582 0.292415 0.341133 -0.197338 -0.205223 -0.318817 0.577628 -0.149076 0.028275 -0.126887 -0.504567 0.209234 -0.923005 -0.144524 0.173983 -0.466174 0.123229 0.058299 0.434373 -0.169475 -0.044964 -0.148446 0.072434 -0.022838 0.601699 0.421775 0.489810 0.363116 0.105384 -0.110164 -0.384434 0.454954 -0.409316 0.220406 -0.603877 0.439879 0.359795 -0.257707 0.300722 0.177943 0.003918 -0.358508 -0.144265
203 0.223586 -0.400774 0.212876 0.410007 0.610322 -0.089391 0.248716 -0.064664 -0.210281 -0.379051 0.016839 -0.153487 -0.086924 -0.110895 0.334344 -0.782725 0.251244 0.780333 -0.400369 -0.314825 -0.305434 0.213965 0.402976 0.399078 0.169581 0.086696 -0.143529 0.408254 0.322135 -0.007982 0.062709 -0.448276 -0.679188 -0.210728 -0.116851 0.702094 -0.107804 0.403330 -0.279791 -0.318008 0.160858 -0.015345 -0.316275 0.074779 0.297472 -0.178956 0.000032 -0.180581 -0.187376 0.036671 -0.384478 -0.044342 -0.020663 0.556463 -0.289986 -0.451295 0.521838 0.260714 -0.293455 -0.248266 0.181797 0.057745 -0.096773 -0.246656
163 0.117277 -0.311146 0.119341 0.929680 0.208741 -0.028309 -0.153088 0.593442 0.165258 -0.556470 0.464411 -0.828181 0.341045 -0.243610 0.467519 -0.009607 0.091812 0.361772 -0.013040 0.545171 -0.710357 0.107535 0.333275 0.200879 0.012644 0.314720 -0.484890 -0.016380 0.052364 -0.061445 -0.079139 0.591291 0.256144 -0.673741 -0.365324 -0.158507 0.176195 -0.371745 0.238506 0.580349 0.118357 0.038258 0.783390 0.129688 -0.205743 -0.032522 -0.062513 -0.112878 0.422697 0.024172 -0.235606 -0.218341 0.018389 -0.241855 0.372181 -0.090588 -0.277297 0.439411 0.285596 -0.157727 -0.289180 0.139758 -0.090475 -0.238197
83 -0.155142 -0.258584 0.190657 -0.482102 0.066059 -0.027284 0.674695 0.811933 -0.433159 -0.045139 0.420159 -0.361601 -0.794559 0.743105 0.400031 -0.399711 -0.168852 -0.265116 -0.131658 0.241373 -0.030773 -0.200653 0.119582 0.144636 0.138897 0.146718 -0.113132 0.320887 0.105876 -0.042781 -0.046776 -0.236056 0.290904 -0.706684 -0.195706 -0.151907 -0.261465 0.920468 -0.198769 -0.190756 0.032698 0.247597 0.347756 0.282647 0.280057 0.095257 0.333728 -0.119261 0.219587 -0.207755 -0.383877 0.075177 -0.060192 -0.112836 0.565751 -0.266697 0.101136 -0.158467 -0.143280 0.523424 0.318000 -0.164793 -0.132122 -0.156012
322 0.034419 -0.070397 -0.419725 -0.404842 0.262521 0.298787 -0.186821 -0.032986 -0.123222 -0.580933 0.922860 0.261457 -0.571511 -0.081424 -0.170411 0.139193 -0.057686 0.199226 -0.290415 0.724810 -0.205896 -0.606433 -0.154064 -0.198438 0.310136 0.829986 0.133986 -0.643086 0.519701 -0.494064 -0.373137 -0.721873 -0.305331 -0.100179 0.169887 0.071358 -0.284225 -0.380247 0.172772 0.045127 -0.148439 -0.209484 0.240471 0.066744 0.505133 0.336963 -0.021470 -0.292517 0.672900 0.031021 -0.349317 -0.095016 -0.011389 -0.421852 -0.164883 -0.033392 0.420993 -0.105678 -0.186318 0.154231 -0.127280 0.236758 -0.222345 -0.274809
240 0.056113 -0.457628 0.156333 0.034211 0.001037 0.344170 0.140857 -0.558646 -0.678065 -0.577274 -0.025813 0.106770 0.567804 0.506670 -0.002780 -0.523688 -0.521424 -0.274183 -0.094519 0.440056 -0.093833 -0.139078 -0.201654 0.151045 0.244312 0.114411 0.256720 0.222194 -0.262334 -0.424567 0.395037 -0.152216 0.015962 -0.181687 -0.285507 0.450554 -0.465231 -0.062249 -0.059382 0.141814 -0.077249 0.307603 0.110183 -0.349743 0.229785 0.432065 0.081129 -0.266080 0.172708 0.022038 -0.848921 -0.589922 0.557346 -0.396646 -0.018748 -0.210951 -0.586347 0.159034 -0.763481 -0.000494 0.122313 -0.100914 0.268759 0.322038
350 0.358252 0.168943 -0.085144 0.293417 -0.171959 -0.352315 0.603647 0.015696 -0.511173 -0.108418 -0.188854 -0.056633 -0.323885 0.331437 0.448579 -0.011898 -0.134257 -0.181034 -0.293055 0.654589 0.388796 0.015246 -0.046764 0.289227 0.091111 0.269010 -0.353447 0.291565 -0.425099 -0.519202 -0.157115 -0.112710 -0.028160 -0.279235 -0.920831 0.308440 0.512272 0.364469 -0.578802 0.176217 -0.109073 -0.073923 0.072275 -0.491821 0.208851 0.670901 0.297920 -0.346018 -0.677826 0.402904 -0.191804 -0.378870 -0.509758 0.355114 0.371204 -0.342593 -0.077322 0.408180 -0.611233 -0.258058 -0.404193 0.694512 -0.197666 -0.124895
309 0.321449 0.033554 0.651669 0.525075 0.103826 0.315907 -0.553743 -0.184196 -0.150105 -0.112623 0.319366 0.394260 -0.411724 0.344858 0.000234 -0.281476 0.401397 -0.209034 0.636002 0.543703 0.165773 -0.365189 0.370161 -0.087407 -0.694728 0.247588 -0.137034 0.449320 -0.982890 -0.163484 -0.008653 -0.028907 -0.044834 -0.432566 -0.011590 0.222753 -0.086726 -0.244609 -0.149544 -0.039364 0.468997 0.124494 0.243672 0.331062 0.382442 0.545963 0.029488 0.096154 0.102713 0.032449 -0.051399 -0.378742 0.264277 -0.173133 0.454570 0.527399 0.439519 0.293484 -0.817338 -0.070477 0.203360 -0.021373 -0.192971 0.339390
28 -0.086993 -0.266451 -0.129068 0.084896 0.148996 0.084373 -0.088511 -0.373819 -0.503834 -0.283507 -0.021329 -0.501303 -0.539306 -0.896348 0.695383 -0.375095 0.117426 0.367125 -0.115930 0.307447 -0.152885 -0.011563 0.235715 -0.386030 0.066679 -0.718054 -0.257587 0.107141 0.060770 -0.630751 -0.382611 0.329785 0.052267 -0.355693 -0.200976 0.028575 0.170120 -0.089428 -0.002169 0.195969 0.152409 0.298092 -0.104765 0.407811 -0.093832 0.490901 0.328862 -0.491419 -0.755412 -0.504224 -0.153710 0.420635 0.170692 0.310676 0.336637 -0.477942 -0.073518 0.402349 -0.755599 0.536786 0.180496 -0.283212 0.208214 -0.469999
302 0.109600 -0.608894 0.394800 -0.281549 -0.692210 0.373040 -0.617783 0.212454 -0.142697 -0.356200 0.313406 -0.414643 0.386067 -0.464549 0.275645 -0.169966 -0.186227 0.013812 0.031028 0.309186 -0.310788 0.322591 0.034917 -0.329695 -0.069609 0.036874 -0.145750 0.172581 -0.051308 -0.457560 -0.626321 -0.032230 -0.487283 -0.604646 -0.403298 -0.205737 -0.422465 0.127258 0.374812 0.292181 0.105694 -0.232462 0.255807 0.081027 0.255877 -0.474952 0.132739 0.246489 0.459279 -0.049103 -0.139786 -0.237812 -0.156457 0.003151 0.329395 -0.446935 0.199383 0.436018 -0.556101 -0.651183 0.051836 0.047841 0.171584 0.384526
347 0.092963 -0.104065 0.082963 -0.402853 0.532571 0.056399 0.160415 0.592330 -0.172643 -0.584389 0.344097 -0.138690 -0.458263 -0.273197 0.563426 -0.573250 -0.102590 -0.148498 -0.152121 0.418122 0.082360 -0.483325 -0.364450 0.089142 0.156860 -0.068371 0.384745 0.792964 0.006819 0.177722 0.180302 -0.149399 -0.117968 0.508735 -0.354960 -0.135078 -0.372478 -0.288404 -0.509267 -0.045921 -0.211817 -0.086648 0.313470 -0.328443 -0.152026 -0.034263 0.504684 0.275470 0.629206 0.201629 -0.271273 0.112939 -0.340418 0.200396 0.387714 0.311363 0.106329 0.158823 -0.308676 -0.061179 0.481178 -0.034199 -0.152778 -0.564768
131 0.204975 -0.229382 0.267598 -0.129647 0.613370 0.104446 -0.352374 -0.066828 -0.662563 -0.587636 0.095756 0.178580 -0.198257 0.160112 0.409442 -0.652450 -0.137926 0.457431 -0.203978 -0.394449 -0.495371 0.442627 0.039495 0.547103 0.563408 0.012068 0.156252 0.644053 -0.039228 -0.021146 0.007372 -0.393402 -0.077650 0.321853 -0.235583 0.638383 0.517006 0.216080 0.066261 -0.072647 -0.223666 -0.293550 -0.018134 0.175238 -0.090794 0.397690 -0.295252 0.566626 -0.071254 0.046003 -0.358364 0.151725 0.030337 0.264415 0.440986 -0.239760 0.187230 -0.440524 -0.703433 -0.065834 0.312643 0.075168 0.158729 -0.132044
232 0.571741 0.316296 -0.151371 0.677327 -0.124530 -0.248230 0.282714 -0.008470 -0.584348 -0.015212 0.409393 -0.376511 -0.781244 -0.161516 0.055115 -0.548123 0.031401 0.066417 -0.492270 0.537136 0.007390 0.138571 -0.333332 -0.094670 -0.004237 -0.078024 0.312905 0.152194 -0.524050 0.026962 -0.098873 -0.406512 0.000025 -0.594854 -0.192417 -0.217803 -0.041393 -0.071994 0.289376 -0.643195 -0.685103 -0.255015 -0.333126 -0.102182 0.266030 -0.094769 0.037449 -0.224297 -0.391748 0.328196 -0.215446 -0.750311 -0.309079 0.048303 0.345098 0.279642 0.149797 0.237536 -0.333590 0.307933 -0.559925 0.437951 -0.025724 -0.188605
291 -0.481332 -0.206029 0.444837 0.557783 0.246230 -0.788686 0.334062 -0.038112 0.008521 0.212232 0.211179 0.076928 -0.121421 0.105346 0.202130 -0.145354 -0.038759 0.034071 -0.238401 -0.116596 -0.104423 -0.374606 -0.144738 0.167033 0.251126 -0.002085 0.058713 -0.112442 -0.247827 -0.032335 0.108579 -0.455427 -0.485979 -0.368239 -0.340965 -0.039589 0.160764 0.529369 -0.953975 0.182627 -0.003887 0.628545 0.038498 -0.700763 -0.036362 0.075745 -0.477996 -0.120207 0.187279 -0.931512 -0.529210 0.021797 -0.183658 -0.378313 0.031509 -0.323894 0.673767 0.075648 -0.168802 -0.491635 0.562751 0.108750 0.489303 0.003603
30 -0.423506 0.021724 0.038934 0.395041 0.519664 0.253394 0.179056 0.298570 0.395146 -0.411700 0.195649 -0.242193 -0.095538 -0.231711 0.799856 0.288939 -0.182382 -0.203634 -0.282883 0.079700 -0.108430 0.135787 -0.006732 -0.649406 -0.277929 -0.152899 -0.465106 0.287419 -0.504664 0.190298 -0.322141 -0.038437 0.006977 -0.227172 0.327168 -0.107651 -0.178670 0.240492 0.227019 -0.121925 -0.078445 0.145251 -0.247137 0.286936 -0.441700 0.373055 -0.405657 -0.359235 -0.105850 -0.356167 -0.724111 -0.402058 0.522129 -0.074463 0.010761 -0.442198 0.429481 0.003273 -1.100668 0.231682 0.155327 0.373817 -0.313847 -0.228750
204 -0.038081 -0.270466 -0.529326 -0.123173 0.446280 -0.486615 0.087915 -0.069502 -0.544847 -0.470640 0.216172 0.456561 -0.196544 0.227151 0.365106 -0.699478 0.307314 0.210371 -0.510770 0.358113 -0.684334 -0.124965 0.184717 -0.012014 -0.111293 0.525890 -0.129099 0.412190 -0.553376 0.181977 -0.002067 0.174360 -0.014239 -0.815059 0.408588 -0.246038 0.008616 -0.389672 -0.414766 -0.158225 0.438358 0.080406 -0.422724 0.429820 0.007204 0.088612 0.185845 0.155463 0.251195 0.840366 0.227097 0.334562 0.141141 -0.108634 0.631600 -0.262095 0.189056 -0.245844 -0.031184 -0.149948 0.179140 -0.444234 0.528305 -0.133555
266 -0.784131 -0.564691 -0.373772 0.234890 0.571536 0.362473 0.106897 0.517953 -0.308069 -0.437117 0.082521 -0.085825 -0.814884 -0.040219 0.458289 0.056372 0.373120 -0.162635 -0.068181 0.226431 0.165668 -0.286931 -0.456900 -0.213125 -0.112775 0.214246 -0.308796 0.296561 -0.366469 0.152334 0.179073 -0.277471 -0.500809 -0.361406 -0.144868 -0.223100 0.130728 0.003401 0.731902 -0.350365 -0.200194 0.408410 -0.136260 -0.141945 -0.894304 0.083103 0.171450 -0.106364 -0.154889 -0.470743 -0.335421 0.043281 0.465920 -0.134025 0.353615 -0.204627 0.231441 0.657529 -0.077483 0.437783 0.005422 -0.208409 -0.219241 -0.158613
78 0.496313 -0.443502 -0.007135 0.247458 0.397519 0.901438 -0.389343 -0.135353 -0.150284 -0.003379 0.007446 -0.429046 0.085343 -0.459841 0.827165 -0.227730 0.204804 0.448469 -0.164734 0.242888 -0.184780 -0.246515 0.432462 0.117813 0.227604 0.059128 -0.132683 0.472578 -0.293998 0.064202 -0.387843 0.054465 0.776377 -0.330336 -0.286698 0.329795 0.259235 -0.149371 -0.370668 0.729489 0.200046 0.185915 -0.228288 0.133043 0.385550 0.028430 0.390248 0.181020 -0.421080 -0.036499 -0.207131 -0.043534 0.235740 -0.267343 -0.013170 -0.195625 -0.090422 0.336210 -0.280609 0.066660 0.075025 -0.277592 0.227287 -0.723907
270 -0.004547 -0.164392 1.124987 0.560023 0.054143 -0.555359 -0.202987 0.522088 0.012472 -0.634863 0.392785 -0.155894 -0.093620 0.100621 0.230051 -0.847548 -0.137720 0.016664 -0.172613 0.084537 -0.019065 -0.089509 0.232064 0.319261 0.497058 0.460299 -0.214731 0.063737 -0.082711 -0.297195 -0.107965 -0.208666 -0.495462 -0.308318 0.159272 -0.157489 -0.156881 -0.421251 -0.196769 -0.287760 -0.194363 -0.137489 0.043214 0.066605 -0.420204 0.167704 -0.513947 0.062811 -0.395770 0.052672 -0.122003 0.365210 0.503137 -0.347903 0.272520 -0.169306 0.266576 0.093979 -0.126929 0.182087 -0.184286 0.189091 0.029839 -0.671508
213 -0.286372 -0.007348 0.106244 0.326429 -0.159550 0.277384 -0.243696 0.357652 0.151884 -0.682901 0.416921 -0.233754 -0.010575 -0.185580 0.557494 -0.535210 -0.162742 0.661213 -0.368017 0.145897 -0.100748 0.007323 0.144200 0.306250 -0.063416 0.482428 -0.348856 0.162236 -0.453679 0.720856 0.073698 -0.299012 -0.297934 0.112058 -0.307405 0.175680 -0.614345 -0.285082 -0.237305 -0.071050 -0.178123 -0.191412 0.222323 0.083760 0.941185 -0.041861 -0.345772 -0.517288 -0.435391 -0.496700 -0.514952 0.061029 -0.343227 -0.151598 -0.223192 0.189963 0.249393 -0.096373 0.108932 -0.252981 0.573229 0.075034 0.000898 -0.343847
96 -0.139317 0.073502 0.149586 0.167613 0.119009 -0.264421 -0.049947 0.177136 -0.527283 -0.465000 0.407391 0.098300 -0.473161 0.472892 0.459333 -0.072540 -0.131640 0.016499 -0.230774 0.016660 -0.531576 -0.807698 -0.646385 0.472176 -0.160971 0.430031 -0.692130 -0.010623 -0.478718 0.065904 0.240971 0.065941 0.184911 -0.549518 0.746698 -0.347073 -0.230818 0.322673 -0.030273 0.049380 0.374518 0.223691 -0.427693 0.025067 -0.315639 0.258580 0.436731 0.320418 -0.099815 -0.031742 0.077444 0.215694 0.757904 0.792697 0.506490 -0.333714 0.124907 0.353081 -0.140360 -0.184100 0.037400 -0.155730 0.449614 -0.252597
295 0.245471 -0.001167 -0.151361 0.138815 0.322740 -0.842918 0.413296 0.321577 -0.220461 -0.118115 -0.163160 0.261181 -0.411739 -0.092701 0.161777 -0.588960 -0.019431 0.723526 0.145179 0.542129 -0.384908 0.146674 0.080373 -0.100929 0.090331 -0.140005 -0.352100 0.067256 0.369132 -0.172624 0.264991 -0.034155 -0.358066 -0.296376 0.213054 0.405597 -0.457170 0.137725 0.339417 0.053903 0.080002 -0.340349 0.028087 0.286740 0.094927 0.637168 0.402004 0.291551 0.125487 0.335677 -0.338692 -0.115915 0.360233 -0.201482 -0.378912 -0.637291 0.530875 0.508756 -0.764332 -0.163813 0.504322 -0.083865 -0.666830 -0.182878
89 0.227717 -0.052640 0.264591 -0.285669 -0.099751 0.166705 -0.622386 0.099078 -0.428089 -0.549589 0.289169 0.147620 -0.023034 -0.015841 0.235507 -0.216380 -0.215903 -0.421673 -0.489515 0.172002 0.003595 0.586302 0.354672 -0.469547 -0.054187 0.136066 0.144013 0.016800 0.035749 -0.244065 -0.156727 -0.307029 -0.647003 -0.151271 -0.273678 -0.537208 -0.341722 0.241335 0.164381 0.420260 -0.158081 0.387964 0.312666 0.335776 -0.566894 -0.148872 0.414459 -0.359248 0.034435 -0.281428 -0.625126 0.338233 -0.009111 -0.077079 0.578400 -0.002306 0.432895 -0.163207 -0.570543 -0.118044 -0.157727 0.423835 0.423678 0.467551
181 1.091837 0.426904 0.133490 0.187481 0.069239 -0.234935 0.068244 -0.125280 -0.449583 -0.123068 0.656024 0.182117 -0.799883 -0.224613 -0.101660 0.159770 0.538455 -0.029417 -0.041847 0.110175 0.015466 -0.210895 0.110650 -0.227449 0.048074 -0.097167 -0.146666 0.429178 -0.741296 0.064851 -0.181522 -0.250320 0.260272 -0.419312 0.065492 -0.459054 -0.215374 0.600968 0.067271 0.036498 -0.209171 -0.049290 -0.095072 0.461107 0.184582 0.249997 0.222381 -0.470476 0.118935 0.269680 -0.234365 -0.396822 0.281339 -0.142834 0.234383 0.262768 0.380868 0.444638 -0.367805 0.150072 -0.423535 -0.234297 -0.057924 -0.502969
127 0.283690 -0.053056 0.460814 0.212527 -0.437403 0.294675 0.222026 0.344114 0.061208 -0.466820 0.481983 0.316530 -0.364310 -0.493194 0.612660 -0.768448 0.067281 0.477932 -0.526875 0.109171 -0.106724 -0.654348 -0.580866 0.120741 0.230574 0.678478 -0.205506 0.018707 -0.307737 0.064027 0.301799 -0.348090 -0.050386 0.093075 -0.443725 -0.291415 -0.253408 -0.519466 0.267793 0.187904 -0.548747 -0.352110 0.210654 -0.410582 -0.045691 -0.075930 -0.072816 -0.213327 0.626478 0.018724 -0.009767 0.092653 -0.317690 -0.476734 -0.061158 -0.164956 -0.108251 -0.246493 -0.022380 0.061418 -0.082221 -0.026594 -0.221211 -0.563004
108 0.423301 -0.536256 0.488276 -0.028386 0.153030 -0.517644 -0.302356 0.812476 -0.171240 -0.346537 0.143825 -0.318980 0.354797 -0.157943 0.468441 -0.454629 -1.052416 0.015975 -0.226588 0.012946 0.448194 0.135819 0.043928 -0.135003 0.590170 -0.133429 -0.194759 0.474244 -0.423648 -0.272417 -0.380768 0.039695 -0.368070 -0.325180 -0.208172 0.424421 -0.288271 -0.284924 0.005655 0.048693 0.371217 0.501113 0.394269 -0.100571 -0.494673 0.354078 -0.383425 -0.234275 -0.156176 0.055484 -0.032123 0.401661 0.623078 0.031700 0.212219 0.218366 0.290339 -0.326765 -0.234486 -0.218797 -0.312809 -0.120083 0.114546 -0.093977
315 0.205687 -0.430991 -0.182748 0.201337 -0.091461 0.749208 -0.177959 0.033194 -0.441606 -0.158778 -0.038399 0.127324 -0.564526 0.823615 0.305746 0.090930 -0.217559 -0.177365 -0.081410 0.053424 0.147939 -0.151940 0.008373 0.051731 0.540230 0.479276 0.280187 0.072220 -0.442510 -0.407067 0.567936 0.293795 -0.067242 -0.181084 0.223670 -0.284733 -0.015883 0.034506 -0.215133 -0.226578 -0.262070 -0.080094 0.148342 -0.638070 -0.256889 0.131667 -0.020947 -0.381421 0.219177 0.228462 -1.319056 0.187138 0.454541 -0.260698 0.289797 0.105210 0.153012 0.485447 -0.381944 0.259661 0.154513 -0.612422 0.269941 0.042370
244 -0.321952 -0.491161 -0.156819 0.188089 0.299900 0.325543 -0.637251 0.285953 -0.351785 -0.899394 0.224414 -0.331308 -0.155561 -0.667160 0.553631 0.134276 0.629260 -0.190977 -0.393590 0.183143 0.259205 0.038188 -0.133977 0.262892 0.607019 0.017266 0.319911 0.273159 -0.139324 -0.255187 0.363164 -0.795847 -0.071325 -0.533888 -0.226696 -0.010997 -0.030332 0.232109 0.238675 -0.249189 -0.052819 0.236877 -0.284011 0.139751 -0.590910 0.579268 -0.113859 -0.177315 0.026308 -0.170484 0.607445 -0.028736 0.108244 0.226253 0.193644 -0.071243 0.647419 0.446475 -0.298776 0.335351 0.395123 -0.501660 0.078751 -0.282979
132 0.548362 0.232299 -0.408381 0.532647 0.283529 -0.110317 0.070109 -0.331830 -0.237377 -0.014459 0.226481 -0.302657 -0.611672 0.032413 0.013082 -0.078441 0.291393 -0.114497 -0.036486 0.283675 -0.415565 0.557625 -0.713815 -0.667209 -0.191994 0.269833 -0.072076 0.173660 -0.524096 0.273537 -0.266563 -0.291031 0.187902 -0.580086 0.116827 -0.195455 -0.430186 0.199172 0.169256 0.305460 -0.890530 -0.176419 -0.202842 0.296275 -0.402241 -0.129190 -0.141654 -0.269285 -0.245663 0.021954 -0.857825 -0.315962 0.018569 -0.079071 0.312410 0.004547 0.638208 0.174874 -0.408642 -0.090509 -0.438958 0.358331 -0.242825 -0.207230
90 0.446622 -0.158341 0.102936 -0.360008 -0.167018 0.760491 0.140015 0.106273 -0.205582 0.257160 0.354280 0.022219 0.151268 -0.341790 0.635017 -0.160967 -0.281595 0.488325 -0.157863 0.255995 -0.365161 -0.121773 -0.346288 0.102143 0.155417 0.486043 -0.226379 -0.742147 0.158494 -0.668570 0.123467 -0.698899 0.259102 -0.069641 0.246817 -0.051125 0.289639 -0.093111 -0.018490 -0.020363 0.100292 -0.160540 -0.343332 -0.136484 0.567845 0.766916 0.164728 -0.053373 0.732376 0.147764 -0.047218 -0.211582 0.208105 -0.071345 0.362364 0.258079 0.604601 0.187999 0.031775 -0.324931 -0.128934 0.365698 0.252815 0.348037
271 0.039910 0.077114 -0.449929 0.115820 -0.042732 -0.057773 -0.207883 0.254530 0.016618 0.043858 -0.036752 -0.218078 0.059327 0.216735 0.476010 0.024204 0.134677 -0.248417 -0.183564 0.374961 -0.768718 0.004280 0.423722 0.146574 0.062737 -0.525701 0.252405 0.415017 -0.235908 0.149276 -0.537470 0.370413 -0.475047 -0.778657 -0.129661 0.164690 -0.510879 0.049612 0.037183 0.412075 -0.131629 -0.060216 0.768183 -0.107513 -0.735153 -0.422171 -0.097699 -0.009795 0.648636 0.253853 -0.504926 -0.648589 0.263074 -0.383767 0.342127 0.439831 0.583877 0.090385 0.050578 -0.135608 -0.449189 -0.453430 0.365839 -0.203408
67 0.322084 0.289957 0.081390 0.887324 -0.228326 -0.094173 0.002672 -0.161317 0.188499 -0.466596 0.547698 0.443374 0.232955 0.314318 0.297546 -0.423766 0.132630 0.351696 -0.210325 0.410244 -0.223320 -0.245573 0.030699 -0.467013 -0.136475 0.235423 0.182945 0.347734 0.179239 -0.490984 -0.630560 -0.073743 -0.261282 0.240091 -0.335858 0.104211 0.182426 0.361437 0.114754 -0.211927 0.261087 -0.249945 0.503452 0.076699 -0.143232 -0.176546 0.372641 0.092928 0.427539 -0.045903 0.069235 -0.599392 0.529782 -0.046791 1.102929 -0.342137 -0.247770 0.330992 -0.341281 -0.349676 0.390530 -0.257949 0.090093 -0.188319
42 0.310559 -0.416982 -0.091068 0.021602 -0.058398 -0.025064 -0.663507 -0.216740 -0.157655 -0.000395 0.099785 -0.271677 0.244056 0.173181 0.834041 -0.528237 -0.307709 -0.228557 0.104296 0.348515 -0.154820 -0.365269 -0.016691 -0.272841 -0.029105 0.094042 -0.862851 0.461154 -0.004630 0.478275 -0.106191 -0.291937 -0.484232 -0.025763 -0.223982 0.044616 -0.457439 0.100948 -0.068232 -0.218784 -0.347519 -0.165816 -0.481242 0.891503 0.234614 -0.037992 -0.084764 -0.531873 -0.115753 -0.280249 -0.375926 -0.384656 -0.706493 -0.444610 0.582937 -0.076093 0.320946 0.218194 -0.580764 -0.248982 0.214531 -0.027865 0.087899 -0.136314
238 0.172138 -0.309142 0.269573 0.219912 0.427133 0.029277 -0.054247 0.143191 -0.197553 -0.346261 0.606767 0.489892 0.066158 0.239303 0.482190 0.347751 -0.217005 0.596209 -0.364134 -0.287775 -0.126049 0.044324 0.450636 -0.659665 -0.090751 0.212323 -0.496019 0.109824 -0.443469 0.025638 0.780736 0.500573 -0.258513 0.206195 -0.196614 -0.136799 0.091052 0.175099 -0.517350 -0.020297 -0.544340 0.396802 0.140118 0.184283 -0.289120 0.442790 0.095407 -0.082777 0.649451 -0.359997 0.656129 -0.695001 0.076649 0.081300 -0.168567 0.260200 0.485800 0.749403 -0.433237 -0.396562 -0.027678 -0.113660 0.421141 0.053462
254 -0.557089 -0.673091 0.001763 0.034296 -0.221636 0.164257 -0.132069 0.076073 0.518919 -0.158341 0.560456 0.404932 -0.354949 -0.387891 0.546800 -0.406736 -0.077815 0.099116 -0.003642 -0.332936 -0.428584 -0.208969 0.036782 0.079966 0.138579 0.008556 -0.380384 -0.266687 0.056597 0.126148 -0.276518 -0.262034 -0.780733 0.390150 -0.424082 -0.038487 -0.040142 0.598988 -0.021262 -0.166904 -0.356232 -0.137349 -0.054605 -0.246964 -0.588919 0.767441 0.497028 0.032589 0.313489 0.322357 0.112460 -0.092910 -0.006262 -0.530283 -0.035034 0.500856 -0.454260 0.821187 -0.343173 -0.312202 -0.365834 -0.152479 -0.005783 -0.009112
180 0.237138 0.344322 -0.237805 -0.175102 0.155231 0.216463 -0.032639 0.221774 -0.196809 -0.112493 0.594168 -0.043055 0.157713 0.438865 -0.032079 -0.136741 0.073305 0.273249 0.005785 0.074103 -0.104528 -0.532545 0.133128 -0.419750 0.721917 0.083447 -0.353772 -0.237487 -0.564799 -0.618911 -0.224293 -0.360591 -0.862909 -0.036945 -0.068604 0.238349 0.286786 -0.210424 -0.525864 -0.402271 -0.406725 -0.606385 0.401355 -0.816885 0.005331 0.338826 0.185528 0.572132 -0.023374 0.275928 -0.945878 0.237906 -0.038151 0.231639 0.001362 0.220263 -0.418649 0.177468 -0.427453 -0.026794 0.081733 -0.503554 -0.224191 0.288064
1 -0.445085 -0.276616 -0.355394 -0.168361 -0.047873 0.042865 0.676167 0.110116 0.011051 -0.458233 0.709773 -0.330759 -0.468516 -0.396336 0.690772 -0.510908 0.099718 -0.310661 -0.341606 0.115196 0.200768 -0.284448 -0.083240 -0.427105 -0.150425 0.389554 -0.035487 0.218817 0.350979 0.536269 0.066131 -0.008217 -0.179657 -0.049948 -0.660400 -0.330093 0.027108 -0.430893 -0.125886 -0.167396 -0.138426 0.027684 -0.363673 0.109389 0.140518 0.862055 0.147744 0.123412 0.449205 -0.301775 -0.302690 0.446642 -0.250252 -0.220879 0.175997 0.538368 -0.063417 0.765906 -0.021853 0.119268 0.123032 -0.296779 -0.064760 -0.566630
274 -0.319997 -0.109846 0.183336 0.377710 0.564191 -0.314594 0.141986 0.224057 -0.498533 -0.669432 -0.410347 -0.093163 -0.300898 0.551997 0.285067 -0.362705 -0.292205 0.544612 0.089560 -0.095442 -0.046524 -0.456699 0.472137 0.132808 0.410237 -0.331670 0.013307 -0.221033 -0.263153 -0.282791 -0.363542 -0.006568 0.163768 0.043037 -0.609770 -0.073227 -0.466908 -0.062974 -0.040255 -0.334352 -0.293483 -0.239454 -0.146080 0.011508 -0.167766 0.172322 0.104233 -0.081139 -0.540939 0.338929 0.114548 -0.074021 0.646687 -0.116439 0.556113 -0.294193 0.130109 0.002959 0.026540 -1.055806 -0.375205 0.237643 0.764299 -0.195061
269 -0.512575 -0.190480 -0.133180 0.176483 0.564685 0.318247 -0.067105 -0.528912 0.221269 -0.542687 -0.134798 0.076614 -0.845766 0.225961 0.287972 0.084318 -0.485983 -0.173782 0.192528 0.862186 0.399878 -0.253071 0.025181 0.091558 0.203650 0.247570 -0.522342 0.411279 -0.019049 -1.051736 -0.236561 -0.726081 -0.216498 -0.262008 -0.295363 -0.073997 0.004075 -0.514285 -0.115832 0.467918 -0.015335 0.257395 0.272523 0.242717 0.462794 -0.128861 0.496729 -0.248805 -0.154808 0.010705 -0.461764 -0.296599 0.364293 -0.184628 0.171284 0.078397 0.195069 0.531030 -0.304462 -0.049066 -0.274992 0.233653 -0.055066 0.218024
167 0.207223 -0.070739 -0.035554 0.146441 -0.460162 -0.265985 0.405851 0.077712 -0.172214 -1.004013 0.246832 0.020211 0.392656 0.244730 0.467284 0.073351 0.238288 0.209790 -0.265851 -0.274019 -0.464055 -0.338617 0.194629 -0.008230 -0.471104 0.361571 -0.515773 0.213691 0.087244 -0.228473 -0.101714 -0.247599 -0.356397 -0.109387 0.217321 0.202589 0.454385 0.471214 0.003488 -0.001490 -0.585718 0.079403 0.181619 -0.248734 0.115628 -0.057264 0.700525 0.540066 0.420121 0.514365 -0.025534 -0.165525 0.145856 -0.149831 0.350568 0.220702 0.166195 0.586627 -0.344623 0.084702 -0.743802 0.315722 0.519557 0.053531
29 -0.398112 -0.392735 0.004065 -0.006592 -0.402844 -0.148985 -0.169952 0.224848 0.393752 -0.039567 0.954211 0.157204 -0.435696 0.236259 -0.073574 -0.316377 -0.380903 -0.006871 -0.012634 0.259268 -0.141199 0.051474 0.542020 0.181073 0.553018 -0.329884 -0.089878 0.042426 -0.505371 -0.175205 -0.134237 -0.417972 -0.385784 -0.180708 -0.367282 0.001085 0.130582 0.333154 -0.079474 0.374512 -0.655379 -0.035876 0.227397 -0.369511 0.000305 0.729805 -0.350571 0.294229 0.580417 0.415238 -0.306710 0.159789 -0.471051 0.041502 -0.103139 0.185625 -0.356851 1.183549 -0.129426 -0.300632 -0.118379 -0.387812 0.171022 -0.187189
278 0.252103 0.374616 -0.252246 -0.034784 0.186071 0.570452 0.041734 -0.032294 0.034513 -0.323845 0.176786 -0.386317 -0.005989 0.051447 0.335125 -0.602117 -0.578757 0.311588 -0.066343 0.446743 0.008416 -0.187036 -0.334305 0.315495 0.082220 -0.491057 -0.625655 0.147783 0.002066 -0.724353 0.089153 -0.695947 0.522452 -0.292673 -0.079730 -0.630793 0.316831 0.046108 0.038342 0.461188 0.146405 -0.197134 -0.499360 0.191192 0.093519 0.490234 0.344813 -0.055595 0.161223 -0.830257 0.477980 0.455187 0.652898 -0.016766 -0.023145 0.014473 0.807754 0.596993 -0.316428 0.345866 -0.545414 0.088011 0.661875 -0.050974
94 -0.269461 -0.102598 -0.305771 0.075730 0.282027 0.304228 0.367523 0.005415 -0.348142 -0.431120 -0.195172 0.060010 -0.194095 0.255592 0.305280 -0.132645 0.215170 -0.167271 -0.074552 0.355296 -0.013812 -0.752668 0.284830 0.640600 0.637019 0.007904 -0.185757 -0.139296 0.149765 -0.043717 0.367968 -0.059552 -0.597946 0.227231 -0.604395 -0.372073 -0.369380 0.173597 -0.546972 0.064957 0.110799 -0.318954 0.440286 -0.120351 0.283252 0.583619 -0.156428 -0.059558 -0.241713 0.780612 0.394977 -0.324207 -0.003653 0.206458 0.974450 -0.367603 0.111892 0.210176 -0.202751 -0.112604 0.181521 -0.045742 0.362446 -0.662709
437 0.553893 -0.360144 -0.494683 0.113416 -0.517819 -0.399071 0.393002 0.219921 0.222127 -0.502518 0.344780 -1.326749 -0.187682 0.572209 -0.063280 -0.117783 -0.273054 -0.644120 1.430794 -0.090508 -0.535288 0.275542 0.406064 0.122661 -0.639031 0.586618 0.887452 -1.060963 -0.998037 -0.367845 -0.223915 -0.812525 -0.787511 -0.394611 -0.284604 -0.500713 -0.359048 -1.125198 -1.186760 -0.474363 -0.372602 -1.450098 -0.115089 -0.650898 -0.144342 -0.027886 0.660696 0.117258 0.089964 -0.542551 0.440169 -0.241476 -0.004800 0.490402 -0.098073 0.245526 0.205362 -0.630933 -1.140748 -0.222256 -0.052045 -0.135739 0.069537 -0.425657
46 -0.886934 0.002662 -0.206053 0.638558 0.258051 0.447316 -0.301790 -0.078415 -0.147451 -0.156052 0.323091 -0.278584 -0.222087 -0.135417 0.559251 -0.333301 0.228596 0.243547 0.208280 0.178131 -0.201477 0.029930 0.646366 -0.491556 0.067530 0.091182 0.004837 -0.205991 -0.767340 -0.615965 -0.014391 0.413828 -0.191426 -0.128044 -1.254382 0.241487 0.478009 -0.038833 -0.402358 -0.033842 0.356980 -0.210173 0.451120 0.451550 0.140530 0.075570 -0.122858 -0.530274 -0.277544 -0.608674 -0.079337 -0.473886 0.782560 -0.202871 0.130693 -0.104638 0.147369 0.090606 -0.375415 0.064557 -0.052498 0.375805 -0.292902 -0.175299
241 0.036551 -0.621253 0.365341 0.100428 0.575263 -0.223667 0.023164 -0.112563 -0.148511 -0.054640 0.174475 -0.326133 -0.454900 0.364416 1.016903 -0.221428 -0.180641 -0.122188 0.239911 0.366510 -0.473696 -0.297766 0.190785 0.065367 0.230420 -0.227824 -0.456702 0.269026 0.492090 -0.384038 -0.164529 -0.247599 -0.486982 0.030620 -0.162089 0.380771 0.362349 0.018889 0.413401 -0.169761 -0.133033 0.018135 -0.065967 0.852453 -0.129317 -0.101812 0.548987 -0.875306 0.038290 0.269674 0.063577 -0.114816 -0.127590 -0.489000 -0.072596 0.056233 0.810493 -0.307789 -0.100680 0.284315 -0.167672 0.204362 0.500649 -0.095808
155 0.259611 0.766620 -0.445720 0.390917 0.616922 -0.237950 0.108033 -0.516111 -0.119134 -0.756563 0.110257 -0.112793 -0.073169 0.114204 0.064638 -0.887341 -0.163009 -0.149152 -0.251186 0.673075 -0.167911 0.217394 -0.793892 -0.759134 0.175992 0.011774 0.185930 -0.304253 -0.002050 -0.241742 -0.300317 -0.292739 0.037316 -0.408705 -0.342935 0.424406 -0.224294 0.307111 -0.134700 0.500309 -0.170540 -0.241620 0.072462 0.175472 -0.067781 0.364422 -0.158875 0.254451 0.470262 0.183155 -0.200497 0.170732 -0.007130 0.057527 0.340422 0.006345 0.644947 0.386620 0.125563 -0.176827 0.281895 0.039613 0.428319 -0.084983
197 0.351092 0.427158 -0.246619 0.090242 -0.113714 -0.492233 -0.508282 -0.052113 0.250544 -0.269102 0.068518 0.344979 0.034742 0.502797 0.285268 -0.044304 0.303174 0.617638 -0.589151 0.298439 -0.563955 -0.184319 -0.713948 -0.439560 0.231760 -0.094795 0.140796 -0.102328 -0.545207 0.105973 -0.277783 -0.468101 -0.699794 -0.640657 -0.242507 0.003017 -0.359298 -0.388714 -0.262590 0.008221 0.072873 0.262472 -0.123941 0.118737 -0.034349 0.318818 0.796400 -0.043037 0.421261 0.183765 -0.203433 0.176131 0.392747 0.042577 0.485382 -0.412168 -0.177687 0.129622 0.111550 0.538348 0.491975 0.635996 0.285123 -0.481905
187 0.365655 -0.018518 -0.425512 -0.074955 -0.096974 0.152720 0.070537 -0.137714 -0.526982 -0.859828 0.576021 0.495649 -0.109976 -0.327540 0.176698 -0.660473 -0.150835 -0.228228 0.191637 0.308038 -0.464519 -0.159928 -0.252230 -0.398111 0.240119 0.221856 -0.160163 -0.027359 0.259354 -0.423647 0.139991 -0.287946 0.111847 0.328776 -0.267595 0.218044 -0.023779 0.548380 -0.266359 0.118046 -0.003447 -0.226167 0.127276 -0.467786 -0.141802 -0.405141 0.225905 -0.556087 0.691408 0.051990 -0.197122 -0.266448 -0.276039 -0.301063 0.859506 0.323714 0.277864 -0.081966 -0.393983 0.035842 0.300596 -0.492128 -0.002735 0.009403
258 -0.391642 -0.274585 0.299004 -0.227984 0.127413 -0.145838 0.619427 0.435904 -0.761958 -0.427832 0.372318 -0.032162 -0.894533 0.225516 -0.035269 -0.382983 0.076024 0.144526 -0.721516 0.670949 -0.222785 -0.158079 0.481894 -0.213266 -0.128345 0.551003 -0.198468 -0.241436 -0.185830 0.007286 0.100097 0.104268 0.141501 -0.701653 0.323162 0.031743 -0.258874 -0.569292 -0.068568 -0.554170 0.101322 -0.177823 0.007250 0.440393 0.365052 0.292045 0.268003 0.167460 0.362425 0.234337 0.156342 0.149327 -0.141397 -0.453001 0.405394 0.153405 -0.052671 0.248418 -0.185966 0.560370 0.274094 -0.053626 0.001289 -0.598314
149 -0.327599 -0.045146 -0.219433 0.638238 0.834474 0.026071 0.178506 -0.385202 -0.222775 -0.678563 0.067286 0.342367 -0.133002 0.146660 0.314945 -0.217378 -0.074185 0.153508 0.161151 0.154902 -0.121397 -0.053181 0.195747 -0.053310 -0.434541 -0.422905 -0.243518 0.488069 0.047515 -0.269986 0.477172 -0.249421 -0.226926 -0.579799 -0.295025 -0.435811 -0.024232 -0.189258 -0.349043 0.538564 -0.135430 -0.157725 -0.113861 0.197237 0.415784 0.128763 0.425445 0.539944 0.002959 0.476052 -0.018735 0.317803 0.616351 -0.458210 0.395454 0.821528 0.436462 0.304052 -0.492890 -0.314311 0.089879 0.408046 0.404828 0.200906
251 -0.586914 -0.006650 0.117397 0.234350 -0.409171 -0.224771 0.256264 0.584446 0.127807 -0.843759 0.167512 0.125168 -0.271088 0.055652 0.822449 -0.323599 0.730261 -0.063714 0.131821 -0.224051 -0.160332 -0.123413 0.252497 -0.523676 -0.286715 -0.153762 -0.618249 -0.484926 -0.305972 0.130318 -0.267701 0.308033 -0.021833 0.069090 0.013728 -0.216381 0.193667 -0.194415 -0.188140 0.406239 0.251486 0.157554 0.027993 0.337262 0.022464 0.229828 -0.291928 -0.286436 0.503116 -0.021024 -0.560668 -0.409561 0.311241 0.642737 0.641255 -0.444134 0.383512 -0.398563 -0.378177 0.094177 0.179833 0.233524 -0.058159 0.010497
234 0.823643 -0.343388 0.553386 0.561675 0.243461 -0.214867 0.603498 -0.242371 0.306117 -0.260081 -0.265874 -0.306234 -0.357357 0.250544 0.075157 -0.192728 0.040997 -0.377296 -0.567397 0.268363 -0.220998 -0.670136 -0.120512 -0.082824 -0.424761 0.020819 0.082075 -0.559796 0.111746 -0.116344 0.191805 -0.782959 -0.230401 -0.367037 -1.150922 -0.121005 0.002828 0.232185 0.038313 0.002549 0.050256 -0.190218 -0.206457 -0.415764 0.002452 0.751604 0.095055 -0.366744 -0.043213 0.146724 -0.065406 -0.192186 -0.111843 0.595270 0.284947 -0.230481 0.170328 -0.149676 -0.396654 -0.260990 -0.075789 0.007676 -0.558420 0.133523
252 0.222404 -0.296126 -0.159617 -0.692522 -0.079134 -0.273850 -0.264257 -0.321971 -0.936881 -0.696170 0.411798 0.061798 -0.155870 -0.646928 0.306217 -0.199628 -0.084042 -0.147464 0.019208 -0.131079 0.047318 -0.261713 -0.023890 0.005769 0.433443 0.404168 0.475190 0.133652 0.259105 -0.293696 0.271771 -0.543087 -0.148712 -0.261047 -0.446983 0.279462 -0.399607 0.143315 -0.298233 0.256848 -0.404918 0.245457 0.422079 0.551156 -0.540567 0.136855 0.300706 -1.024744 0.149127 -0.187739 -0.254953 -0.304576 0.579907 -0.087724 0.446250 -0.086536 0.059011 0.172702 -0.580027 0.280574 0.105635 -0.080061 0.100360 0.232962
279 -0.089233 0.260333 0.131095 0.245248 -0.142948 0.161088 0.301608 0.650338 0.278656 -0.183635 0.140735 0.378711 -0.277488 -0.229029 -0.204141 -0.340698 0.212184 -0.059733 0.005064 1.293786 0.056466 -0.058956 0.531495 0.130644 0.747029 -0.185126 -0.339603 0.060831 -0.216175 0.051864 0.192740 0.150933 -0.010013 0.081087 -0.317378 -0.818709 0.206149 0.722749 -0.034951 0.239985 -0.210493 -0.220742 -0.821214 -0.270602 -0.102427 0.440181 0.254668 0.016968 0.378283 0.291192 -0.319550 -0.533232 0.511466 0.382332 0.263548 -0.470897 0.483675 -0.387159 -0.281966 -0.165285 0.075997 -0.100911 0.417142 0.010625
298 0.023692 -0.391237 0.083031 0.196944 0.562498 0.515324 -0.298770 -0.272602 -0.187352 -0.514590 0.199962 0.211556 -0.361080 0.570352 0.229568 -0.134004 0.289058 0.351573 0.135501 0.266077 -0.440580 -0.030260 0.213183 -0.076736 -0.329199 0.092717 0.012249 0.365978 -0.160978 -0.756621 -0.186324 -0.376197 -0.461908 0.158038 -0.354170 0.073022 0.123036 0.337215 -0.159031 -0.250234 0.517238 -0.045539 0.620033 0.230624 0.686704 0.248233 0.068788 -0.241049 0.049220 -0.114956 0.271975 -0.374904 0.332443 -0.842339 0.932864 -0.168698 0.241704 0.499674 -0.432561 -0.514243 -0.075492 -0.281089 -0.518563 0.255457
80 0.224333 0.619218 0.475069 -0.294365 0.102391 -0.012123 -0.221706 0.386014 -0.373129 0.139261 0.141848 0.082951 -0.184808 -0.344534 0.775021 -0.484984 -0.179871 0.593537 0.349433 -0.212321 0.046691 -0.246892 -0.595404 -0.103605 -0.129817 0.076961 -0.632735 -0.659587 -0.042690 -0.748018 0.025672 -0.375817 -0.450062 -0.436682 0.475972 0.079871 -0.116375 0.090589 0.311290 -0.081570 0.270965 -0.303301 0.094928 0.512822 0.317746 0.493497 -0.250763 0.139982 0.207365 0.324949 0.069625 -0.295998 0.289674 -0.508779 0.049925 -0.250899 0.439065 0.221495 -0.502009 -0.598340 -0.323629 -0.569358 0.037225 -0.127734
44 -0.354644 -0.436577 0.084264 -0.094409 -0.195022 0.119587 0.229040 0.238435 -0.275837 -0.686765 -0.053825 0.029576 0.141345 0.126876 0.894880 -0.041871 0.040573 0.246614 -0.711803 0.163512 -0.374621 0.353815 0.485853 -0.597748 -0.063154 -0.525180 -0.165536 -0.034211 -0.115849 0.135931 -0.330887 0.100533 -0.191108 -0.257373 0.142283 -0.579594 -0.033644 -0.281493 0.063040 0.628237 0.162435 0.252384 -0.623424 0.289454 0.042155 0.097454 0.186575 -0.304381 -0.028608 -0.095841 -0.207161 0.113966 0.073044 0.290481 0.285932 -0.250259 0.413947 -0.129376 -1.194070 0.538620 0.187325 0.210554 -0.262119 0.003012
451 0.382532 -0.528511 0.226591 0.056860 -0.236416 0.339030 0.245601 0.716918 0.709506 -0.483526 0.955627 -0.617394 -0.526954 -0.427061 -0.061776 0.216838 0.000973 0.343750 0.692376 0.672560 0.729393 0.451748 -0.679210 0.028543 -0.453732 -0.385200 0.504686 -0.623791 -0.002472 0.165891 0.604767 0.331744 -0.164227 -0.078604 0.150840 0.474095 -0.415180 -0.063641 -0.685882 0.214517 -0.156616 0.416245 -0.351266 -0.243948 -0.260292 0.346184 -0.008727 -0.027667 0.191506 0.617159 -0.206248 -0.472546 -0.261438 -0.018428 -0.051598 -0.038361 -0.103599 -0.559864 -1.275317 -0.600026 0.175505 -0.413442 0.925981 -0.439709
33 -0.217206 0.155869 -0.165006 -0.357131 -0.015204 0.241407 0.396244 0.653941 0.031946 0.459250 0.182995 -0.134542 -0.477183 0.098508 -0.010624 -0.861041 -0.318148 0.506786 -0.145003 0.907126 0.039744 0.045101 0.169125 0.305935 0.416826 -0.258984 -0.286768 0.679014 -0.081783 -0.321269 0.105228 0.008929 0.048280 -0.313798 -0.525429 -0.811969 0.141851 0.378330 0.252368 0.034509 0.095853 0.002568 0.004677 -0.143541 -0.187205 0.074425 0.681705 -0.060357 0.351781 -0.558008 0.175032 0.207088 0.768973 -0.004405 0.456485 -0.099735 0.685432 -0.595033 -0.156126 -0.141798 -0.017504 -0.153526 0.367561 0.263498
281 -0.254096 -0.700143 0.016903 -0.454928 -0.559946 -0.457570 0.160441 -0.003261 -0.192765 -0.363904 0.759945 0.883499 0.117889 -0.376208 0.354119 0.340155 -0.179592 0.011354 0.513436 0.151005 0.257919 -0.236090 -0.301702 0.172926 -0.044255 0.225563 -0.332212 0.492444 -0.248304 -0.054223 -0.155959 -0.686914 -0.227848 -0.668491 -1.132839 0.608980 0.001400 0.027161 0.049588 0.523457 0.166175 -0.296132 -0.326718 0.176760 0.390630 0.261589 -0.005662 0.078024 -0.481957 -0.090294 -0.297608 -0.167222 0.314645 -0.479789 -0.002288 0.289461 0.156390 0.220274 0.020358 0.367587 0.245092 0.022674 0.423577 -0.166539
162 -0.091175 -0.476552 0.290592 -0.088693 0.646583 -0.181243 -0.227181 0.229168 -0.577141 -0.410751 -0.901109 -0.161662 -0.312480 0.520146 -0.077022 -0.604055 0.325233 0.588118 -0.224371 0.295735 0.070176 -0.683448 -0.212369 0.269280 0.028870 -0.172994 0.448059 -0.192024 -0.109783 -0.433824 -0.112745 -0.485175 -0.290781 -0.145425 -0.180005 0.184834 0.404329 0.090544 0.440564 -0.086025 -0.013977 -0.352964 0.304130 0.455400 -0.130694 0.529346 0.147674 -0.413578 0.159638 -0.038573 0.316896 -0.692201 -0.096987 -0.362649 0.333189 -0.054505 0.047892 0.471819 -0.429040 -0.461830 -0.368789 -0.303445 0.501331 -0.391845
45 -0.071806 0.120295 0.264535 -0.147374 0.174385 0.056954 -0.096519 0.524546 0.041030 -0.713167 0.039897 0.128703 -0.341177 -0.288409 0.243002 -0.423160 -0.514932 0.033436 -0.358169 -0.683148 -0.232749 -0.343539 0.302088 0.327965 -0.748569 0.013446 -0.299940 -0.187902 -0.049243 -0.753727 -0.006531 -0.294827 0.260192 -0.400511 -0.368087 -0.002062 -0.343130 -0.327544 0.673918 0.211703 -0.083368 0.085607 -0.388202 0.000036 0.156605 -0.068933 0.213297 0.750140 -0.086036 -0.238234 -0.665221 -0.297950 0.005446 0.125066 0.030660 -0.285945 0.342592 0.050385 -0.218631 0.324085 -0.119117 -1.059931 -0.146958 -0.097384
336 0.168128 -0.337374 -0.049516 0.464505 -0.237551 0.460946 -0.334379 -0.091181 0.309512 0.177288 -0.144992 -0.061890 0.273792 -0.091860 0.886080 -0.134420 0.597430 0.202256 -0.929998 0.054914 -0.168202 -0.137686 -0.299210 0.332888 1.100999 0.284406 0.331094 0.074277 -0.435434 -0.404622 -0.199727 -0.518244 0.483534 -0.556696 -0.139922 0.246820 0.389975 0.162807 -0.450680 0.080475 0.078730 -0.080420 -0.322123 0.244690 0.157950 0.768653 0.392649 0.008639 0.107343 0.094770 0.000231 -0.440164 0.031303 -0.451298 0.226531 -0.028654 0.295501 0.347949 -0.351441 -0.129362 -0.046539 -0.197194 0.094553 -0.118944
57 0.500112 -0.304769 0.187815 0.080133 -0.219925 -0.082697 0.191518 -0.777837 -0.793070 -0.390943 0.492617 0.159248 0.551585 0.576036 0.243425 -0.470049 0.169012 -0.076572 0.114456 0.531401 -0.175180 0.569634 0.096880 0.197144 0.211378 0.344502 0.168947 1.048051 -0.635950 -0.320920 0.163021 -0.361472 -0.231143 0.074276 -0.592453 0.420593 0.098124 0.099618 0.000842 -0.115324 -0.056583 -0.131243 -0.027249 -0.293487 0.146829 0.671984 -0.105982 -0.264117 0.207185 -0.214949 -0.167258 -0.141563 -0.476161 0.174754 0.197258 -0.506915 -0.344867 0.060432 -1.015543 0.005745 -0.137141 0.366245 0.063014 0.000987
303 0.214510 -0.086700 0.459773 -0.269655 0.016470 -0.183186 0.212451 -0.042459 -0.264505 -0.210533 0.161130 0.227897 0.518403 -0.447910 -0.117535 -0.318141 0.192955 0.387236 -0.217875 0.003511 -0.496289 -0.245328 -0.328856 -0.012203 0.271600 0.109604 -0.723861 0.081215 -0.742197 -0.613947 -0.188729 0.166268 -0.177441 -0.200036 -0.641215 -0.332824 -0.370124 0.839171 0.168792 0.044441 -0.760732 -0.160385 0.222841 0.296620 0.617204 0.193764 0.169634 -0.060841 0.354912 0.002078 0.286004 -0.241505 0.350689 0.043303 -0.048695 0.437581 0.981823 -0.024341 -0.290587 -0.032934 -0.742566 -0.594064 -0.173778 -0.474212
86 -0.221633 -0.277928 0.315184 0.485429 -0.446002 -0.274794 -0.053801 0.224111 0.533492 0.101232 0.208221 0.650487 -0.308713 -0.295837 0.184456 -0.571164 -0.173758 -0.143443 -0.339046 0.503497 -0.058234 0.077559 0.470502 -0.004040 0.976579 -0.319555 0.316010 -0.008597 -0.648950 -0.145026 0.058635 -0.108655 0.136077 -0.548332 -0.168186 -0.140790 0.301805 0.105881 -0.342502 0.120192 -0.405356 0.416921 -0.293436 -0.103895 0.166205 0.488624 0.485558 -0.146358 0.603360 -0.332377 -0.283625 0.192768 0.157382 -0.194962 -0.041704 -0.375251 -0.010720 0.438358 -0.630103 0.152168 0.392417 0.018575 0.477540 0.174630
280 -0.407559 -0.281376 0.087837 0.655647 0.340481 0.395540 0.618268 0.765569 -0.582123 -0.413133 -0.098848 -0.277658 -0.038341 -0.084534 0.352397 -0.079755 0.319231 -0.146870 -0.474050 -0.167890 -0.188692 0.101414 -0.123411 -0.012023 -0.188730 0.075979 0.000937 0.059213 -0.932857 -0.174344 -0.060410 0.023631 0.157758 -0.316165 0.226901 0.081294 0.096402 0.495086 0.530890 -0.204937 -0.159653 0.120230 -0.149367 0.382741 0.118470 0.422742 0.720189 -0.190384 -0.027664 0.364015 -0.135655 -0.069227 0.421702 -0.280356 -0.118568 -0.086416 0.358636 0.334822 -0.350697 0.500199 0.648410 0.478391 0.201353 -0.209701
226 0.262125 0.120524 -0.100702 -0.095867 -0.123230 0.292662 -0.223242 0.145410 -0.443336 -0.193853 0.710330 -0.584209 -0.087350 -0.150554 0.348459 0.053218 -0.068224 0.028256 0.613127 0.086193 -0.500092 -0.476631 -0.112053 -0.172176 -0.107914 -0.105055 -0.304585 0.453538 -0.596307 -0.295542 -0.342522 -0.349728 0.249033 -0.230073 -0.625985 -0.318800 -0.472312 0.450055 0.070427 -0.292690 0.457323 0.149444 -0.240537 -0.139598 0.282388 0.347620 -0.130920 -0.274903 -0.107082 0.039254 0.225759 -0.205413 0.413630 -0.195979 -0.325994 -0.345958 0.425386 0.956986 -0.235843 0.275891 0.088131 0.123985 0.487671 -0.288358
10 -0.178061 0.178204 0.585162 0.127949 0.255929 0.117478 0.222410 0.095817 0.097970 -0.693304 0.022735 -0.166810 0.109623 0.516684 0.126153 0.485267 -0.345112 0.621341 -0.606441 0.217204 -0.307968 -0.528897 0.695986 -0.578867 -0.019619 -0.340193 0.066490 0.453915 -0.312590 -0.231566 -0.222492 -0.190869 -0.461456 0.143828 -0.331150 -0.048082 -0.478314 0.344907 0.308072 -0.284907 0.070046 -0.364795 -0.059324 0.059712 -0.290393 -0.176515 0.481716 -0.207446 0.429922 -0.072890 0.077677 -0.304259 0.372528 0.242949 0.554916 0.235902 0.168701 -0.305862 -0.641629 -0.617745 -0.328022 -0.030117 0.074332 -0.225430
159 -0.072637 0.055495 0.508097 0.088165 0.082952 -0.193548 0.641843 -0.685955 -0.178806 -0.443542 0.015420 -0.538436 -0.589331 -0.303575 0.979479 0.034761 0.013177 -0.363716 -0.034497 0.591871 0.254349 0.051384 0.073582 0.084575 0.069941 -0.100167 -0.542184 0.541595 0.340315 -0.770660 -0.310220 0.104054 -0.606197 -0.209104 -0.396081 -0.015465 0.380637 0.090371 -0.153315 0.045947 -0.065213 0.092660 0.304250 -0.629484 0.804471 0.623660 0.532011 -0.358778 -0.459840 -0.186165 -0.109287 -0.251372 0.189401 0.250535 0.479928 0.044102 -0.109966 0.689501 -0.153356 0.060734 -0.288892 0.246512 0.168543 -0.323235
182 -0.336211 0.471498 0.153711 -0.325294 0.234454 -0.238981 0.170062 -0.184180 -0.415202 -0.537091 0.296270 0.194383 0.176076 0.111740 0.594622 -0.559506 -0.175647 0.031654 0.479534 -0.044427 0.433049 0.283798 0.142635 -0.360378 0.404022 0.117115 -0.118231 -0.612123 -0.131815 0.020648 -0.539851 -0.549484 -0.210499 0.016258 -0.174577 -0.382884 -0.387147 -0.510420 0.277438 0.158489 0.004278 -0.037504 -0.003125 0.653349 0.028515 -0.053446 0.298106 0.332067 -0.417038 0.684586 -0.027044 -0.528729 0.483295 0.211248 -0.249526 0.058720 0.065883 0.398749 -0.095486 -0.766519 -0.270426 -0.660199 0.874896 -0.358209
419 0.167918 -0.276909 -0.752539 1.055452 0.732597 -0.893067 -0.744976 0.403988 -0.438367 -0.093838 0.842284 -0.597255 0.124750 0.320605 0.259543 0.206670 -0.255815 -0.248347 -0.597322 0.355962 0.025817 0.329735 -0.800679 0.785343 -0.315782 -0.052864 0.326547 -0.573873 -0.602936 0.144437 -0.191909 0.077932 -0.783077 0.742050 -0.072956 0.240473 0.161541 -0.445332 -0.836294 0.330710 -0.354481 -0.647536 -0.462791 -0.137248 0.871106 0.260127 0.909792 0.044047 0.173284 -0.774450 0.091924 0.509167 0.400791 -0.128126 -0.383783 -0.317134 -0.326290 -0.938796 -0.694828 0.005505 0.052731 -1.252213 0.420163 -0.083202
15 -0.107030 -0.260343 -0.209936 -0.030748 0.897674 0.381242 -0.004135 0.096378 -0.061337 -0.931613 0.164040 0.105430 -0.266323 -0.212826 0.443519 -0.678980 0.438477 0.164035 -0.129870 0.321778 -0.471495 -0.452187 -0.152167 0.081213 0.004257 0.311596 -0.208917 0.724904 -0.245138 0.298245 0.262422 0.012443 0.195893 -0.248672 -0.156684 -0.289169 0.022350 -0.014249 -0.627020 0.589350 0.212341 -0.004275 -0.031840 -0.070233 0.409956 0.134163 0.238924 0.419907 -0.368912 0.620258 0.602572 0.269178 -0.014792 -0.118732 0.289616 0.209479 -0.046292 0.338860 -0.659167 -0.588293 0.178071 0.060443 0.384333 -0.174213
307 0.291207 -0.070949 -0.372336 0.519949 0.165990 -0.404449 -0.021556 0.278950 -0.397778 -0.146266 0.486132 -0.116606 0.149445 -0.350257 -0.038270 0.025667 -0.399100 -0.322167 -0.384915 -0.025819 -0.379866 -0.719352 0.936006 0.315776 -0.385869 -0.023768 -0.405678 0.183068 -0.410584 0.171189 0.391976 -0.454717 0.121748 0.328666 -0.673060 -0.445567 -0.000758 -0.099967 0.328474 -0.088315 -0.088164 -0.052106 0.036810 0.061225 -0.040635 0.357123 0.217137 0.012363 0.449279 0.513324 -0.261221 -0.172844 0.481851 -0.180183 0.170874 -0.146234 -0.045901 0.612343 -0.123010 0.140282 -0.052910 0.030139 0.706774 0.009315
212 0.087520 -0.265262 -0.475277 0.367500 0.229643 -0.001174 0.435181 0.029415 -0.359455 -0.209225 0.113103 -0.012555 0.507606 -0.587871 0.620872 0.102064 -0.027030 0.072952 -0.451625 0.136766 0.014770 -0.452203 0.349390 0.179164 -0.149253 0.085931 -0.252009 -0.145222 -0.026327 -0.191071 0.085757 -0.281904 -0.381501 0.283589 -0.690545 -0.442527 -0.361411 0.222894 0.207585 -0.562995 -0.087301 0.432850 0.444393 0.774720 0.177090 0.616505 0.494589 0.055191 0.615620 0.084484 -0.884392 0.283843 -0.178527 0.040201 0.238514 0.429642 0.386440 0.545894 -0.057695 0.448432 0.019751 -0.255163 0.182447 -0.687018
176 0.572759 -0.173008 -0.113374 -0.111274 0.144723 0.621092 -0.136401 -0.192914 -0.445750 -1.180310 0.475490 0.257072 -0.338740 -0.371507 0.130765 0.079702 0.117949 0.315261 0.319660 -0.216696 -0.512835 0.293263 0.100537 0.206759 0.596451 0.340393 0.174282 -0.332093 0.276098 -0.563806 -0.471999 -0.442531 0.095361 -0.122358 -0.282345 -0.080808 0.087084 0.114531 -0.095377 -0.152880 0.698245 0.403086 -0.013323 0.019267 0.437309 -0.050588 0.469401 -0.139388 0.323977 0.104610 -0.132876 -0.101057 0.004058 -0.404715 0.432225 -0.562103 0.324959 0.386652 -0.604058 -0.022827 -0.176842 -0.446222 -0.577208 0.170159
104 0.091018 0.179237 -0.068722 -0.267845 0.116946 -0.009858 0.059792 -0.028200 0.280421 -0.531215 0.305317 -0.461081 -0.567259 -0.171770 0.247300 -0.203638 -0.024337 -0.070291 -0.199125 -0.354895 -0.036053 -0.370659 0.449418 -0.237476 0.365864 0.202757 -0.608312 0.372222 0.639951 0.858622 0.055754 0.006357 -0.588006 0.173049 -0.512870 0.269465 0.280558 -0.300789 0.289682 0.129586 -0.027874 -0.353047 -0.504834 0.967522 -0.041576 0.608971 -0.053419 -0.349614 0.413240 -0.602858 -0.460857 -0.350863 -0.283372 -0.624040 0.440525 0.078305 0.440404 -0.088140 -0.439711 -0.174828 -0.224201 0.267714 0.224165 -0.513715
137 0.287894 -0.369143 -0.060484 0.048479 0.415689 -0.264321 0.262315 0.563005 -0.263883 -0.227187 0.060137 0.373636 0.296970 0.337891 0.071956 -0.412189 -0.495221 0.196160 -0.438087 0.445045 -0.349932 -0.020027 0.660160 0.000548 -0.325192 0.015381 -0.243518 0.498338 0.052932 -0.418314 -0.197424 0.265012 -0.179688 0.096748 0.184951 0.046522 -0.420543 -0.094181 0.045610 0.068063 0.128860 0.385303 -0.199708 0.288683 0.051498 0.555638 0.228218 0.222000 0.361435 -0.171512 0.320293 -0.642263 0.402195 -0.201352 0.285070 -0.706607 0.639613 0.415493 -0.696233 0.087612 0.236970 -0.336635 -0.191335 0.701878
224 -0.499891 -0.180505 0.518620 -0.069595 0.170836 -0.037729 -0.392553 0.082216 0.435783 -0.270939 0.015932 0.203021 -0.162465 -0.024029 0.608516 -0.526891 0.792110 0.142529 -0.080082 0.118001 -0.301509 -0.085705 0.321810 0.221703 0.104845 0.151997 -0.113860 0.105607 -0.452276 -0.019040 -0.164773 -0.558380 0.008853 0.145814 0.029943 0.413123 0.363194 -0.048072 -0.376103 0.445997 0.194955 -0.666010 -0.274320 0.359588 -0.473630 1.312788 0.404040 0.104006 0.533873 -0.284447 -0.054509 -0.719508 0.113739 -0.644745 0.121073 -0.019755 -0.111667 0.310530 0.026559 -0.387042 -0.109046 0.001914 -0.271289 -0.333077
275 -0.293832 -0.423359 0.278529 0.674702 0.188782 -0.094403 0.389672 -0.459386 -0.105671 -0.189194 -0.158971 -0.053946 -0.327008 0.464689 0.257918 0.443165 -0.513746 0.060877 -0.058605 -0.325712 -0.425796 -0.133488 0.131881 0.068633 0.850157 -0.461177 -0.170676 0.209657 -0.341415 -0.225713 0.118234 -0.741983 0.355642 0.172402 -0.816367 0.541841 -0.573695 -0.001510 -0.245209 -0.213971 0.128638 0.157122 -0.116028 -0.263975 -0.308460 0.002518 -0.114678 0.492101 0.082036 -0.088417 -0.525375 -0.033867 0.318923 -0.579511 0.055292 -0.076629 0.546789 0.392359 -0.731863 -0.558410 -0.020729 0.276113 0.551473 -0.367133
462 -0.028159 0.472046 -0.665376 0.340978 -0.108307 0.461500 0.404605 0.936298 0.092313 -0.093709 0.461594 -0.644980 -0.466475 0.447444 -0.626714 -0.121445 0.192699 0.470584 0.212645 -0.374511 -0.524723 0.757345 -0.356019 0.257114 -0.454572 0.468850 0.476446 -0.595628 0.058409 0.383436 0.043669 -0.482616 -0.416612 -0.572883 -0.549439 0.537079 -0.377485 0.214443 -0.363776 0.149906 0.060436 0.164309 -0.953680 -0.482250 -0.012967 -0.269993 0.146617 -0.441377 0.012188 0.007390 -0.368463 -0.375284 0.523280 0.633564 0.454657 -0.066439 0.239670 -0.101026 -0.513290 -0.031517 -0.645147 -0.366605 0.262237 0.348797
91 0.121358 -0.142342 0.045177 0.023642 0.039254 0.043249 0.245391 -0.618530 -1.116887 -0.560589 0.527551 0.234854 0.562903 0.664410 0.292055 -0.523326 0.057983 -0.125875 0.355364 0.081234 -0.488167 -0.210150 -0.286757 -0.937789 0.165855 0.067993 -0.010756 -0.313427 -0.362607 -0.534964 0.232260 -0.256514 0.198541 -0.024553 -0.184574 0.389987 -0.148596 0.270146 0.262981 0.677793 0.522756 0.222961 -0.091233 -0.141794 -0.170482 0.097877 0.185181 0.099832 0.072901 -0.382088 -0.219364 -0.500526 -0.022996 -0.651338 0.184766 0.148596 0.076711 0.106749 -0.343966 -0.133871 1.010790 -0.245525 0.550650 -0.065845
73 0.325456 -0.318875 -0.041823 0.246080 0.264558 -0.130743 -0.513155 -0.168270 -0.413654 -0.052755 0.308097 0.520481 -0.666556 -0.186443 -0.252727 -0.035211 0.064974 -0.171604 -0.408941 0.234580 -0.186426 -0.019163 -0.016604 -0.220489 0.032913 0.680117 -0.057384 -0.487497 -0.479082 -0.086148 0.178797 -0.589195 0.176575 -0.317161 -0.332524 -0.609513 -0.642512 -0.305436 0.550492 0.015100 -0.727483 0.192961 0.212340 0.120398 -0.250990 0.015047 0.233456 -0.388458 -0.142149 -0.336134 -0.780990 -0.052518 -0.298566 -0.293960 0.793077 0.003158 0.606755 0.236969 -0.125128 -0.574705 -0.179841 0.312501 -0.100709 -0.015705
21 -0.054269 -0.303830 -0.167475 0.759697 -0.038729 -0.186682 0.011183 0.322896 -0.072907 -0.030505 0.619222 0.452110 -0.349254 -0.355615 -0.010927 -0.635601 0.307248 -0.186126 -0.634801 0.365562 -0.108640 -0.283349 0.141168 -0.090383 0.058744 0.582815 0.391452 0.092680 -0.483161 -0.616741 0.029938 -0.570811 0.291974 0.408425 -0.249513 0.282518 -0.224264 -0.454639 0.250435 0.095785 -0.661930 0.035818 0.490210 -0.218025 -0.063509 -0.307994 0.105042 -0.386017 -0.244321 0.244463 -0.245487 -0.438508 -0.198183 -0.316693 0.636204 -0.270576 0.179113 0.530710 -0.011424 0.481140 -0.009217 -0.183808 0.341207 -0.208673
178 0.577493 0.907942 -0.322541 -0.005506 -0.068502 -0.332024 0.218338 -0.071271 0.151132 -0.447462 0.000546 -0.096523 0.027124 0.005485 0.447403 -0.613597 0.525872 0.729614 -0.306047 0.366526 -0.346849 -0.215310 0.546839 -0.107146 0.240959 0.110164 -0.154805 0.309163 -0.248426 -0.368141 -0.117283 -0.089474 -1.075329 -0.193116 0.143302 0.370161 -0.043284 -0.281278 -0.275284 -0.331571 -0.209622 -0.538970 0.267920 -0.092254 0.028747 0.563473 0.655358 0.295762 -0.148416 -0.161844 -0.483187 -0.467735 0.409029 0.124465 0.441886 -0.209577 -0.317909 0.440824 -0.131058 -0.172574 0.462831 0.547190 -0.386902 -0.037754
393 -0.090940 0.303574 -0.844713 1.242121 0.370261 -0.562061 -0.704484 1.002782 0.066276 -0.439403 0.518404 -0.460213 -0.127089 0.193795 0.169824 0.723673 0.216502 0.575184 0.007864 0.671694 0.051191 1.104318 -0.212315 0.429581 -0.170057 0.626853 -0.610861 -0.614391 0.150716 -0.491192 -0.579877 -0.542134 -0.546656 -0.233258 -0.210164 0.057407 0.138431 -0.022198 -1.040005 0.218337 -0.707457 -0.132807 0.211103 -0.526283 0.041722 -0.019385 0.111722 0.053570 0.066012 -0.311823 -0.197762 0.243189 -0.040982 -0.435831 -0.942472 0.129051 -0.207511 -0.796319 -0.599003 -0.338567 0.201616 -0.931228 0.700340 -0.146937
332 0.181678 -0.580956 -0.490376 0.068018 0.374829 0.069910 0.350939 -0.510833 0.044502 -0.552428 0.372782 -0.142576 0.281788 0.121961 -0.247198 -0.231203 -0.051721 0.088542 -0.251893 1.009650 -0.304398 -0.133429 -0.069611 0.121096 -0.072661 -0.324916 0.081518 -0.420843 0.307229 -0.240583 0.041378 -0.256745 -0.536103 -0.107783 -0.183788 0.029952 -0.710529 0.290474 0.288731 0.287003 -0.073246 0.040368 0.593143 0.471150 0.221171 0.687986 -0.034293 -0.077662 0.732432 0.746708 -0.398947 0.119790 -0.025897 0.119921 -0.299091 -0.245058 0.182241 0.491623 -0.578315 -0.139253 0.212247 0.355227 -0.299462 -0.820756
129 -0.148931 0.002309 -0.026331 -0.492387 -0.106095 0.421304 -0.027655 -0.070429 -0.551979 0.315766 0.576198 0.921674 -0.007885 -0.091542 -0.000822 -0.225296 -0.283146 0.047262 -0.206175 0.008044 -0.280007 -0.011449 -0.842028 0.424318 0.304039 0.271777 -0.657937 0.375550 -0.308126 -0.509614 -0.044359 -0.032375 -0.244875 -0.365446 -0.464993 -0.359542 0.012554 0.255148 0.413089 0.170632 -0.023179 -0.259573 0.189052 0.280581 0.132409 -0.077651 0.251212 0.352190 -0.058822 0.338007 -0.092829 0.018765 0.093469 0.250003 0.448492 -0.236098 0.896223 -0.839746 -0.665815 -0.222817 -0.260816 -0.100709 0.587448 -0.148236
339 0.626865 -0.310287 0.080336 0.360589 0.074336 -0.285065 -0.318722 0.542162 0.148861 -0.332347 -0.289134 0.091636 -0.199714 -0.373241 -0.086802 -0.329882 0.347653 0.130776 -0.198676 0.160860 -0.188220 -0.333323 0.873845 -0.083911 0.110130 0.014690 -0.301927 0.407104 -0.389557 -0.240153 -0.014862 -0.036842 -0.289318 -0.492129 -0.299340 -0.586428 0.063882 0.610532 -0.243835 -0.475049 0.017692 -0.607258 -0.850289 0.541005 0.227520 0.384782 0.272444 -0.585458 0.709115 0.374678 -0.740590 -0.530992 0.126480 0.175402 0.079537 0.328904 0.324699 -0.208870 -0.030259 -0.296679 -0.379296 -0.477380 0.157970 -0.234027
37 0.049036 0.121852 -0.145775 0.425758 -0.044506 0.230013 0.153513 0.527550 -0.818869 -0.243964 0.458413 -0.075093 -0.809749 -0.025893 0.535692 -0.058684 0.082618 -0.234196 -0.378411 0.279413 -0.245685 -0.017245 0.157132 0.135797 0.416477 -0.282580 0.183334 0.225040 -0.658478 0.104771 -0.530265 0.054047 0.328827 -0.981005 -0.187785 -0.311184 -0.087008 0.102955 -0.023601 -0.466549 -0.333011 -0.037056 0.096612 0.392620 0.371486 -0.182259 0.320413 -0.204374 0.436366 0.255576 -0.050076 -0.099348 -0.257102 -0.397680 0.042804 0.389095 -0.140540 0.000159 -0.352527 0.624273 0.292472 0.238569 0.076108 -0.536357
442 -0.545862 -0.558813 -0.929530 0.193985 0.051334 0.215935 0.160002 0.656517 0.751630 0.336277 0.980441 -1.016440 -0.461605 0.077299 -0.461817 -0.334143 0.010247 -0.375772 0.533490 -0.169529 -0.779330 -0.065063 -0.472310 -0.110387 -0.791830 0.456791 0.547529 -1.027618 -0.155203 0.595016 -0.186906 -0.362852 -0.267682 0.031023 0.049476 0.759368 -0.064363 -0.165278 -0.283237 -0.008602 0.038933 0.422974 0.181335 -0.418288 0.667175 0.658429 0.780437 0.038536 -0.282937 -0.390831 -0.295445 0.074246 0.488748 0.038077 0.104139 -0.322802 0.444530 -0.667366 -0.866381 -0.528693 -0.578923 -0.607918 0.541745 -0.222562
135 -0.126339 -0.115064 0.013038 -0.259544 0.139448 -0.236661 0.310237 0.311497 -0.354503 0.216994 0.179844 0.060969 -0.003088 0.851313 0.247090 0.230192 -0.624674 0.539045 -0.383329 0.557982 0.395174 -0.376982 0.629566 0.154012 0.039042 -0.004307 0.228261 0.027026 0.372410 0.182933 -0.227485 0.179237 -0.269375 -0.170567 -0.616748 0.033665 -0.259582 0.216278 0.467992 0.143218 0.198041 -0.291386 -0.538560 0.138205 -0.268829 -0.011751 0.426430 -0.425602 0.456655 -0.405342 0.380112 -0.096896 0.194838 0.088279 0.538736 -0.266718 0.468419 0.058847 -0.958871 -0.295476 -0.208130 -0.229794 -0.103911 0.029316
237 0.587960 0.133269 -0.412253 0.634511 -0.372769 -0.444369 0.044693 -0.180788 -0.139171 -0.057803 0.749272 0.100558 0.137012 0.164859 0.549917 0.031950 0.107740 -0.136012 -0.295291 0.195614 -0.546763 -0.066603 0.406383 -0.025432 -0.199621 -0.073413 0.095741 0.699793 -0.189695 0.303781 -0.301599 -0.389806 -0.186765 -0.038714 -0.360476 0.065653 -0.162748 0.428416 -0.166825 -0.288999 0.037903 -0.157878 0.457866 0.109001 0.043942 0.371096 0.382921 -0.002000 0.499538 0.527538 -0.304704 -0.290745 0.207998 -0.509356 0.637771 -0.052405 0.168708 0.810827 0.186056 0.405301 -0.626405 -0.292030 0.383548 0.179294
479 0.364950 -0.537020 0.004719 0.985270 -0.185096 0.915620 0.506103 0.130588 0.350141 0.086928 1.091940 -0.022488 -0.351612 -0.542378 -0.235172 0.069344 -1.276518 0.710181 0.209529 0.342461 -0.583061 -0.131632 -0.401881 0.739250 -0.346183 0.160896 0.284007 0.037832 -0.731537 -0.007019 -0.882798 0.061208 -0.818611 -0.093668 0.208321 0.278613 -0.161494 -0.537745 -1.095910 1.339080 -0.572848 0.376806 -0.896072 1.049868 -0.544549 0.320155 0.537833 0.011996 0.202264 -0.060808 -0.278547 -0.568571 0.171273 0.172754 -0.165110 -0.403349 -0.461301 -0.812555 0.130084 0.311959 0.044931 0.082788 0.175376 -0.119180
179 0.505588 -0.126237 -0.653501 0.309966 0.178411 -0.227079 0.209915 0.444499 -0.179803 -0.047511 -0.205198 0.305300 -0.035267 -0.147495 0.380768 -0.390308 0.357978 0.536717 -0.059941 -0.062930 -0.031317 -0.234937 0.720200 -0.527112 0.250605 0.295681 -0.121810 0.793566 -0.029015 0.254636 -0.223935 0.099229 -0.802814 -0.217233 -0.284992 0.371961 -0.213218 0.302156 -0.111444 -0.518265 -0.271635 -0.502517 -0.436696 0.542801 0.456859 0.346328 -0.052368 -0.147816 0.383395 -0.280276 -0.687580 -0.766588 -0.293176 0.273983 -0.092020 0.270394 0.786918 -0.078090 -0.121577 -0.147954 0.143340 -0.079606 0.028764 -0.456385
54 0.139244 -0.008977 0.900544 0.783922 -0.039404 -0.315539 0.451050 0.270505 -0.326455 0.056529 -0.198954 0.382382 0.028270 -0.550547 -0.006857 -0.156766 0.182682 -0.091812 0.106035 0.266152 -0.682091 0.174226 -0.090457 0.355037 0.024179 -0.141575 -0.457895 0.008866 -0.297107 -0.147817 -0.368860 0.012760 0.084661 -0.617680 0.018263 0.617900 -0.233219 -0.322779 0.287199 -0.539369 -0.503872 0.105757 -0.109080 0.130515 -0.183569 0.518162 0.575805 0.173363 0.291648 0.289236 -0.368679 0.604753 0.487310 -0.414232 0.266635 0.077468 0.215528 0.378783 -1.144127 0.002994 0.881451 -0.106350 0.251920 0.774352
193 -0.016977 0.545266 0.217563 -0.766592 -0.224102 -0.114335 0.476434 0.452551 -0.303890 -0.438573 0.287017 0.085321 0.165568 -0.525512 0.650193 -0.646018 -0.309545 -0.052415 -0.205860 -0.184409 -0.129237 -0.244204 -0.169054 0.187583 0.032058 0.173202 -0.332554 -0.039140 -0.278736 -0.340032 -0.111358 -0.121020 -0.077630 -0.569070 -0.226945 -0.066573 -0.025064 -0.006206 0.173591 0.080218 -0.822378 0.299099 0.477563 0.109530 0.391351 -0.035530 -0.459550 0.127038 0.574183 -0.215994 -0.267200 -0.497426 0.402350 -0.462089 -0.149307 -0.194676 0.008524 0.137444 -0.713675 -0.305196 -0.524250 -0.785781 -0.584602 -0.412983
150 0.130814 -0.158134 -0.069706 0.520043 -0.135667 0.006541 -0.260245 -0.320696 0.191467 -0.637397 -0.128814 -0.508207 -0.349136 -0.055462 0.107200 -0.992880 0.070271 -0.065870 -0.537935 0.809830 0.207034 -0.443887 -0.612732 -0.505836 -0.233416 -0.613663 0.032631 -0.675113 0.058859 -0.206958 0.157663 -0.307852 0.558257 -0.248156 -0.978225 0.352973 0.510822 -0.293660 0.423843 0.211827 -0.075037 -0.145490 -0.170262 0.296784 -0.368932 0.886076 -0.318758 0.029363 0.616446 0.133207 0.097598 -0.173338 -0.181338 0.176558 0.490583 0.040371 -0.015930 -0.385400 -0.466828 -0.390123 -0.291413 -0.353536 0.170313 -0.260329
148 -0.361746 -0.203547 0.070308 -0.151050 0.419684 -0.274594 0.494265 0.003611 -0.415476 -0.307723 0.324617 -0.134152 -0.974136 -0.181450 0.342567 -0.557196 -0.076159 0.576285 -0.477800 0.684658 -0.299830 -0.115991 -0.001912 0.343385 -0.305582 -0.528960 -0.080859 0.582401 0.004124 -0.042292 0.307337 0.105779 0.231834 0.131063 -0.186368 -0.467622 -0.036165 -0.311340 -0.108645 -0.249215 0.305162 -0.360965 -0.243385 -0.330838 -0.025343 -0.308850 0.398079 -0.221565 -0.038092 0.090061 -0.218973 -0.545150 0.360308 0.028556 0.076808 0.160485 0.094225 -0.211420 -0.580741 0.168720 -0.145938 0.355365 0.265501 -0.333901
172 -0.269162 0.021998 -0.007211 0.096645 -0.193923 -0.697179 0.017521 0.328679 -0.508801 -0.560042 0.296504 -0.459902 -0.366459 -0.093264 0.744371 -0.356620 0.408969 0.194301 -0.183502 0.081386 -0.292175 -1.128364 0.152490 -0.062872 -0.516549 0.532799 -0.124376 0.281654 -0.578125 -0.345422 -0.119585 -0.346672 0.238738 -0.289262 0.534042 -0.110510 -0.296158 0.474727 -0.193674 0.414516 0.564219 0.484525 -0.382032 0.328482 -0.693123 0.050873 0.095146 -0.400308 0.149032 -0.192225 -0.193709 -0.289669 0.160339 0.541968 0.087222 0.547465 0.036188 -0.019917 -0.119486 0.173504 0.367668 -0.744776 0.283688 0.178787
53 -0.172165 0.111972 -0.042612 -0.217915 -0.245077 1.015154 -0.009645 0.453446 0.099008 0.040716 0.571321 0.633960 -0.118387 -0.428346 0.328077 -0.668789 0.109962 -0.206307 0.136759 0.160281 -0.350361 0.071901 -0.184593 -0.205025 0.409945 0.301268 -0.798055 -0.242352 -0.178350 -0.520464 -0.159742 -0.142391 -0.301160 0.264261 -0.027455 0.577728 0.304328 0.223468 -0.214530 -0.455871 -0.074757 -0.514877 -0.169992 -0.454151 -0.485515 0.589017 0.409064 -0.591825 0.474450 0.518698 -0.131278 -0.221502 0.242460 0.015176 0.315786 0.397260 0.337440 0.248606 -0.470048 0.087993 0.372688 0.201378 0.142752 0.140470
14 -0.171463 -0.172062 0.132496 0.500551 0.074359 0.188562 -0.261495 0.211629 0.341797 -0.015530 0.105659 -0.387469 -0.143807 0.172949 0.610224 -0.449156 0.616691 0.580855 -0.496175 0.395305 -0.389906 -0.199101 0.382525 0.561916 0.135756 0.291738 -0.206754 0.241730 -0.511177 -0.274068 -0.233818 0.076315 -0.577159 -0.179475 -0.398187 0.161268 -0.376896 -0.707155 -0.004879 0.092631 0.257271 0.094979 0.540117 0.035309 -0.015564 0.602964 -0.126972 0.128364 -0.316445 -0.528464 -0.520745 -0.349309 0.263313 -0.344780 0.043294 -0.205442 -0.076238 0.212071 0.278556 -0.543116 0.123645 0.592241 -0.473831 -0.488638
190 0.035895 0.519873 0.175951 0.207038 0.956098 0.241381 -0.127326 -0.186669 0.323691 -0.084642 0.468558 -0.448170 -0.206451 0.033059 0.237779 0.035807 -0.160118 0.058557 -0.350046 0.426663 -0.140915 0.212583 0.163158 -0.133509 0.444032 -0.135950 -0.490170 0.244436 -0.389181 0.325549 -0.332004 -0.564780 -0.074610 -0.512149 -0.287577 0.147299 -0.281767 -0.395762 0.353080 0.332885 -0.051229 -0.333052 0.139105 0.248024 -0.419675 -0.409565 -0.324554 -0.130217 -0.170965 0.234739 -0.511302 -0.728037 0.118840 -0.124105 -0.059353 0.142147 0.632758 0.245814 -0.123969 -0.370892 -0.160976 -0.006357 0.015131 -0.246697
158 -0.282161 0.079965 -0.174645 0.181343 0.422047 -0.052803 0.406498 -0.234022 -0.029416 -0.083737 0.269443 0.507441 0.546587 -0.364459 0.034420 -0.310331 -0.401063 0.693364 0.261872 0.426674 -0.399994 0.371246 -0.309977 -0.188172 -0.062010 -0.235494 -0.711267 -0.342552 -0.647381 -0.747149 -0.182581 0.296404 0.200459 -0.365768 -0.606993 -0.473721 -0.142465 0.398179 -0.283815 0.103801 -0.241291 -0.369400 0.099497 -0.026878 0.172696 0.148318 0.128308 -0.514948 0.771213 -0.772618 0.339581 0.545361 0.411672 0.040564 0.178537 0.121878 0.655255 0.207300 -0.529306 0.351233 -0.137471 -0.075910 0.058030 -1.012737
