445 64
122 1.649603 1.227885 -1.784969 0.154155 -1.587325 0.351064 0.951410 1.555183 -1.993539 -0.135151 -1.966269 -2.418473 2.227172 -1.329932 -1.610717 -1.594528 0.876556 -1.475659 -1.237430 0.421860 -3.876351 -4.088662 1.960919 -1.372759 -0.220590 0.796177 0.668688 0.234677 0.587400 -1.789087 0.525947 -2.049584 0.403438 -1.605836 1.861422 0.937506 1.798989 -1.875969 -1.127231 0.447410 0.124139 0.678801 0.343767 1.085805 1.529090 -2.106408 1.155452 1.736265 -2.515333 -0.299122 1.218811 -2.110113 -2.029974 1.494309 2.411385 -0.522799 -2.912316 1.898008 -3.237040 -0.460435 0.778301 0.674972 -0.405192 2.274144
133 1.032937 1.142756 -0.137650 1.557203 -0.774884 0.011173 0.611821 0.546807 3.224457 -1.999859 1.125261 1.777337 -0.153577 -0.504448 -1.482225 -0.753417 0.191476 0.647205 0.538854 2.272201 0.576120 -1.051865 0.464129 1.295428 -0.197365 1.179820 -0.344712 -1.505835 2.848203 -1.326108 -2.215911 -0.416908 -0.148546 0.968161 -1.062525 -1.028425 2.485711 -3.594130 -0.039953 -0.683564 -0.446508 0.608563 -1.773334 0.793168 0.209140 1.625525 -1.357495 -0.528755 0.402774 -0.279352 -1.940724 0.328691 -0.951767 0.803106 -0.091403 2.103743 1.709679 -1.570413 -1.710877 -0.044057 -0.229177 0.105709 -0.111747 2.105200
48 3.269325 -2.389772 -1.266948 -0.492506 0.569223 0.897486 -0.547246 -0.442893 -0.054363 0.831777 0.110151 0.714272 0.133763 2.188524 -0.893858 -0.521073 -1.180232 -0.948334 -0.402493 0.433696 0.464828 -0.349147 -0.924106 -0.052549 1.037577 1.844990 -1.827012 -1.575613 -1.014858 -0.211112 -0.286596 -1.210996 1.177565 -1.083313 1.675330 -1.686559 3.094301 0.168102 -0.091666 1.369178 2.135258 0.849037 1.928311 2.174400 -0.092537 1.898464 1.497061 2.085994 -1.710488 0.114458 -1.415109 -2.001701 -0.515162 -1.440279 -0.026321 -0.905026 -1.401617 -1.584966 -3.371050 0.820381 1.914596 2.598469 0.296234 2.583897
44 3.625739 4.588413 2.022028 0.573207 2.155453 -4.335171 -0.222286 0.267170 2.064147 1.471282 -0.151854 -2.330773 -0.089756 1.040428 -2.385176 -0.507031 0.514612 -1.311070 -2.193121 -0.536645 2.796865 0.662354 -0.601393 0.656447 -0.004741 -0.579977 1.734474 0.180221 1.770754 -0.598676 -0.746780 -0.002525 -2.347055 1.083162 -0.805210 2.179700 -2.220111 -0.805177 0.484052 -1.454777 0.385184 0.869542 1.687959 1.238083 -0.889251 -0.388791 -0.072220 0.185228 -2.775198 1.927627 -1.056566 1.179485 0.184869 1.984682 -1.397534 -0.190565 -0.693122 2.734561 1.822254 0.192042 -1.081228 0.530085 0.406993 -2.202209
230 0.970577 0.943645 -1.582990 0.816180 0.364986 3.220057 -0.673498 -0.384807 2.301022 1.329558 1.014038 0.389813 -1.780423 -0.899023 -0.209755 -1.507423 -0.644119 -0.189325 -1.135972 -0.787390 -0.552396 0.174408 -0.657369 -1.562237 0.758106 3.340891 0.552730 -1.403159 -0.829427 -1.211238 1.336717 0.020588 2.272231 0.085091 -0.609116 1.365126 1.341384 0.579230 -3.041078 1.769913 0.772611 -0.897346 2.439512 1.347926 -0.878053 -0.189853 0.086341 1.426131 -0.484663 0.856141 0.944792 0.030231 -0.574872 0.738706 -1.044666 0.490237 -2.880768 -0.158848 -2.256724 -0.721841 -1.242324 3.299807 -1.797949 0.382355
255 0.551683 1.376415 0.851842 1.952115 -0.714544 -0.640344 -2.295338 0.996910 -1.615184 0.658117 -3.126915 1.333345 1.999687 -2.785902 -1.402842 -0.695068 0.613476 0.502464 3.749951 -0.292695 -2.244768 0.691970 0.767257 0.630782 -0.904528 -0.886781 3.742267 0.742217 -1.094024 -0.001492 -2.014078 2.849882 -0.560287 0.728167 -1.257681 -1.057820 1.293947 -0.585352 -1.044418 -1.627218 -1.243775 -2.530000 1.577488 1.196417 1.612080 0.041450 2.620020 0.807880 1.657060 -3.157979 -1.116188 0.659306 -0.630857 -1.480536 -0.386911 -0.838651 0.949067 2.640322 1.088314 2.581123 3.260095 -0.036847 -0.367921 1.402048
286 -2.360033 -2.208311 0.068183 -5.145181 -1.034148 -0.386681 -1.939998 1.589936 1.648770 1.416416 2.005038 -1.347895 -0.750450 0.225975 -0.956657 1.257966 -0.880937 -2.221189 -0.180902 -1.823272 -0.857297 -2.002850 1.192442 0.303663 -0.372314 2.295454 0.042410 -0.554494 1.918556 -0.418785 1.982862 -1.219786 0.891259 -0.904085 -0.396360 1.282732 -2.547448 0.085673 0.201906 -2.479610 1.218075 1.333949 -1.963268 1.001681 -0.083317 1.283216 -0.244179 1.092814 0.573377 -0.313134 0.577632 0.815014 1.985862 -1.630839 2.064162 -1.469220 0.269512 0.687953 1.844749 -0.645045 -1.521753 4.021052 1.185256 0.443419
374 -1.976615 1.342623 -0.883237 0.195336 1.560989 -0.931822 -1.128632 -1.428816 0.202231 0.597509 1.120242 1.867621 -1.622473 0.981490 0.270186 1.750920 -0.409560 -2.878802 -1.224625 -2.064601 -0.616853 1.569309 -2.751546 -1.158593 -2.431603 -1.705073 0.453673 -0.378205 0.891774 -1.195491 2.350039 -3.170155 0.928260 -0.910149 -1.992609 0.539584 0.523486 -0.550216 -1.912650 2.192847 1.290755 1.633412 1.425650 -2.002877 -0.008876 3.899941 -2.124769 -0.608470 3.165275 -0.882634 -0.391200 1.225486 3.323606 -1.117963 -3.201866 -0.097103 0.627088 -0.940229 -3.211134 2.285102 -0.814503 0.419958 -1.269781 -2.844036
427 0.272111 -2.485882 2.929507 -4.252577 1.082134 1.162647 -3.508065 2.654257 -1.511052 0.654178 -0.214458 -1.651560 -0.601532 0.629032 -2.479253 0.330464 -0.015338 -2.493230 1.721237 0.394700 -0.668377 0.026267 0.035963 0.748971 -2.410782 0.892793 0.520769 -3.251305 -0.946110 -1.581108 1.250438 -1.639964 -0.427011 1.757534 0.804467 -0.549894 0.696018 1.389829 1.316711 -1.960176 3.156600 0.192778 0.332367 -1.873983 1.093899 -2.122688 -0.565904 0.145224 0.666188 -1.108170 1.110245 -0.667775 1.647463 -2.697942 -0.562152 0.374482 0.585375 -2.551547 2.182037 0.005865 -0.710163 0.344004 -1.352712 -0.611100
148 2.756881 -1.235177 0.423767 -2.442026 -2.319931 0.616331 1.548773 -0.779023 -2.530077 0.415848 -1.833719 -3.002168 -2.935142 -0.392059 -0.759738 1.052974 -0.893946 -2.592499 -0.506096 -4.468320 1.353048 0.375433 -1.919396 -0.108886 -1.762144 3.675693 0.023477 4.142851 -0.227035 -2.063955 -0.028438 -1.168161 2.269371 1.229580 0.590672 1.282885 -1.468082 -3.456048 -2.150002 1.779792 1.102901 2.333922 -2.188743 0.414239 -0.719920 -0.473992 -1.586223 -0.519386 -1.623364 -3.710246 2.165373 0.219736 1.318140 0.057637 1.230072 0.218955 -0.128011 1.809609 -0.393608 1.225525 0.392340 -1.612852 -1.238167 1.353900
128 3.409692 0.085004 0.172606 2.433008 -0.660185 -3.121018 1.272396 1.438530 0.458628 -2.134295 -1.152067 3.148990 0.324598 -3.289954 -2.066524 -0.733082 -2.617985 -0.534626 0.073131 2.796474 2.101342 -2.577397 -0.260002 -0.556405 0.723846 0.790047 0.438433 -2.073656 1.799853 0.095855 -0.169084 1.622816 -0.528313 3.291109 -1.274902 -0.598509 -2.034020 -0.982835 0.513550 -0.623022 -1.284482 1.476365 0.591552 -0.533886 0.694518 2.455369 -4.825366 -1.168496 -1.910002 -2.077796 -1.216856 0.232110 0.225939 0.791687 -0.012912 -1.117943 2.034863 -2.350415 1.198458 -0.598356 -2.299445 -1.326364 -0.285046 0.772164
254 -0.472561 -3.245308 0.599969 0.239761 -2.946444 -0.250346 3.254434 -2.576802 -1.437410 -1.340717 1.197526 -0.629450 -2.227560 -0.975796 -0.072881 -1.235118 -1.380609 -1.385202 -0.051446 -2.732057 -0.025097 0.386181 -1.275029 0.914155 -0.239123 2.841704 1.543056 2.837567 -1.291351 -0.682723 0.325264 -1.508360 -0.149108 0.289882 -0.612793 1.035569 1.026259 -1.823755 0.185553 1.044810 1.984477 -0.608300 -2.387511 -2.459433 2.093105 -0.401335 -1.631142 -0.555124 -1.253488 0.796099 -0.688588 2.518923 4.354908 -2.748776 3.971556 0.753185 1.211715 -0.056172 -0.800793 0.962622 1.880286 -0.364661 -2.791191 -2.059387
183 -1.868601 -0.597265 -0.657537 -1.169577 -2.630411 1.743238 -0.154438 -1.322979 1.085181 -1.085441 1.096398 -1.864846 3.364119 0.674802 -1.123536 1.237259 0.297626 1.986065 1.384424 -2.299064 2.357986 -0.700716 -0.152789 -0.931055 -2.765886 -1.235456 -0.075237 -1.611964 -0.854303 3.842740 -1.734893 0.920011 1.724498 0.724323 0.005323 -1.361295 1.074626 -0.806893 0.132607 -0.199315 -1.559731 1.445084 -2.774493 -0.686215 -0.883568 -1.365990 1.148919 -0.767541 -2.162676 -1.267487 -1.314181 -1.886001 0.092211 1.489411 1.881761 3.081482 -2.976477 0.091387 1.801838 -1.329536 0.385109 2.526400 1.713784 1.714714
163 0.603337 0.788919 0.079126 -1.256389 2.126955 2.675591 2.210862 -1.425521 0.054508 -0.688864 0.669189 -0.629679 -2.936820 1.734110 3.709919 -1.634547 -0.784836 3.118356 0.686009 -1.553577 1.327293 -0.418389 -0.143185 1.485040 -2.318000 0.376172 0.324605 -1.273869 -0.650423 0.274852 1.594808 0.590459 1.159252 2.175269 0.988941 -0.976122 0.683644 3.549297 0.971817 0.209981 -0.094368 0.788741 0.882661 2.232997 0.355335 -0.986317 0.377063 0.155631 1.398549 0.048157 0.135495 0.638215 -0.085260 -3.372868 0.675218 -1.982030 1.861227 -5.344291 -1.358341 1.452427 2.119601 1.165698 -0.710899 -0.830274
123 0.237655 -2.014682 0.042516 -0.005992 1.075175 -2.433698 -1.647077 -0.060009 1.135532 -0.923919 -0.642857 1.499788 -0.879521 -1.107004 -1.201495 -0.111765 -1.525155 -0.526606 0.874254 -0.594948 2.483839 -0.484463 0.168006 -0.370597 -3.438993 2.751591 1.170709 0.263884 0.616248 0.622466 0.313760 4.430056 3.021562 2.369579 -0.429884 -1.493514 1.666291 -1.495592 0.557459 -1.922625 -0.969540 2.699551 -0.580467 1.250276 -0.243283 2.448095 -2.901045 1.550350 -3.573630 -0.441937 -0.094037 -0.198309 -0.672663 1.300613 0.586870 0.215472 -0.758797 -0.902161 1.652876 -0.370323 -2.925289 -2.062550 -2.154607 2.092212
205 -0.214239 0.306439 1.805919 -2.227601 1.378035 -1.070999 2.502991 -0.156010 -2.892407 -1.236416 0.865707 -0.697117 -0.814163 -1.625812 2.247535 -2.467883 -0.469725 -0.018133 2.360076 1.232528 -0.191576 -1.921180 0.992365 1.406283 1.277948 0.049619 3.495461 2.238517 -1.389892 -0.440984 2.781442 -1.313741 1.489791 0.955576 -0.519861 0.035413 0.462721 -1.080521 -1.051779 -0.632932 0.629823 0.544085 0.661819 1.371570 1.052692 -0.534664 -1.544313 0.906009 -1.427258 0.356412 -1.398320 2.252255 0.285617 -0.672623 0.739348 0.509065 0.864427 -2.089248 4.413953 0.269587 1.962820 1.759553 -0.994696 -3.060009
360 -0.888493 -0.752496 -1.841329 -0.985597 -0.025269 -4.513978 -0.672528 1.402556 -1.261834 -2.554068 0.597476 0.526663 0.317452 -2.746974 0.370604 0.392469 0.784870 -1.185641 0.084660 1.752588 1.463838 -2.863566 3.967667 -1.622678 -2.408211 0.706928 1.359617 1.729705 0.625716 1.464649 1.092881 1.401115 -0.729368 0.696144 -0.649443 3.253292 -0.114472 -4.030065 -1.247463 -1.047385 -2.123200 1.264913 -0.112649 2.115877 0.529716 -0.874228 -1.969404 0.429631 -1.973157 -2.117589 -2.240622 1.233944 -2.317980 -1.009292 -0.722142 -1.071517 0.773863 -1.906331 2.552533 0.578380 -1.966446 -2.449898 1.260396 -2.659838
337 0.879991 3.549208 -1.560425 0.208451 -1.556248 -0.143644 0.492238 -0.946175 -2.495630 -1.599718 0.646587 0.345449 0.375867 -0.147850 -0.939228 1.951438 -0.439811 -2.041178 0.338541 -3.881771 -0.276950 -1.178824 -0.070099 -1.176930 -1.464394 2.124594 0.413049 -0.061828 1.134191 -0.368081 -2.441286 -1.564794 1.585025 1.856707 -1.452094 0.339681 0.835476 -0.513672 -0.015986 -1.587971 0.698613 1.352019 2.126618 0.664711 -1.307022 -1.483348 -2.336294 -0.501323 0.116045 -1.516702 -1.720789 0.651692 1.704672 3.386020 -3.481040 -1.314853 -3.445130 3.455178 2.427007 -1.646843 -0.028538 -0.023210 -1.970372 -0.024231
95 -0.638174 -2.005290 2.559946 -2.446732 -1.655062 -1.296646 -3.669633 1.736164 1.222037 2.134243 1.407443 2.164686 -2.265792 -0.840964 1.371376 0.474088 -0.146761 -3.578075 0.634189 1.356470 0.723914 1.315454 -0.451192 2.723682 -0.131065 2.703980 -1.951385 -4.188547 -0.594511 2.396127 0.481629 3.574143 0.877418 0.505259 -3.005094 4.465502 2.109391 0.256413 -0.851294 -2.403657 1.718165 1.030275 -3.296640 -1.318292 0.091260 2.249487 1.859416 1.789384 -0.730856 2.270228 -1.606724 -2.673228 -0.051344 0.550472 0.792165 -3.092592 -0.196079 0.408819 -0.233430 0.126320 -3.016766 0.209262 2.362401 -0.469108
240 -0.601066 0.805330 -1.037453 -0.507228 0.903569 -2.289397 0.686445 -0.731401 -0.908669 -1.429582 -2.215929 -0.042555 -0.760044 -1.857526 2.027823 -2.206208 -0.188777 -0.173070 0.487294 -0.981118 1.704797 -1.188692 0.223687 0.801628 -0.694531 -0.465077 2.963489 0.090802 1.396400 -1.651748 -0.109524 1.057923 -0.740601 2.262258 0.996355 -0.740317 2.708145 0.354469 0.233894 0.290307 -1.315131 -0.254959 1.957844 0.165732 1.411320 -1.006464 1.400671 -0.362341 0.886281 -0.685072 -2.132603 3.625958 -1.748565 -2.235025 -0.783715 1.449902 2.287082 -2.151815 2.992768 0.970831 1.012462 2.236352 -0.937404 -4.517160
181 -0.536058 2.204644 0.876411 -3.133950 1.442819 2.077248 0.273513 0.811597 -1.063866 1.628107 2.932019 1.043191 0.311067 1.294136 0.564388 -0.254966 1.008753 -2.305867 1.138787 -1.587844 3.546258 2.542255 1.104185 0.438881 -0.462931 0.488364 1.919308 0.127906 1.876248 -1.221826 -0.160980 -1.430742 -0.379992 -0.476962 3.307337 0.211101 0.105708 -1.104457 1.937019 2.766398 3.158089 -2.252491 0.615638 -0.548354 0.448466 1.591627 -2.284532 0.256267 1.767979 0.048931 1.147701 2.166713 -0.475860 -2.186666 1.545239 -1.734514 0.814023 -1.965473 -0.129596 1.740426 1.054873 0.816854 -0.635562 -3.707361
87 0.304373 -1.226044 0.837786 2.153666 -3.089011 -1.308627 -1.530884 1.899022 -1.939084 2.062131 -1.036511 -0.101153 1.621269 0.414924 -3.047209 2.785699 -0.337001 1.356601 0.815246 -0.562427 0.897853 1.766429 -1.997252 -0.462350 0.570026 1.535215 2.494028 1.690160 0.513820 0.359349 -0.386102 2.656946 2.098064 -2.466724 1.553843 -0.614490 -1.028812 1.445722 -3.027904 -1.315205 -0.949402 0.164829 2.201414 0.416514 0.946493 -1.285321 2.189737 0.812588 0.897975 -0.897888 2.374762 4.552672 1.802266 -1.621431 0.510958 1.080386 1.917491 0.705992 1.559580 0.272566 2.951374 -1.756957 2.224909 1.403772
47 0.661806 1.215986 -3.676933 -2.999269 -2.987772 -1.096235 1.790415 -0.584292 2.781139 0.371528 2.725229 0.890241 3.075711 0.270192 0.166297 5.169198 -3.384792 -0.579568 0.236550 -1.912032 2.278308 -2.007197 -2.613757 0.241850 -3.122632 -1.609959 -2.966198 -1.521339 0.936730 1.692674 1.410982 1.926630 -1.656563 1.031976 -0.123471 -0.307254 -3.860793 -0.188768 0.075049 -1.416249 -0.617510 0.047871 1.162399 -1.644405 0.674318 -0.572107 1.615204 -2.692436 0.621742 0.563974 -1.679436 1.093624 -0.168725 -1.694691 -0.083093 0.101349 -1.444307 -1.640701 -0.244342 -0.217851 -1.178394 0.047271 2.838122 0.155458
130 -1.896760 -1.320240 -1.465639 -2.440363 -1.692446 -0.132673 -1.216820 -2.199598 0.714302 -2.488324 -2.471625 1.958630 2.480829 -2.140029 0.251563 4.063337 -2.964799 1.190040 1.096578 -0.906883 1.241963 -2.069543 0.955163 -1.086873 -1.965763 -0.133566 2.035236 -2.168771 -1.747254 3.558762 2.128770 1.410968 1.902304 0.983796 -0.552727 -1.711732 1.804665 0.575521 1.509037 0.717017 -0.980173 -1.876386 0.952577 -0.469585 1.459847 -2.656891 2.838259 -0.009371 0.989234 -0.028241 1.348668 0.056340 1.418467 1.707053 -0.614493 5.410264 -3.155779 1.079262 -0.054434 -2.819071 0.195442 1.250873 3.444676 -1.021430
90 1.578415 -0.364935 0.000004 2.079627 0.375684 -4.256073 -1.028885 1.319891 0.700886 -2.359842 0.088144 1.295002 0.196558 0.025362 -2.779066 -2.249561 -1.403590 -3.485153 0.383344 2.427475 1.990202 -1.645392 0.357331 -0.255705 0.837314 0.430451 0.380170 -0.461973 1.058258 1.010682 0.994194 1.426359 -0.794047 1.080581 -1.151953 -3.088407 -0.473022 -0.011346 0.073864 -3.756519 -0.299687 0.890873 0.801700 -0.333488 0.092362 3.010784 0.391438 1.824578 -1.047223 -1.798966 -3.869514 -0.249998 -1.790465 2.889524 1.108357 -0.353958 2.197934 -2.794724 0.751400 -0.962750 -0.777384 -1.702797 -1.005159 0.118832
190 -1.967627 0.947713 -2.601337 -0.589519 -2.415751 -0.627084 0.016938 -1.178682 1.209693 0.397600 2.134450 -1.300890 1.871229 -0.658501 -0.036753 4.399775 -2.898309 0.856824 2.073691 -0.230217 1.145766 -0.124898 -2.492472 -1.383627 -3.023290 -0.198028 -0.190391 0.769362 2.177900 2.877104 -1.853997 1.867694 -1.031624 -0.103307 -0.919526 -0.045199 0.084180 -0.351894 0.699495 0.177939 1.414133 -1.608915 -2.602812 -0.681953 -1.019257 -1.309765 1.672478 -2.847642 -0.526752 0.346959 -1.774028 -1.025472 0.800091 -2.556890 2.519507 2.067175 -1.789888 -1.771884 1.174682 -2.701223 0.449663 2.098956 0.953148 -0.010675
85 0.973408 0.027301 -0.680885 3.365433 -2.249847 2.102357 -0.177274 1.793000 -0.170610 -1.279755 -0.871580 -1.360733 -0.305448 -1.505386 -0.556269 2.067065 0.357006 1.679566 -2.149421 1.885770 1.417906 4.753778 -4.136373 1.836885 3.976766 0.175659 -0.044180 1.359092 -1.374796 -1.374070 2.194170 1.813686 0.782961 0.051151 1.740917 0.150687 2.502337 2.770032 -1.472976 -0.495239 0.544963 -0.641411 -0.256829 -0.694311 0.355188 1.104989 2.220023 0.561710 -2.811701 -1.147507 0.455675 -2.994476 0.178320 1.724708 0.394918 2.016282 1.781287 -1.664144 0.345517 3.114232 0.855092 0.730177 0.476870 2.128244
436 -0.503234 -1.387884 2.621566 1.516276 -2.913051 -1.096555 -6.174962 1.386045 -1.218358 -0.552739 -0.619003 0.143346 0.391893 1.577036 -0.170919 2.390276 -0.426622 0.427250 -0.525650 -2.103056 -1.050679 2.098887 -1.830117 0.839045 -0.153464 0.523070 0.813064 -0.927799 0.250347 -2.998455 -1.906219 0.132025 2.633792 -0.756432 3.476988 -1.501047 -1.163072 0.709681 -1.202344 -2.074962 -1.406174 -3.826870 3.932905 0.908614 0.291746 -0.392377 -0.121098 2.371496 1.411046 -0.638145 2.893850 0.180350 0.385271 -3.581764 0.658536 0.547252 0.489773 -1.812346 1.321458 1.404876 1.432892 -1.598876 1.007755 2.728744
246 0.126131 2.048994 -0.864654 -1.538198 2.150730 1.622085 1.327601 1.161908 2.692324 3.501443 -0.162869 -1.373012 -0.753824 0.758251 -3.125752 -1.912086 1.529215 -3.377225 1.237300 -1.471606 2.853253 1.114682 2.786953 2.789827 -1.727988 -3.417346 -0.207039 1.685683 -2.784887 2.671300 -0.462441 -0.427395 0.545679 1.130741 2.007911 -3.671756 -1.169109 -0.911455 -0.643388 0.372831 0.810742 -0.480789 0.989875 -2.053138 -0.090784 0.036720 -1.412251 2.010940 0.023345 3.301450 -1.991529 -0.223426 1.316400 -1.613878 -0.694084 -4.595300 2.151363 4.054868 0.271609 -1.371607 3.458402 0.629902 4.842189 -0.472572
358 0.720909 -0.875681 3.423417 1.027985 1.407190 -1.279323 1.307208 2.634146 -0.361170 -3.940921 0.264352 -1.362932 1.748053 4.173754 -4.454868 -0.058397 1.059187 0.052110 -2.967509 2.745101 -1.933797 0.189898 2.111029 -3.171325 3.223733 2.099606 -1.500195 -1.102278 2.570330 3.206186 -1.120463 -1.041753 -1.316800 0.901064 -1.603433 1.644506 1.413139 -0.210905 1.275794 -0.202117 -3.870796 0.643562 -1.755266 1.578909 -1.249763 1.633393 -0.434859 2.396891 -0.360687 -2.197346 -0.914030 -0.402868 -2.827637 2.713746 -0.338983 2.546800 1.008318 -2.888140 -2.783684 0.322240 -3.546184 2.169963 0.195981 -0.833427
79 -1.778147 -1.849454 0.445740 2.277074 -0.646880 3.760908 2.540322 0.866106 3.912239 -3.210575 -2.343834 0.608925 -3.087768 1.041113 0.454204 1.491972 0.730938 0.750809 -0.531390 0.483731 0.709526 0.444408 -0.423730 -3.076756 2.042247 -0.201361 -0.234543 -0.756280 -4.981176 0.568675 0.374988 0.382096 1.579010 0.393116 -1.798677 -1.190793 0.487465 1.115753 1.415094 3.114883 -0.155629 -2.331441 -0.178246 0.662378 0.306131 -1.252238 1.442952 1.270895 -0.163901 1.905285 -0.188483 -2.253805 -1.457420 1.357801 4.457743 -0.171789 -2.513776 2.378100 -1.660325 -0.185471 -3.375515 3.243626 0.989231 -1.299625
373 -0.743674 3.418530 -1.473078 2.344462 -0.853860 0.016900 0.736583 -1.194424 1.057058 1.045138 -1.089829 -0.607925 -0.651202 4.561616 1.951761 -1.902161 -1.589637 -0.058977 -2.781225 -1.924706 1.128240 1.648853 0.845535 0.881239 0.885266 1.568787 -0.038037 -1.664034 1.765882 1.694048 0.643901 -0.045665 -1.977564 0.460842 -0.308345 -2.595867 -1.011247 0.464483 0.203508 0.078810 3.220083 1.786096 -0.564404 -0.709814 -0.929529 1.307301 -1.316217 1.071283 -0.975447 0.577833 -1.087979 0.560723 0.822135 -1.704971 0.237269 -0.277543 -2.663510 0.597233 -3.363150 2.994219 -0.237741 -1.013591 4.843590 -0.248260
302 0.325058 2.280922 -0.143797 -5.602306 1.465802 -0.882712 -1.127699 -0.183742 1.427379 0.537490 -0.137152 0.136874 -1.302737 -0.045887 3.240459 -0.364210 2.491672 -1.471793 1.288092 -1.825236 1.375519 -0.994131 0.174122 1.480535 -2.717546 -2.782187 2.210824 -1.573704 1.435636 -0.536460 -4.180868 -1.679641 1.383839 -1.197231 1.726206 1.706007 1.893050 2.061335 -0.441234 0.253601 0.261271 2.642255 -1.515667 1.276234 0.792127 1.864905 -3.246210 0.966123 5.078203 -3.582872 0.055966 1.464462 -0.687758 -1.237031 1.025877 -3.361078 0.679207 -1.975249 -2.613171 0.777856 3.624253 -0.231048 -1.507548 -1.587413
335 0.046459 -4.899465 -1.212261 -5.902448 -2.312629 3.267672 -3.814624 0.758999 0.089273 0.554871 -0.533465 -2.262033 2.760409 -0.876257 -1.055699 0.220521 1.898750 -2.004375 -0.036637 -0.501611 1.248777 -2.034540 2.579725 -0.622766 0.261249 2.694056 -1.835414 -3.707077 -1.412851 -1.913267 2.408395 -0.604341 0.851867 -1.593453 3.574020 0.120604 -0.538287 1.093158 -0.674741 -0.875518 4.384587 -0.121942 -1.079304 -0.172711 -0.373350 -2.892468 -0.793121 -1.614363 2.132769 -0.015320 -1.318037 -2.595749 1.320711 -0.945436 -2.663228 -1.472239 3.445436 -0.626755 2.218021 1.849934 1.663633 3.010332 0.225075 -1.379472
36 6.033283 0.387013 0.832830 -0.334129 -1.852877 6.553320 -0.571215 -2.844166 -2.115628 0.906062 1.347809 1.109265 -1.890364 3.657487 1.431466 1.188534 0.505772 0.480166 4.004383 0.760098 -3.100414 -2.501145 -0.971764 -2.627143 1.316928 2.350775 -0.816889 -0.095097 1.437428 -0.958776 0.335903 -1.493307 -0.590260 1.810604 -1.553525 1.562349 -3.045356 1.377362 -3.645198 2.825692 0.443694 0.234461 -3.992062 0.158284 1.642368 0.886876 -2.706225 4.216209 3.869153 1.262041 0.405359 -0.858086 -2.584593 -0.512024 -7.337161 1.040087 -1.396595 -0.455798 1.613777 0.098026 -2.064058 2.224770 -1.349413 -1.155349
382 -0.950050 1.236216 -0.047063 0.017427 -0.783172 -0.997755 2.201634 1.023009 0.225455 -1.912946 0.373018 -0.234820 -3.047566 -0.937801 -2.773968 -2.443245 0.875133 -1.030374 -1.173492 2.760745 1.507404 3.450848 2.080549 -0.092328 -1.309829 -0.170706 -1.504164 -1.519983 2.906268 1.234417 3.856876 1.450930 0.869703 0.724774 -1.196939 -1.087273 0.412233 -1.929227 3.364896 -1.782617 -0.518111 1.858570 -0.718101 0.915987 -0.142317 2.212302 -0.126780 1.610436 0.167893 -0.503393 -2.119298 -2.473474 -0.384179 4.198531 -0.457690 2.883791 5.131874 -2.374342 0.150791 0.025531 -0.197843 -3.279207 -2.427752 1.849787
124 -0.828513 -0.596836 -1.965043 -0.483123 -1.350169 -1.480785 2.949074 0.792031 -0.091356 -0.167541 -2.439556 -2.359524 0.593468 0.477003 2.208322 -1.419204 0.798629 0.677346 -0.447689 1.698897 -1.602035 -1.590435 1.420689 -3.353556 -0.834906 1.381578 4.522225 0.943109 -1.865641 -2.324610 1.925956 -1.499905 -1.707125 -1.603840 3.899562 0.007763 5.168394 0.713135 0.479961 2.800544 4.978468 1.483353 3.957902 1.911303 -0.712005 2.076759 -1.743549 0.382666 -0.525155 1.264206 -0.593035 -3.307972 -6.692644 0.551491 2.438036 -2.748302 -0.863308 2.221990 -2.094641 -1.786978 -0.777427 0.884015 -0.907563 -0.820767
229 -0.205474 4.319447 0.211506 0.864901 0.508701 -2.378600 0.121590 -0.051715 -3.830354 -2.353906 1.712888 -1.307715 -0.841122 -0.262130 0.737062 0.086446 -2.313178 -2.423195 -0.668839 -3.664931 -0.308620 -1.396551 1.509603 -2.456097 -1.390855 0.363346 1.538542 0.638767 0.290198 0.408284 -1.178510 2.204221 0.542137 -0.463700 -0.661549 1.332760 0.164062 -1.214103 0.243403 0.847317 3.849498 0.423914 0.609591 1.075852 -1.820652 -2.460596 -2.717387 -1.500577 0.034497 -0.492801 -1.240401 -0.353380 0.536597 1.704252 -4.955444 -2.377053 -1.415334 0.231227 2.847966 -2.007809 -1.380515 2.192948 -1.308174 0.809595
434 -0.446327 0.607213 1.447848 2.085031 -0.533122 -4.202477 0.842393 1.387712 0.448227 0.317757 -0.711735 -0.002340 -1.035091 -0.535783 -1.902244 0.100904 -0.915431 -2.411225 0.696767 2.674048 2.079189 -1.378284 -0.342361 -2.296539 0.029780 2.174115 1.841844 -2.032562 2.198607 -0.986186 -2.264895 2.986522 -1.904720 2.371860 -1.538854 -0.816378 0.706507 -0.455734 -0.072002 -4.480403 -1.511454 -1.390946 1.787512 -0.839557 0.806783 1.087784 -0.514457 -0.175415 -0.997846 -0.745998 -1.538532 0.722704 -2.333457 3.311545 0.510378 1.594588 1.302260 -2.674111 0.176640 1.362894 0.164682 -3.288327 -1.303342 -1.346857
167 0.832056 -0.765940 -0.510034 2.371381 -0.370643 4.346624 -3.665045 0.375098 -0.065479 -2.501239 -0.109749 -2.217726 -2.466330 -1.602925 1.990072 1.165348 1.662934 -0.018266 -1.522122 -1.439189 0.304651 2.464438 -2.901874 -1.968567 2.291866 0.112588 0.349685 1.126801 -1.360810 -0.056519 -1.848112 0.138806 -0.717423 -0.842123 0.610484 -2.540099 1.121546 3.239917 0.164322 0.344626 0.660889 0.192099 0.821351 2.047172 0.654429 1.693092 0.727779 3.491372 0.392204 0.371732 0.819772 1.119038 -0.249719 0.481837 -2.283834 1.260224 1.447781 -3.512381 3.579635 2.125874 2.490211 0.161745 1.730811 1.269475
155 3.984754 1.167930 1.429459 0.709778 0.028741 1.448853 0.372642 -2.298546 -2.097596 0.541774 0.292791 -1.342190 -2.590890 0.102656 4.019392 0.989333 -1.846767 3.313781 1.088844 -0.730400 0.364631 1.793429 -0.740998 2.216087 -3.137397 -0.708607 3.139743 -3.972126 1.925038 1.074848 1.504867 -4.310632 1.721965 -0.203244 0.636718 1.639396 1.484102 1.250939 -1.725402 1.054774 -1.143122 0.187289 -0.753385 3.049703 -1.842804 -1.304092 1.183358 1.097885 -1.117541 1.476649 -0.254817 1.023663 -1.508039 -1.861855 1.212293 0.386195 0.160033 -2.247714 -0.508973 -3.093909 0.912892 -0.933840 -0.023308 -1.175612
239 -1.155859 3.410897 0.055725 -1.626996 3.045549 -4.320977 0.800727 0.410033 1.104129 0.600500 -2.993593 -2.311100 -3.210910 0.943629 -1.716372 0.469161 1.161780 -0.343991 -2.138351 -2.070839 1.292195 0.418999 0.061332 -0.299024 2.006046 -1.187717 1.627591 0.058516 -1.082886 1.505911 -1.935541 0.919044 -2.392864 2.388477 -2.039649 -0.968497 -1.085856 -1.908832 -2.009454 1.518147 1.925896 -0.164008 4.470079 -0.223068 2.597796 -1.156672 -0.541784 1.787898 -0.722646 -0.798537 -2.127325 0.924549 -2.187125 -0.375278 0.575830 1.852709 0.701435 2.507299 0.884319 -0.327728 0.952684 -3.188622 -0.154758 -2.094261
281 -1.238556 1.011720 0.494184 0.918020 0.478405 5.026064 -1.736942 -2.894830 -1.702128 -1.942825 -1.568585 -2.284980 -1.041670 -0.610815 -1.070597 -0.432690 -3.430033 2.661060 -2.066050 -1.908852 -1.339775 -5.393298 -0.238369 -1.123074 0.837568 -0.541667 -1.307060 5.013561 1.409752 -1.717190 -0.404285 -1.542917 4.787210 3.374220 -1.145437 1.551531 -0.324874 2.450877 1.603336 1.384892 0.267274 0.102616 0.342008 -3.359569 1.981758 0.686061 -0.222265 -1.754065 -0.175991 -1.877427 3.497174 -0.406948 -1.845376 1.956621 0.515751 -0.006839 -1.022861 -2.109551 0.720742 1.196054 -1.734102 0.028385 0.285129 0.569259
162 -1.069465 2.205052 0.214079 -2.259757 -2.892645 -0.628933 0.864873 1.046476 1.117117 -2.080418 -3.116326 1.541344 1.517189 -0.857575 -0.355015 1.951736 -2.957246 0.903292 1.280278 -1.310808 3.130014 -1.357630 1.370811 -1.143117 -1.726146 -0.831114 2.185170 -2.955104 0.173463 2.328754 2.472603 -0.117126 2.641606 1.525598 1.216225 0.365791 -1.545304 -1.934099 -1.282541 1.042266 -0.006138 1.174829 -1.456412 1.266862 -2.019462 -1.748144 0.626872 -2.382379 2.492316 -1.242941 1.452158 -3.890815 1.520232 0.893770 0.862727 0.983434 -4.493074 1.080155 1.689781 -2.832791 -0.998084 3.464077 -1.132525 1.126530
420 -2.154984 2.177373 2.553989 0.783337 -2.979718 -2.983284 -0.181828 -2.561465 1.602530 1.593522 -1.568832 -1.716900 0.193100 1.671334 -1.878958 -1.123385 -4.281168 -2.331610 1.597165 -2.576444 -0.013990 -2.068270 -0.464450 -2.753149 1.620719 2.211730 3.435874 4.291224 -1.691227 -0.411492 1.580510 -1.443228 2.614041 0.910593 -0.527950 1.801355 -0.268500 -2.576038 -1.349041 1.728634 -0.740208 2.199468 -2.000415 1.973890 -3.627465 0.648910 -1.619551 -3.549072 0.064370 -2.888549 -0.691701 1.505654 -2.023791 -0.378188 2.611476 2.974683 0.055967 -0.923274 -2.866158 2.368271 1.409688 -1.289088 -3.569245 -0.593202
267 3.488297 -0.946916 1.124952 -0.632509 2.758957 -0.448870 2.174797 -0.529695 -1.338587 -0.105253 1.575886 -0.842554 -1.325623 -2.284822 2.869860 -0.849714 0.150231 2.882797 0.134059 1.509613 1.159324 2.673166 0.740275 1.079204 -2.979120 -1.824490 2.489138 -3.191917 0.878850 -1.781344 -1.716532 -5.015632 2.136315 0.223042 -1.540386 -1.349552 3.580276 0.074826 -2.540936 -0.690329 -2.542973 -1.994262 -0.006381 0.496055 -1.085497 0.098073 -1.472044 0.476950 -0.815791 0.803056 0.181221 -0.413744 -4.535417 -1.874483 4.499033 -1.044569 3.751054 -3.158700 -2.181710 -0.220907 -0.609476 3.371286 -1.579654 0.158825
343 -2.394536 0.806385 1.022308 0.972639 0.521090 0.156191 -1.342746 1.296541 4.438730 0.062641 -1.207075 -3.601896 -4.115805 1.702288 -1.896574 -2.839922 0.087379 0.045063 -1.500829 -2.505093 -0.884990 2.985704 -0.202216 -0.480352 0.944861 -3.930468 -2.515982 0.042318 -0.856843 0.452343 2.870302 -0.557203 -0.299018 3.259544 -1.224591 0.043146 -0.016727 -0.184414 2.160481 -0.834422 -1.404140 -1.617072 -0.526197 3.112997 3.690364 -0.287598 0.991608 -0.289774 1.348841 2.890712 0.627158 -0.342105 0.523612 0.875956 -0.487224 2.615261 1.048920 -0.164697 0.011095 0.957928 1.942555 1.112196 0.305079 -1.571890
312 1.864682 1.587034 0.409296 0.522865 -6.334264 0.382228 1.831264 -0.766373 3.408701 0.778718 -0.252168 1.017550 -3.582229 1.481760 -1.147573 1.696840 -1.163316 -2.882915 -0.121213 -1.038376 -2.195562 -1.048034 0.354964 2.024542 -1.583337 1.725490 -1.007187 1.433875 2.715477 -0.452861 -2.380046 0.518680 2.800151 0.227689 0.333970 2.571096 2.323605 -2.369158 2.538169 -0.330703 2.254833 1.843081 -0.297423 -0.011025 0.660807 0.658374 1.031489 -3.272376 0.847478 -1.376505 -1.313586 4.011202 0.272726 0.759709 1.306827 -3.353011 0.833381 -1.048132 -2.504551 0.568587 4.796091 -4.758570 -0.144186 -2.410333
363 -3.410624 2.046596 2.367741 -0.751223 2.659375 -4.052653 0.172257 -1.728151 0.711279 1.286637 -0.734956 4.110674 -2.082944 -0.414617 0.012078 -2.377473 -1.204847 -0.410970 -0.949884 2.119705 2.033127 -1.676911 1.800409 -0.488094 -1.962697 2.870825 2.621341 -1.640933 0.520229 0.978236 0.170375 2.092902 0.915536 2.650864 0.879544 -2.539793 1.492326 -0.996312 2.779844 -0.531949 -0.662460 1.168955 -0.805259 2.072200 -0.727298 0.706421 -1.040844 2.920002 0.023152 -1.479842 -2.376281 0.376243 0.474235 -0.358093 1.745434 2.745405 1.351384 -3.813182 -0.150253 0.271105 -0.603885 -3.333494 -0.186799 1.529391
201 1.307566 2.729931 0.144582 -3.360243 1.932866 0.037175 -0.317157 -1.313008 0.551511 0.585516 1.572002 1.410236 0.161260 -1.191123 4.765191 -2.125692 -2.735360 2.604736 -0.323063 -1.918420 0.311449 1.029281 -0.275107 0.682178 -3.920367 -2.149471 -0.861454 -0.303011 0.558270 -0.927726 0.368132 0.794856 1.094899 -0.070483 1.334203 1.628542 2.010849 2.406557 -0.472718 1.108979 0.480997 -0.731465 1.019035 1.700575 -0.400996 2.890269 -1.276870 1.295317 3.105550 1.879829 0.096519 1.212649 -0.945589 -0.409306 -0.273090 -1.592860 2.632651 -0.664609 -1.673518 0.892916 3.669217 1.202455 -0.562968 -2.740209
121 -0.826138 -0.622540 -0.998223 -2.727960 -3.074671 4.464775 0.273570 -2.343499 0.524021 1.245750 -3.963539 -1.487003 3.370482 0.136992 2.134087 4.258656 -0.592093 0.846388 0.947116 -0.273598 2.521335 -0.739110 2.932997 0.727339 -1.799033 1.901589 1.443337 0.560763 0.328134 3.747847 -1.723294 -0.644073 -3.041314 -0.480052 1.150753 -0.378161 -2.793516 -1.810764 0.480779 1.772671 -0.593287 -1.207880 -1.843781 -1.284272 1.759133 0.893182 3.462082 -0.224213 -1.794696 -1.969959 -1.330740 -0.757280 -1.124319 -1.288584 0.320956 3.501250 -1.964136 -1.291568 2.234508 -0.047476 1.918243 3.020156 0.931025 1.243636
271 -1.088264 -0.590421 0.387145 -2.617411 0.879316 1.083753 -2.095498 4.803040 2.178669 1.615359 -0.312150 -3.352141 -2.804491 2.035287 0.431219 0.732688 -0.538817 2.162956 0.817254 -1.365182 -0.423886 1.226338 -2.074042 -0.997746 1.287979 1.431284 -0.994106 -2.683973 -1.446458 2.131695 0.834972 3.666126 -1.712419 -1.786699 2.224444 0.614670 -1.420208 0.380100 -1.779347 -0.060491 1.746619 0.421275 -2.575551 1.099892 -1.920957 -0.632416 1.836903 1.010730 -0.160567 2.407945 1.123135 -4.250782 2.360904 -1.959716 -0.727810 -3.700126 1.188443 0.196815 0.773091 -2.873524 1.525130 2.372619 -0.435908 0.153832
405 -2.332966 0.350535 -0.523104 3.332887 -1.361057 1.612492 -0.568828 2.057857 -1.251920 1.765702 -1.504775 2.724761 0.345348 -1.176276 -0.682623 -0.935197 0.216415 0.453993 0.169023 0.813790 1.185661 0.072248 1.360766 0.158588 3.557338 2.317521 0.567343 2.647916 0.474796 0.297642 -2.337060 4.937878 0.319652 -2.025114 1.111455 -0.575508 -0.277671 2.014417 -2.880631 -1.536414 -0.066837 -3.261730 1.823582 1.860927 0.799014 -1.827291 -1.736289 -1.419552 1.159388 -3.563743 1.992584 0.840155 1.201940 -1.240698 2.717709 -0.614165 3.143374 1.337982 1.690770 1.379990 0.901087 -2.245667 4.999702 0.078622
311 0.040367 0.523236 0.286748 1.941531 0.744555 -3.178493 -1.307024 -0.776334 -0.476319 -3.526817 0.396554 2.345976 -1.131236 -1.036024 -1.167481 -1.640422 -2.768636 -0.547263 0.983326 0.754333 1.570492 -0.574672 -0.355509 -2.077889 -0.728577 -1.722121 2.472660 -1.960845 0.919383 0.908406 -0.708090 1.982354 -2.639024 -0.527839 -0.792678 -0.735969 0.628368 -0.397552 0.585977 -3.387009 1.202794 0.683601 -0.150830 0.200100 0.871848 1.655368 0.187178 0.822064 -0.802740 -2.232809 -3.547281 -0.757292 -2.797565 2.366023 1.173897 -1.436163 1.420671 -2.285280 1.652238 0.230915 -0.673047 -1.587039 -1.482339 0.236291
170 -0.116307 1.879607 -4.454874 -1.751159 -1.117852 -1.415479 3.296766 1.365159 0.352181 -0.871070 -1.127538 -0.110729 3.297032 -1.305750 1.714549 5.705256 -2.732848 0.442774 2.882349 -0.184954 1.565622 -3.600091 3.118579 -3.290014 -0.835004 -3.108391 1.529426 -2.786868 0.747608 3.288553 -3.479697 -0.219088 -0.946060 0.815929 -0.350647 3.897496 2.055681 -3.296938 -1.634948 2.467693 1.736591 -0.323984 -1.094871 0.039293 -3.815998 -1.647963 -1.036225 -0.013542 1.059039 -0.277462 4.444980 -2.620974 1.151853 1.298200 -0.144772 0.300588 -0.749146 0.262133 3.627414 0.172989 1.756878 -1.873889 1.633834 1.345702
110 1.068921 2.678498 -0.727257 0.844283 0.520667 1.357579 1.721469 -0.496192 -2.928805 -2.183160 0.999099 -1.887343 -0.163269 -2.544284 3.753518 1.553700 1.364233 -1.275597 0.146743 -1.469983 2.256914 1.312524 -2.705957 0.436598 -3.182851 -0.158238 2.729898 -5.224149 1.021740 0.289845 2.645099 -3.917095 0.795134 2.291906 0.529547 1.203566 2.253048 1.590052 -2.190784 2.492370 -1.777254 0.093476 -1.399697 1.142605 -1.457135 -2.428089 1.533990 -0.178300 0.712387 0.646919 1.527325 2.170823 -1.081799 -2.845691 0.083840 -0.913628 0.446866 -0.329583 1.501063 0.509431 -0.741171 0.015042 -0.714093 0.928516
350 2.225292 -0.071646 0.891900 -1.335137 3.610395 0.176016 -0.578594 2.591485 0.570027 -0.123816 2.414486 -1.015471 1.031982 -0.468888 1.873886 0.618011 0.866263 2.025938 0.662832 0.947435 3.539021 1.710395 0.195946 -1.245213 -2.760180 -2.920341 1.045994 -2.315747 0.121547 -1.700803 0.479863 -4.722932 3.361168 1.316182 -1.908494 -0.782511 2.063333 1.236623 -2.534933 0.833163 -2.150655 -1.573802 -1.072498 -0.524668 -2.840472 -0.678660 -1.119981 0.068670 1.422892 1.268582 1.944147 1.513523 -4.042449 -0.959450 3.390224 -1.738572 4.253576 -2.491152 -2.870135 0.827248 0.139178 2.929341 -2.186231 -1.545589
174 0.953181 1.509033 -2.805123 2.259240 -1.541624 0.264809 -5.886107 2.676865 -3.293201 0.586719 -1.762099 0.981802 1.333008 -0.323896 -0.665794 0.751863 0.703564 1.880743 1.396999 -2.207115 -0.407498 1.508777 0.897476 -2.491264 0.800201 0.020275 1.503866 2.357692 -1.187280 0.292630 -2.861824 2.376907 1.596862 -2.238940 2.359455 1.451363 -0.333837 2.006277 -2.475272 -3.101486 -0.753478 0.249417 3.392067 1.274413 -0.089782 -0.927617 2.447890 1.534628 0.526635 -2.377695 0.219195 -0.105973 0.946789 -3.972934 2.544858 -1.193664 2.440753 3.200739 1.977542 0.118150 1.422362 -1.581886 0.531216 2.057590
322 0.652107 1.969998 2.562457 2.424891 0.201392 -2.791142 -3.113864 1.966063 -0.382603 0.945657 -3.015963 0.966564 -0.970942 0.161597 -3.460778 -0.325109 0.962506 0.138331 1.337310 -0.644577 -1.417120 1.149478 -0.493886 0.187949 1.409293 2.737327 4.819094 2.404285 -0.310254 -0.163631 -1.258304 0.731330 1.308973 -0.103574 0.767019 -3.077301 -0.678597 0.893988 -1.968822 -2.301872 -1.403706 -1.521363 1.293416 1.215943 -1.786296 -2.250468 2.937548 2.035955 2.260442 -2.560035 1.363698 0.681878 0.642889 -1.275806 -1.751059 1.398437 0.903543 0.689646 0.069541 3.088387 0.827080 -1.981112 1.244476 0.384374
288 -0.157012 -1.593340 -0.886997 -3.269945 0.801905 0.865058 -3.191178 3.389185 3.308201 -4.612319 1.472900 -4.847797 0.780760 0.188490 -0.222735 0.861318 0.697639 -0.689654 1.060808 1.373689 -3.128081 1.159407 -2.438688 -0.681068 -0.843887 1.333135 -3.055020 -1.223453 -1.739259 1.545875 -0.327245 1.648911 -2.420286 -0.314633 1.425113 1.766169 -4.697628 -0.824009 -1.823787 -0.640376 1.546075 3.737514 2.408136 -0.430437 -1.200250 -0.505393 0.541777 -2.625121 -0.914910 2.572470 0.295875 -1.252144 0.733422 -1.412098 -2.119874 -3.923682 -1.371925 -1.892180 -2.172263 -1.118674 -0.977915 1.869317 0.934408 -0.875237
3 -1.479671 -0.149423 0.202031 0.420492 -1.710027 -3.205405 -0.791689 0.799063 -2.025576 2.184443 3.648370 1.927448 0.163133 2.356855 -1.675952 -1.789703 -0.847925 -0.717036 -1.667746 1.416951 0.899703 -1.514577 -0.655604 -2.614993 0.315759 3.748744 0.844353 -0.214381 1.071309 2.177481 1.136894 1.659411 2.569457 0.648444 -2.252130 0.450854 3.027187 -0.129937 2.310984 -3.317243 -3.106234 0.613331 -1.389106 -0.045000 1.871285 2.463011 0.361512 -1.273300 -3.847898 -3.826738 -1.350216 -1.170765 0.860788 3.895124 1.753740 -1.345049 2.222036 -0.505679 -1.994542 1.401085 -0.157115 0.099352 -1.035154 -1.088107
210 0.017517 -2.308099 1.857073 1.570825 -2.483922 3.115594 -2.175925 -0.264761 -2.642614 3.004649 -2.576978 -0.575289 2.904361 -0.111736 -0.524572 2.757382 1.123033 2.080604 0.195317 -1.519899 -1.769143 0.858496 0.157786 0.579436 0.161313 2.738336 2.262501 0.757046 -1.886430 1.852808 -1.046177 0.697777 -1.116143 -0.572961 1.184546 -3.421853 -3.199319 0.162181 -3.241956 -0.682794 -0.986789 -2.658603 2.367251 0.508600 1.112654 -0.334375 1.768458 2.651021 -0.617668 -3.864673 -0.413391 0.141394 1.456433 -2.050866 0.829072 -1.432340 0.536846 -1.933126 -0.272437 0.917109 5.060887 2.377358 0.356190 2.898118
257 -0.162104 0.919496 0.767430 2.548234 -1.556850 -1.506778 -0.053075 -0.951710 -3.934894 -1.997910 0.943591 1.002877 -0.483203 -1.118233 2.294446 0.110446 -1.702232 -2.416140 0.139481 -0.125492 -0.956452 -1.939066 2.640164 -1.867665 -1.632324 1.853842 -0.906886 1.673201 -0.055681 1.594525 0.127579 -2.977561 1.621698 -0.532545 -1.429245 0.633445 -3.932874 -1.151147 -3.329965 0.643662 1.994530 -1.815118 2.461956 -2.108195 0.095026 -0.953044 -1.882160 -0.691272 0.274008 1.257752 -0.229814 1.735941 -1.142844 -1.033581 -4.399604 -1.759010 -0.605355 -0.039303 1.094287 1.964992 -0.619970 -0.866799 -4.386394 -1.765069
40 2.546173 1.502083 -2.056022 0.844144 1.191124 3.410846 -0.660612 0.440774 -2.292326 2.174064 1.191264 1.251507 -1.891912 0.947452 2.622631 -0.673319 1.291485 1.546704 3.347872 0.374042 -1.415255 -2.757067 1.640860 -2.353204 -1.147347 -0.480497 -0.218441 -1.089265 1.390065 -1.362029 3.947431 -0.042779 1.732272 -1.041631 -2.939290 -4.089922 -0.429093 1.625143 3.302836 -0.317304 3.471618 -2.286330 1.713931 -1.913526 -0.115720 2.020558 -3.573055 -2.069339 0.757038 -1.217847 2.823872 -0.801668 4.634601 -1.227032 -5.341797 1.464678 -0.737384 1.026802 0.425898 2.162005 0.268904 -1.673594 1.046867 -0.943204
391 0.454845 1.405426 -0.771612 -0.588712 0.930033 1.542315 0.400539 0.926869 3.259803 6.930644 1.680886 -1.833771 -3.966500 3.058873 0.452781 1.496750 -2.817052 -0.458027 -2.477967 2.537526 2.886828 -2.237191 1.734903 0.873504 -2.497800 -1.975331 1.752377 2.625785 -1.584918 0.176311 -0.959925 -0.173203 -3.082964 -0.243955 0.234392 -1.964728 -4.309032 1.805092 -1.005425 -2.388964 2.054005 -0.850075 -0.584022 -1.611913 2.327901 -2.362485 -1.341631 1.224859 0.000012 2.997886 -4.676335 0.114204 2.052619 0.247583 -0.721596 0.503561 -0.453653 3.401634 -0.588385 0.094573 -3.371809 -1.064395 2.023176 -4.209378
264 -1.232725 -1.520253 -4.609567 -2.159950 -1.015862 -0.306553 1.775535 3.584312 0.149574 0.162801 0.651501 1.177157 2.624269 0.587170 -2.260653 -0.542262 -0.054032 -1.218802 -0.511368 1.307971 -0.681852 0.340681 -1.181604 -4.426882 1.414453 0.191766 3.042451 -2.948433 -0.533216 -0.020670 0.390774 -1.419736 -1.574440 0.017271 0.530166 -0.560518 3.341850 -1.376062 -0.992821 2.570702 1.813104 -2.631038 4.301442 1.608530 -0.184612 3.387033 0.047231 -0.362493 -3.615251 -0.353870 0.414995 -1.440124 -1.138084 2.200841 2.056787 -1.000015 -0.543977 1.714926 -1.032539 -0.092376 -0.745507 1.595868 -4.083852 2.639533
365 -1.040298 -0.772211 -1.228372 2.459233 0.555278 3.203844 -2.544642 -2.931099 1.308201 -1.725191 3.700582 -0.070834 -0.929474 -1.978008 2.172353 1.268165 -1.422420 2.951884 -1.207702 -0.552407 -0.266534 1.811391 -3.045780 -3.702676 3.291831 0.699798 -1.233069 2.416428 -0.374353 2.151264 1.231294 -1.935251 1.865972 -0.084964 0.273838 0.287657 -1.088591 1.544686 -2.225768 2.622171 -0.522561 -1.599834 -1.121960 1.936694 -1.055491 2.019264 -1.868466 -1.856370 -2.472086 2.621480 -1.338350 0.177926 -2.560943 0.648000 -4.986009 1.028387 1.247424 -0.447403 -0.803144 1.459599 0.203792 4.178144 -0.475045 -0.871371
249 -1.700889 -1.949382 -1.183948 -4.180905 -1.251529 -0.766116 0.798041 -3.967216 2.386625 -2.982709 -1.038368 1.718391 1.864554 0.461642 0.864366 4.568810 -0.159020 0.006238 -0.242788 0.137625 3.512711 -2.591484 1.817192 1.716162 -0.016965 -1.944256 -1.652179 0.339508 1.738717 5.687864 1.086150 1.199575 -2.200373 -2.396243 -0.368741 -0.865019 -1.317501 -2.917778 2.621147 1.279444 -0.561301 -1.181228 1.313205 -5.117985 2.143260 0.156125 -0.413282 -1.861700 0.687254 -2.216530 2.301819 -3.884630 -1.732663 0.221475 -0.014765 3.479539 -2.783689 2.562288 -0.276110 -3.121382 -1.096838 -0.422127 -1.733265 2.010446
414 1.316246 -0.613962 0.553721 1.561190 -0.544832 -1.239761 0.438612 1.281669 -0.249129 0.245926 2.664497 3.221072 -0.257469 -1.338361 -4.257558 -2.871968 -1.284139 -0.030913 -1.038483 3.244102 1.233255 -3.416889 1.071672 0.233834 0.395143 1.080709 -1.277949 -0.402016 2.785024 1.774850 -1.455622 0.534504 -1.510541 2.204124 -0.422344 -3.613004 1.357885 -1.329662 3.043963 -1.061142 -1.835047 0.994704 -0.688152 0.522454 0.971826 1.864527 -1.465627 1.682485 -0.889127 -3.004731 -1.892684 -1.686713 1.388046 0.643223 -0.381705 -0.033472 1.563009 -3.598120 1.216552 0.779120 -0.090488 -0.343253 -1.551410 -0.008264
178 1.648184 -0.450484 4.043818 3.095353 0.122197 -1.860056 3.299389 0.089628 0.839073 -1.830749 3.026046 0.769644 1.360599 0.287970 -0.677818 -2.937181 -1.112810 1.785888 0.073242 3.413663 1.448805 -0.590611 0.230470 -0.070656 -2.122920 0.814055 0.645214 1.976869 -2.676901 2.766167 0.113565 0.941120 0.466768 0.006065 -0.733324 -1.235724 1.664514 0.338845 2.914023 -3.976512 0.374371 1.139188 -1.103349 0.567698 -1.654228 2.600856 -1.796650 0.738021 -0.882165 0.419139 -4.979859 -0.586412 2.609214 3.372848 1.702885 -0.760534 0.464838 -4.775083 -0.082611 -0.240885 0.532616 -0.374779 -0.889835 -1.618690
334 3.932463 -0.761162 0.708805 1.173270 -2.641594 0.171312 1.265861 1.736773 -1.652656 0.541376 -1.035556 0.334366 -1.447453 -0.707662 -0.701011 0.109638 1.692342 -2.693827 2.799093 -1.983973 -0.393273 0.952866 0.209028 1.560745 1.397454 4.016784 1.924170 5.222959 -1.977455 -0.182535 -3.590645 0.026101 0.869743 1.227865 -0.178885 0.969574 0.866285 -3.365884 0.283470 2.132538 -1.816041 -0.288312 1.269271 -1.246953 0.524386 -3.525810 2.455163 -3.783080 -0.154722 -2.037340 1.565608 2.602029 2.474184 -0.113552 1.560598 1.348794 4.249959 0.586188 0.745904 4.845756 1.030192 -0.959289 -1.320043 -0.196636
244 -2.982440 -1.771131 0.270179 0.756994 1.244292 -1.942568 -2.783310 0.363874 1.680675 0.863481 -1.784177 0.353212 3.323086 -1.555776 -1.739522 -2.590234 -1.272834 0.161859 0.403875 -3.659815 -2.382415 2.984905 -0.943235 1.194374 -0.539233 -1.012915 -1.590061 0.238415 -5.336576 -0.829578 -2.017455 -1.356591 -0.614158 0.510862 2.352221 0.302419 1.796545 5.699394 -1.368281 0.762084 -0.605727 -2.201026 1.945000 1.357074 -0.220879 -1.611859 -0.909006 -1.046149 0.854940 -1.786403 -0.983986 -1.481131 -1.765159 -1.670160 -2.643652 -0.432964 2.512387 1.484095 1.585666 2.859174 3.590125 -3.789120 4.050163 0.254517
180 -0.960862 1.469180 0.970523 3.702419 1.252924 1.275383 -2.699517 -1.524277 -1.915087 -0.695553 4.725247 2.259076 -1.196028 -0.561239 0.730910 1.026557 -2.339791 -1.419807 -1.048928 -3.026163 -1.361420 -0.321108 0.292150 -2.871681 0.582502 2.928194 -0.766798 0.186243 -0.094751 1.279933 1.337681 -2.420907 1.636057 -0.055669 2.916279 -1.973510 -1.546847 1.518844 -1.474841 1.963526 1.165256 0.144851 0.270536 0.055834 1.149638 1.681941 2.371186 -1.002832 0.013644 3.035092 1.329687 0.960977 -1.588382 2.905238 -5.685000 -0.996148 -1.680185 1.727855 -2.843942 2.385707 -3.000676 2.023332 -3.946353 -1.508678
175 -1.589104 0.431793 -0.139389 -1.006080 1.858895 -5.250174 -2.085212 -0.201079 2.866919 -2.659121 2.862301 1.493003 0.197297 1.470559 -3.333124 -4.235437 0.154887 -0.144867 -0.630225 3.295101 0.791410 -1.591192 2.780882 -2.525738 -1.798830 2.605815 1.063678 -1.517267 0.788246 0.895096 -1.271304 2.842207 1.058607 0.500518 2.553242 3.460584 0.996181 -1.322141 -0.992894 -0.502430 -0.243660 -0.644096 -1.051673 -0.600364 0.323841 2.599754 -0.643906 0.105729 3.159449 -0.360272 -3.304201 -1.264536 0.280046 2.513771 -1.323850 -1.591954 0.312602 -3.051319 -0.514694 0.360437 -0.814884 -3.012435 0.372898 0.281823
108 -0.482061 -0.063085 0.812428 2.391406 -1.429889 -2.395478 0.922370 0.189530 -0.041094 -3.944675 2.443437 1.780536 1.117654 2.133485 -3.063413 -2.889929 -0.171571 -2.503603 -0.358028 4.062659 -0.528384 -1.358837 0.747466 -0.185832 -1.199588 -0.818535 -1.433370 -0.359109 1.444657 3.085807 0.176977 0.568511 0.387814 1.288257 -0.565157 -1.842757 3.619229 -0.790475 2.707466 -3.691300 -2.833858 -0.129889 0.293968 1.097906 -0.089933 1.858637 1.286485 -0.573933 0.027544 0.186154 -0.898083 -0.312622 0.282997 -0.338991 -0.779501 -0.654377 3.233203 -3.741450 -0.570521 0.217052 0.157040 -1.405654 -0.774909 0.789205
276 -0.957143 3.436682 -0.188984 2.469904 -0.937093 1.366115 -0.936865 0.312500 -2.200699 -1.678055 -0.232448 0.411134 4.366776 -0.776617 -4.314546 -1.817066 -0.293343 0.253817 -0.265102 -2.081868 -1.240803 -0.318615 -1.818737 -3.033159 1.077134 0.436837 2.813191 1.461119 -3.006171 -1.068317 0.706559 0.422786 -1.187697 1.002008 2.531460 0.902959 5.466446 -1.115077 2.364556 -1.865754 0.640508 -1.450922 0.546677 2.228904 -0.490087 -0.510728 2.150074 3.636779 -0.221982 -2.545842 -1.177696 -1.545093 -0.966129 -1.348862 -0.395059 0.462603 -0.001586 4.627832 -2.133802 4.140100 -0.655898 3.072423 -1.566315 0.134557
226 2.233624 5.310717 -0.971754 0.025344 -0.933418 2.425907 1.300711 3.367589 -0.029033 -0.575756 -0.490393 -0.929532 0.950466 2.155063 3.740060 -1.001487 -1.236719 2.229459 0.863446 -1.140738 -1.146435 3.073948 0.217713 1.122392 -0.567232 -0.286277 -1.633308 0.566665 1.266186 -2.511006 -0.756096 -0.862129 -5.506120 -2.465139 -3.591575 -0.364515 -1.403412 -1.780829 -0.939474 0.304253 2.612704 -0.993824 -3.702649 -0.550110 -0.916851 4.250807 3.139804 0.085401 -1.696635 0.457311 -1.218341 -0.934661 -0.103901 -2.180883 -0.171267 2.838265 -0.167768 0.688339 -3.781274 1.273741 3.032735 -1.284663 2.692523 1.789190
438 0.141422 1.099585 1.810700 0.127640 1.098422 -2.251030 2.888740 -0.586190 0.713399 0.665863 2.293085 5.119195 -0.340296 -1.998094 -1.528781 -2.495513 -1.326632 4.614676 2.350375 2.194614 -0.487909 -0.922015 2.045152 1.979542 0.444680 0.022641 -1.152982 -1.504982 -3.297182 2.620935 -1.072102 -0.390127 -2.138868 -2.181886 0.658676 -2.720848 2.252270 0.353075 0.807710 -3.595618 -2.976224 2.199181 -1.282181 1.857935 2.349528 0.978577 1.463388 0.026044 -0.839676 2.945008 -1.516215 0.566356 1.503060 1.262150 4.858899 -3.628831 -1.665131 -3.242764 0.628152 -0.349342 1.324207 -1.441520 -0.956223 0.458113
397 -0.330240 0.096550 0.555755 1.816114 -0.789972 -1.360685 -4.267854 4.395664 -3.096953 3.769776 -1.237505 1.909089 -0.250922 -1.807592 -1.370757 1.090090 2.348294 3.152423 2.693077 1.403406 2.143682 3.738287 0.976513 0.046623 0.829103 3.511421 0.562866 2.056293 -1.987283 -1.629415 -2.045392 1.551981 1.667712 -1.845829 0.831980 0.490865 -2.006298 1.692861 -0.960442 -0.026611 0.506378 -3.068332 3.018925 2.659572 -0.295399 -2.853337 3.554016 3.083508 1.946821 -1.840467 -0.988575 0.769201 3.742461 0.367339 0.474899 1.519046 0.966777 2.337245 1.313904 -2.535057 2.921578 -1.421566 0.434384 -0.587674
109 0.163552 2.723267 -3.515425 -0.891125 0.417777 -2.264411 2.372275 0.059015 1.458133 -2.954833 -1.444716 0.607249 2.057322 -1.474915 1.356887 1.757665 -2.038014 1.740053 0.967274 -2.397044 1.872815 -3.627161 0.717600 0.243674 1.161677 -1.500330 3.451840 -0.098875 -2.435471 0.313493 0.353945 0.867457 1.193760 2.004945 -0.726376 -1.888192 -1.011586 -2.046065 3.801669 -3.066635 -3.436213 0.647189 2.477999 -4.491343 -1.507479 -4.065085 3.661416 -0.984010 1.768016 -2.945738 -1.209163 -2.176387 1.271127 4.691181 -0.249472 2.176134 -2.689005 -2.304229 -2.279705 -0.652530 -1.187098 -1.183233 0.317901 -0.171700
161 3.345047 -3.260817 -2.273564 0.647562 -0.930135 -0.830745 2.960324 -0.359607 5.009182 -0.742621 -2.413988 0.585281 2.158058 -0.455812 1.515505 2.095280 -0.092923 1.132688 0.980333 -4.851178 2.825612 -0.864696 -0.840786 -0.379821 -2.115671 -2.624641 -0.177117 -0.559089 1.932304 5.677028 -3.780523 0.589688 1.283888 -0.539574 2.962168 1.802133 0.662545 -1.929785 1.321958 2.135435 -2.074161 -0.052487 1.009090 -3.362902 -0.091395 -3.125685 1.513842 -3.966481 2.567897 1.269753 -0.633151 -2.616145 0.061664 0.729026 0.778667 3.845570 -2.007138 -0.016397 0.601242 -2.928254 -0.890332 2.649161 -0.301239 0.605764
189 0.797566 2.004748 2.559852 0.009488 0.965805 2.922844 -1.256052 1.805728 -1.725703 -0.922589 -4.579988 -3.297986 -0.376354 0.828422 1.052592 1.445479 0.437579 1.896091 0.816985 1.026913 -4.751977 3.330191 0.885833 1.455068 0.526591 -0.189100 -0.279750 0.524485 -2.453889 3.605558 -3.218029 2.707910 -3.243591 -3.247614 0.135133 -2.932814 0.604390 1.164163 -1.622661 1.423642 0.574199 -4.703437 -2.377220 0.092748 2.610819 1.154696 -1.176294 -0.159605 -3.948211 0.646544 1.683136 -0.359603 0.552819 -3.619097 0.449076 1.134346 1.446824 -0.574978 -1.250156 0.646353 1.056109 1.699360 -0.932078 1.957265
58 0.855042 0.679020 2.205029 -0.244705 2.140632 -1.569130 2.810732 -0.002055 3.011488 1.441455 -1.622019 -0.675370 -3.311565 0.627111 -1.789484 -2.708542 3.525509 -3.914980 0.808397 -3.938920 2.614448 0.670909 0.462971 1.267461 0.321007 3.508244 3.237365 2.931520 1.313835 1.298529 -1.925226 -3.817145 -0.131267 3.424309 1.929100 0.460834 -1.626651 0.725002 -0.568471 -3.552415 -1.800097 -0.868387 -0.033020 -0.931441 -0.299282 1.968992 0.930220 0.395313 -0.749450 0.363180 -0.810952 1.776276 0.140124 0.486472 2.390971 0.826089 -3.114605 4.600249 -2.454870 2.393198 1.333223 -3.495393 5.049384 -0.812353
234 -1.012593 1.720556 -0.189993 -1.672426 1.241438 0.447968 -0.044931 -1.541885 -0.664927 -1.086024 -0.211450 1.847205 -0.893344 -1.941602 3.159294 -2.043338 -0.645056 -1.438182 -0.947393 1.494764 2.814412 -0.646668 -0.010888 2.383052 -2.772252 -0.889590 2.411109 -1.541926 4.260197 0.572774 3.364104 -4.771936 0.223570 1.678176 -0.311840 1.124126 3.250555 -1.464824 -4.412963 2.481213 -1.661856 -2.776471 -0.096131 2.836297 -0.579732 0.384402 1.518619 0.957684 3.424659 1.137165 4.493214 1.440227 -2.422857 -3.421259 1.000665 0.529366 1.052863 -1.680797 1.244479 1.491298 -1.347573 -0.146014 -2.283747 -2.096732
379 1.871744 1.927277 -0.286386 0.969626 -1.167844 -4.744929 -0.374245 0.708053 0.221886 -1.676662 -0.878733 -0.694614 -0.218337 -2.357353 -0.072692 -1.103226 -0.246199 0.752614 0.328859 3.711000 1.174237 -3.926998 3.377607 -1.283452 -0.900713 3.019255 2.515329 1.695572 0.470557 1.967782 0.461443 2.544572 -1.015372 2.655998 -2.143625 0.256317 0.262996 -3.705039 -2.247321 -2.193106 -1.781006 0.243578 1.303777 2.456541 1.116032 -0.811445 -2.041725 -0.359683 1.969561 -2.591311 -3.377340 1.744456 -2.390197 0.169240 0.161473 -0.457899 -0.137369 0.413688 2.828844 1.727366 -0.857502 -2.100142 -0.893870 -2.486545
329 -0.205483 -0.992748 -2.123710 -0.013718 -1.615671 0.480836 -1.126476 -0.812476 1.586746 -1.476716 2.454857 -0.546457 2.030159 1.519303 0.258243 3.454712 -0.592862 2.192223 2.612118 -2.355421 4.063266 -0.445973 -0.857835 -0.215506 -2.480354 -3.352434 0.704794 -2.545674 3.050207 1.722524 -0.496771 1.406027 1.064840 -0.897202 2.231156 -0.557712 -1.627376 -0.819874 1.010532 0.157282 -0.076503 1.461578 0.356197 -1.752175 -2.532273 -2.437112 1.454206 -0.787814 0.598876 1.293428 -0.494853 -0.993255 0.563078 -1.020778 0.563518 3.114938 -2.323185 1.163153 -1.236399 -0.027959 -1.026054 1.627417 2.062360 0.255562
2 5.750378 2.313594 2.808821 1.491310 0.281461 -0.785108 1.090484 -0.012767 -1.221439 4.220328 -1.967026 -5.226353 -1.419833 2.583540 2.174444 -0.004187 -0.668411 0.538714 1.568172 -0.135603 -1.336313 -0.913959 2.322898 3.826269 0.199021 -4.270301 2.172115 1.721450 3.470128 -0.138278 0.096044 0.154935 -3.065401 0.977175 -1.297669 -2.628635 -1.644440 -0.794886 -0.544551 -1.411942 2.239036 -1.414863 -2.140334 1.404259 1.921543 1.519336 -1.558961 -3.527551 -1.868805 3.967820 0.317483 2.008476 1.233759 -0.707360 0.626591 1.374573 -0.795816 3.759328 -0.793054 -0.366891 2.588320 -2.444047 1.278850 2.217693
266 -1.294978 -0.680114 -3.505645 -2.264688 -2.291148 -2.176558 2.006872 -0.910193 2.811749 -0.870629 -3.038708 -0.711989 1.091893 -1.026890 0.433810 4.874846 -2.070517 -0.810619 -0.052515 -1.683630 4.009878 1.553792 3.023595 -2.043846 -1.513447 -0.205292 -1.139840 -3.125831 -0.245292 3.666306 1.930843 2.020976 2.412698 1.685095 1.380592 0.513681 -3.128032 -0.201256 2.399960 -0.052144 -1.399786 -1.057594 2.570024 -3.900888 0.415363 -0.592776 1.859912 -0.458000 1.649433 0.060354 1.919106 0.786380 0.089525 -1.726994 -1.385632 2.023594 -1.564901 -1.566305 -1.042297 1.029962 0.598992 2.428689 0.955920 -1.132188
69 -1.033612 -3.932297 2.180662 -2.758512 0.245588 0.284794 0.512993 2.965002 0.811771 -2.726296 2.333099 -5.031068 -1.900890 3.808933 -2.693798 -0.202707 2.280462 -0.462881 0.272008 -3.582914 -2.942225 -1.933417 0.325713 -0.389165 -2.209723 -0.497726 -1.233103 -2.171729 -2.523639 1.753973 0.990650 1.277743 -1.007104 -0.833583 0.775177 0.784635 1.129841 1.243215 -0.851670 -0.399594 2.427666 0.493520 -0.262597 0.221565 -0.579965 1.543887 0.480554 0.118296 2.854738 1.730287 -0.383234 -2.041110 3.010113 -4.025914 -0.328086 -3.648526 0.640024 0.457232 1.245948 -1.884646 -1.469359 0.615107 3.047454 0.162528
368 -0.404076 1.786541 1.581094 3.060756 -0.903082 0.273969 -2.134274 -0.306496 -2.846938 -1.810276 3.021105 2.456036 -2.699594 1.042063 -1.045701 1.038691 -4.316447 -1.462620 1.336503 -1.808450 -2.057925 1.175071 2.244092 -1.017347 -4.008569 -0.090151 -0.563158 0.723323 -0.381195 1.552407 0.090759 0.474487 0.106469 -1.372007 2.499526 -1.745327 -2.735909 1.390270 -0.860202 -1.379738 0.020588 -0.257003 0.390604 -1.664286 1.168172 1.366483 -1.600424 1.290918 0.479847 1.306361 1.340987 -1.231772 -0.020281 3.111061 -1.057013 -2.838514 1.341215 1.156819 -2.216036 3.166677 -4.440060 1.109003 -2.040820 0.101594
33 -0.148614 4.195970 3.029637 1.761792 0.569034 0.016513 1.404089 -3.273216 -2.933846 1.759404 5.503751 2.315287 -0.459182 2.307207 0.618998 1.904280 -0.192501 -2.298280 0.780565 -1.616657 -1.554596 -1.044161 1.516762 -1.434292 -2.243050 3.220416 -2.232515 0.285163 -5.102107 -2.466829 -0.869662 -2.929115 0.236781 2.525136 -1.108626 1.246352 0.878122 4.293476 -2.497722 0.973333 3.296864 -0.169180 -0.204951 0.321959 1.566150 0.498769 -0.523667 -2.609512 0.023445 -0.707381 0.498167 -0.908494 0.964171 4.766561 -5.055713 -0.991246 -1.749253 -1.706662 0.101137 0.974263 -1.808088 4.251798 -2.793929 -0.984201
145 -0.528710 -1.451852 1.674458 -5.849261 0.647082 3.753426 -1.331309 1.738345 0.625580 -1.199854 -0.397830 -1.075436 -3.674922 -2.291968 -0.421482 -0.409836 1.041629 -0.708769 -0.119647 0.552051 -1.643071 -1.756785 -0.766043 3.005660 -0.249361 1.334373 1.150977 -0.435701 1.191166 1.951297 1.460766 -1.628253 3.321896 -1.585642 -0.028623 -2.272982 -2.171291 -2.062225 -0.374936 0.511759 2.632870 3.091164 -0.616437 -1.351192 -4.124111 -1.930350 1.504274 0.626572 0.577797 -2.698395 0.085311 -1.483090 2.580508 -3.260787 1.673887 -4.665816 -3.441716 -1.130720 1.805895 1.592872 -1.818933 5.061562 2.323662 1.104588
295 -3.940005 -0.011422 -2.303114 0.458034 1.117520 1.202892 -2.067524 1.187520 -1.027332 0.827835 2.260738 1.105639 0.502196 -0.955273 0.275124 -0.022418 -3.624593 -0.145845 -0.815714 -6.495495 -0.103317 0.300119 2.904923 1.031867 -2.058475 2.736067 -1.142831 1.729124 -0.159923 -2.159081 1.941213 -1.394246 1.735566 0.559196 0.632329 0.181581 0.727588 0.785664 -2.256552 -1.241507 0.957364 -1.390102 -2.683537 -0.286791 2.586049 -0.414247 -0.797605 -0.297944 -1.112086 3.304646 -0.371743 -0.247744 -1.639672 -1.554848 -4.608574 -0.640786 -0.080233 0.053893 0.706705 1.253982 -3.930874 1.809231 -2.685260 -0.124186
41 1.037183 -1.279040 0.270614 3.263474 -1.932344 -2.228764 -3.918453 0.657718 -2.491345 2.684745 -1.833933 1.025651 1.367092 -0.700368 1.372429 -0.163066 2.264933 4.311051 0.223655 -2.065599 -0.615393 3.581860 -0.455835 1.359697 0.489893 2.088701 1.001328 0.879021 -1.334086 -3.302371 -0.219603 3.546751 2.170386 -2.146027 0.991783 0.261233 -2.680088 -1.168964 -1.194975 -1.118796 -0.954119 -1.467456 1.704958 -0.550607 -1.465546 -2.125852 -1.282528 -0.293598 0.004065 -3.917474 1.322838 -1.051211 4.213461 -1.177980 -2.819194 0.003482 0.706711 -0.245365 -1.478844 -1.230517 0.527272 -0.972401 0.744779 1.564417
348 0.363770 2.128752 0.091839 -0.735637 0.947441 -0.816327 4.334996 -0.839886 -1.769975 -1.201712 -1.030578 0.994664 -0.981286 -1.550318 3.268739 -4.002322 1.025856 -1.642298 -0.252806 3.446548 2.505427 -2.908631 2.246487 -0.416476 0.015406 -0.392583 2.103451 1.301152 -0.504060 -3.212088 1.406954 -6.375751 2.969141 -0.028000 0.268142 -0.241202 0.537744 -0.491452 -0.283987 -0.745894 -0.344616 2.416595 1.644299 -1.294895 -0.134567 0.352095 -1.144522 1.774691 -0.579670 0.078588 -0.182663 3.278502 1.827742 -4.389616 0.577801 2.024404 -2.581305 -4.738135 4.248233 1.984564 3.702667 -0.333050 0.349313 -2.992986
115 1.026676 3.774168 4.159275 0.022879 0.076472 -1.443717 4.861799 2.773868 -0.322438 1.546584 2.009234 1.896009 -1.669877 0.726155 -1.060462 -2.203306 -2.469249 0.652201 -1.845640 1.883519 0.020236 2.245709 -0.890438 -0.012204 0.565745 -0.786286 2.821760 2.408783 0.069899 0.557912 0.119583 -0.359874 -1.572652 1.259324 0.439508 -1.904913 -3.646199 -2.460326 -1.489323 -2.637315 1.486221 0.273984 -0.675472 -3.020076 2.173723 -1.333691 -0.501989 2.670954 0.580072 2.919872 -3.008852 1.305044 3.411465 0.718449 2.549523 2.036364 -0.277127 2.867840 3.005168 -0.031066 1.910217 -0.719365 1.071931 -2.675664
256 -0.999845 -2.991286 -1.525143 0.345790 -0.358996 6.071772 -0.719188 3.290179 1.349401 -0.968515 -1.074361 -2.567016 -0.471953 -1.754653 -0.044375 0.501123 1.912970 1.137997 -1.411206 1.493522 0.685001 -2.556611 -1.751113 -0.544654 1.344614 1.493080 1.137860 -1.463895 0.858091 -0.627425 -0.092062 1.903059 -0.022263 0.057681 -2.330547 -0.679618 -1.349382 3.423055 0.386845 0.385591 -2.513524 0.452870 -1.205467 0.017339 -2.715618 -0.054124 1.090879 0.479987 0.724271 -0.176480 3.151851 -1.112753 2.527890 1.312677 -3.051691 -1.668365 -3.860317 -0.065094 1.353268 -5.728819 -3.262899 -4.434765 0.133138 0.361382
345 -1.009401 -1.035665 0.964484 -1.722888 -0.264302 1.561915 2.379238 -2.370980 3.437545 -1.543894 0.430499 0.863695 -0.783042 2.862340 2.551987 -4.733587 -2.430049 -0.840349 -3.278533 -1.977359 -0.726348 0.824452 0.615456 -1.226686 -0.160944 -2.859857 0.476210 -3.311269 -3.195170 0.642271 -1.400218 0.901006 2.844461 0.088548 -2.489259 -1.251759 -2.307164 3.028571 -0.098271 -0.339148 2.358433 -2.765074 -0.466740 -1.600450 1.403794 0.500582 -0.012893 -0.531696 -2.668760 5.979165 0.900131 0.355293 1.530125 -2.336474 5.036896 -1.278836 -0.612393 1.746570 1.712386 0.240628 -0.170456 -2.690461 0.414357 -1.830686
241 -0.583202 -0.257051 0.119345 2.524556 -0.553628 -1.640871 -2.826541 2.494685 -1.771654 1.119457 -1.163261 0.716435 -0.030164 -0.145268 -2.006888 0.921038 -0.146027 1.730578 1.176734 0.668606 -0.766944 1.924961 -0.754740 -0.439795 2.404810 -0.173392 3.305977 2.066389 -0.308992 0.412818 -0.718727 3.569651 2.004181 -1.078376 0.642851 -2.921669 -1.672075 1.144534 -2.340870 -2.119995 -1.726625 -2.534766 0.978872 2.652524 -0.569710 -2.980308 1.476610 1.845098 1.720411 -2.355512 2.528858 3.211582 3.126721 -1.587689 -1.180616 0.475129 1.387905 1.491954 1.103336 2.194127 2.746167 -2.444788 1.365435 2.644591
378 0.472923 2.463933 -1.662735 -1.105171 -3.903389 -5.597111 -3.260078 0.456149 -3.485237 2.291897 -2.207819 0.410176 2.104527 -1.011059 2.021433 0.169684 0.471293 -0.910687 -0.882508 -0.552607 1.566808 -0.855326 1.704625 1.212424 4.107521 0.379372 1.708448 1.640251 -0.344638 0.318128 -0.446598 1.146054 -0.575297 1.872993 -0.675484 -1.063651 1.467408 -1.967589 -0.547345 3.983907 -1.308478 1.423534 -0.622797 1.285513 1.367913 -3.692076 2.456814 -2.220339 0.213641 0.055568 2.541274 -0.276630 -0.410267 0.115383 0.182974 0.855189 1.112008 -0.330445 1.850444 3.266855 1.741789 -0.259729 -5.325758 0.534359
419 -0.794542 -1.996794 1.158747 -5.618188 0.228400 2.204113 -2.094282 1.436257 -1.104167 -0.762522 -1.537336 -3.177081 1.358523 0.196597 -3.824355 1.650126 1.260938 -2.916073 1.677375 0.950934 -0.877229 1.028054 1.130271 -0.101382 -1.466577 5.880437 -0.062843 -3.024442 -0.971610 -0.652238 2.504654 -0.325017 -0.722418 1.773048 2.437494 -0.843580 -1.788697 -1.501328 -0.941303 1.200503 2.862315 -0.569862 0.469652 0.810654 -1.129142 -2.773363 2.747695 -2.894618 1.054488 0.196880 1.488417 -1.729066 2.881505 -1.417573 -1.023437 -0.177337 1.458569 -2.444947 1.786075 -2.310848 1.064282 -0.904928 1.872356 -0.141756
356 -0.283381 -3.530382 1.422778 2.187929 -0.463421 -3.386736 -4.215402 -0.099819 0.857424 0.462258 -2.078004 0.513745 1.468718 -1.126762 3.248283 1.424640 2.145350 -2.965575 0.581570 1.079819 0.076887 -0.469152 1.607364 0.412644 -1.993644 2.775833 -2.295310 4.624132 1.350378 -4.483636 -2.890311 3.273562 0.629964 -3.823984 1.223494 -0.123513 -1.270499 1.514062 -0.770967 1.648738 0.410050 0.978808 0.723785 -0.280490 -0.739460 0.761822 2.481684 -1.094530 -4.212120 -0.708983 0.590301 -1.579765 -1.272620 -3.741590 -0.314190 3.170175 2.381514 -0.149969 3.675277 -1.379836 5.024384 2.657285 4.106021 2.183629
75 0.876565 2.067588 -1.919696 2.545228 -1.190239 0.918459 -6.658297 1.742919 0.345425 0.630785 -1.760738 1.358207 -1.565706 0.420305 -1.561569 0.539979 2.647165 1.833514 4.205054 -0.977084 -1.138833 3.100072 1.260711 0.039864 0.094108 0.560870 3.537495 2.522082 -0.732406 -2.890255 -1.823782 -1.174093 -0.381666 -4.289664 3.386720 -0.492726 0.662809 2.781296 -1.545265 -2.693065 -1.304915 -1.177433 1.365467 -0.013871 -1.238505 -1.907203 3.007487 1.536841 0.369553 -2.462267 0.244920 -2.345897 0.247411 -4.582692 2.398015 1.092360 2.439530 0.040237 2.259403 -0.700876 2.855315 -1.130693 -0.449192 0.151021
349 -0.754178 1.040937 -2.731497 -0.044618 -0.270203 1.203159 1.470391 2.623893 -0.802632 2.630165 1.750181 -0.880607 -0.294285 1.388996 0.213022 -1.466025 0.791131 -2.083191 -0.721932 1.388456 -0.759500 -0.738367 -0.172681 -0.628666 -0.596531 2.841954 2.746953 0.830633 -0.720245 -2.976707 0.043773 -1.356952 -1.518441 -0.235092 2.886908 0.492775 4.626033 -0.717692 -1.068524 1.487640 1.455664 -1.531374 6.886670 0.785790 1.036426 0.421513 0.978149 1.827180 -1.632972 3.321960 1.023474 -0.406474 -1.222746 4.053900 4.563554 -0.889008 -3.043645 2.317338 -4.496710 0.070250 -0.302709 -0.349280 -0.683272 3.508658
177 0.017280 -0.970751 -2.471915 3.633246 -2.000446 1.718674 -2.984211 1.968204 0.078742 -1.122917 -1.860098 -1.055334 -2.010121 -1.712795 1.150034 2.700871 -0.670969 -0.323009 1.573295 -0.311414 -1.983938 4.306718 -2.003637 0.248390 1.459162 -1.741749 -0.375033 1.212810 -3.999310 -1.815671 -3.439306 -1.125780 -0.240603 -0.443957 2.561639 -3.307778 1.779799 1.288499 0.472460 0.014805 2.453396 -3.492795 0.800561 0.528730 3.110759 -3.608745 1.154148 1.101350 -2.381227 -1.907029 2.460434 0.374135 -2.238524 -0.041719 -1.624744 0.981884 2.084311 -1.120176 3.714489 0.263789 1.514288 0.447989 2.088637 0.621531
423 -1.578788 0.650753 2.185053 1.358382 -2.602050 0.558923 -3.709753 1.634333 -1.405036 2.911845 -4.320258 2.801704 0.891044 -0.898247 0.893725 0.574232 2.305345 1.210447 -0.657617 0.905793 1.537005 1.384359 -0.990657 3.147322 -0.110554 0.097995 0.661756 3.117751 -2.054074 -0.858928 0.009407 0.699076 1.398081 -2.295099 0.918984 -2.778332 -0.216516 2.905736 -1.624185 0.161695 0.506206 -3.704946 1.924592 0.767329 0.534505 -1.892589 -1.462310 2.847792 0.683120 -1.330416 -0.220761 0.223222 0.982384 -1.566248 -0.905784 3.996385 2.720994 0.843288 2.176301 -1.056771 0.664135 -2.834710 1.007505 -0.280839
120 -0.717104 3.079685 0.240931 3.578813 -0.821493 -0.112840 0.851308 -2.178289 0.285715 3.570810 1.391175 -0.384984 -1.771176 1.253536 2.365790 -2.040537 -0.405653 2.365194 0.408697 -2.968895 -0.600831 -1.322910 1.761157 1.902763 -0.671367 1.284714 -2.397697 0.454759 -2.455128 1.193978 -0.134420 2.613837 -0.728926 2.149055 -2.980146 -1.523807 -1.559626 2.779181 -1.268229 0.564393 0.709882 2.705676 0.697369 -2.150372 0.214857 0.144568 -2.610801 0.997358 -2.373385 -1.909351 2.257282 -3.307786 -1.382979 -0.791333 -2.300583 -1.691419 -1.555443 -4.919393 -3.355920 4.402394 -0.904293 2.945576 0.878172 -0.077771
13 0.513290 -4.421425 0.735960 -0.815099 1.304854 -0.001953 0.942337 4.195540 1.029431 -3.724710 0.986079 -5.780061 0.497178 2.639019 -0.028942 -1.205710 -0.925159 -1.252130 0.043536 1.987928 -2.405661 0.992564 -0.455251 -2.175089 0.240982 -1.695536 -1.788250 -1.193412 -0.734787 1.221094 -1.501707 -0.403996 -2.045665 0.128516 -0.287109 0.618982 -2.071224 2.346580 2.537061 -0.937964 -0.255275 2.831636 -0.029751 -0.619168 -3.722453 2.339022 2.627816 0.952133 2.650197 0.843337 1.607463 -0.440525 2.108027 -4.848888 -1.680581 -2.727264 -0.872097 -0.091985 -0.573579 0.031263 -1.190672 1.390147 -1.242386 -1.737800
89 0.998658 3.769779 0.086514 1.570906 0.136637 -1.699503 2.571476 -1.132156 1.670280 4.564384 -2.328514 -1.589520 0.360966 2.848625 -0.847548 -3.726418 -1.190276 2.523812 0.603285 1.860071 2.419724 1.653829 -1.584744 1.107919 -1.353532 -2.412119 0.217674 -3.420994 -0.233802 0.401121 -2.385128 0.600832 1.213204 2.229492 3.104767 1.387748 0.531675 -0.236091 -1.320876 0.771655 0.311521 -2.000173 1.709417 -0.158081 0.319948 -0.461809 -1.091804 -0.361830 -1.841931 2.598110 -0.414949 2.134826 0.155063 0.540746 -2.713245 -0.609451 0.873852 0.013856 -0.826199 -2.841110 2.725621 -0.000820 2.462067 -1.262377
352 1.836188 0.381207 1.331371 2.032468 4.130041 2.187633 -2.799785 1.002031 1.067484 0.032927 4.617818 0.883013 -0.893763 1.614991 0.156508 -0.948383 -3.050797 2.704375 -0.808350 -4.158617 0.257274 0.340360 0.135355 -3.836895 -0.783446 2.890753 -5.810943 -0.007194 -2.405872 -1.813748 -0.623943 -2.591170 3.859982 -2.067901 -0.159096 -1.593911 -2.268012 2.562954 -2.459516 -0.097371 0.921761 1.731363 -0.447692 -2.866879 -2.537367 1.064340 0.588049 -4.418431 -0.479912 -0.078388 -1.754540 2.077130 -1.166502 -1.434934 -3.595101 0.007408 -3.722917 1.086699 -1.590836 2.870362 -2.076692 -0.522025 0.387812 0.157205
203 -2.887139 -2.004589 2.023224 -1.529947 1.799409 -4.127010 -1.128177 -2.070325 0.800340 -0.077899 1.853664 3.515627 -2.343035 -1.592913 -1.010754 -0.536406 0.540338 1.285615 -0.313148 3.242194 -1.074240 1.084174 -0.373477 -1.002381 -0.549481 -0.218519 0.987961 -2.410326 -0.349972 3.802141 -0.117328 1.987291 0.255784 3.609213 -0.178561 0.222269 2.501099 -0.402005 0.782082 -0.210405 3.519995 -0.009463 -1.360725 -0.721159 0.217633 2.317552 2.542308 -0.105357 -3.885677 -1.714221 -2.586099 0.420944 -2.578998 3.771026 1.162195 -3.442835 2.072401 -4.337444 0.247200 -1.337320 0.255421 0.202190 1.205490 -0.648616
404 2.168362 -0.212802 3.627617 1.216944 2.137179 0.452795 1.215678 3.269336 3.902091 0.114497 2.698542 2.193199 0.596709 0.211927 -2.034806 -0.775689 0.278894 -0.329021 -5.945208 2.008170 -0.103229 0.317560 0.118314 -1.267980 -3.645098 0.408035 0.840908 0.633688 -0.070069 4.049088 -0.121500 0.611874 -4.329494 -0.828375 -4.058173 0.945712 1.876062 -0.993652 3.466022 -0.956915 0.214125 0.213480 0.900043 0.200574 1.934987 0.586052 2.169142 1.357506 0.144613 -3.902533 -1.342034 0.687131 -1.346166 0.962351 -1.730958 0.735456 3.044624 -4.176817 -0.053189 -2.638832 -2.462532 1.279327 -1.822448 -1.647755
319 0.099416 -2.717733 -0.386985 1.660822 2.621505 -0.035931 -0.062378 -2.665321 0.741957 -1.166288 -5.195566 -4.741606 0.993676 -3.380681 -3.190270 1.008493 -2.907428 0.604790 -0.334010 -0.680989 -5.051794 -1.719065 -2.776508 2.060366 2.188444 0.642736 -1.150037 3.139515 3.692234 -0.798618 0.854095 -2.523097 0.101154 0.881627 -1.403499 0.352315 -0.687997 -0.121878 1.229857 3.848036 -6.080827 -1.192674 -5.289463 -2.305079 -0.152724 -1.201108 -5.609592 -3.973555 1.768732 -0.794245 3.377616 -0.837527 0.838304 0.401348 0.501403 -3.150966 -1.169771 1.176928 -3.949481 -1.907672 -1.951517 -2.314703 -1.286698 0.167308
437 -3.027845 3.228477 -1.087773 2.111234 1.229156 3.837443 -1.454361 0.263528 -0.342303 1.146271 3.417970 2.816858 -3.306762 -4.636873 -0.916491 -0.975485 -4.252699 4.774467 1.549312 -3.918197 -2.029244 0.961260 1.011154 0.228198 -1.942348 -1.279197 -1.881776 -0.228213 -3.352413 1.118746 -1.391791 -0.717138 -0.109217 0.294304 -0.732525 3.637706 -0.648713 0.838389 -3.423948 0.852177 1.323780 -0.765999 2.308856 -0.578944 2.592553 -0.211121 -1.226889 -3.930863 -3.507818 0.432989 0.346680 -2.071990 -2.015368 0.214174 -3.127047 -0.692015 -2.468410 0.323106 -4.168585 -0.500012 -3.731905 -0.533166 -2.216501 2.632751
290 -1.734757 0.175626 1.288549 1.172978 1.067333 -2.742775 -0.400519 0.173681 -0.783350 -2.701533 1.671540 0.749404 0.129987 -1.101744 -1.705681 0.513641 -0.140399 0.796654 1.160943 0.535816 2.668858 -2.466835 2.660533 0.456848 -0.289508 1.261665 2.659884 1.194900 1.972679 1.422654 -1.007391 5.584433 -1.507487 1.130622 -2.586345 -0.665120 0.338430 -3.294544 1.950152 -2.933615 -2.105262 -1.127798 0.227431 -0.578605 1.055984 -1.564423 -2.260062 1.766250 -0.333032 -1.182224 -1.768782 1.781520 -1.134142 0.379734 0.163465 1.058261 2.284003 -1.648626 0.087628 1.555387 -1.999285 -2.783140 -1.408142 -2.899372
338 -1.473084 1.159531 -3.355207 -1.207769 -3.993276 4.026183 2.893219 -1.616443 0.971725 -1.915256 -3.517470 -0.735269 2.413621 1.450457 2.195114 2.477767 0.892587 2.112006 2.543210 -3.701648 1.769166 -0.090322 0.018006 0.621110 -2.223727 1.268839 0.974504 -1.541834 1.659941 3.706270 2.272043 -2.164610 -1.094407 -0.614898 1.356392 0.113481 -1.773198 -0.883922 1.135572 1.938480 -0.016602 1.390913 0.020469 -1.481860 0.801316 0.003914 2.284629 -0.945676 -0.504025 -1.655180 -2.527966 0.827996 -1.551484 1.113986 2.015292 2.218771 -3.234155 -0.978081 1.837255 -3.355494 -0.351476 3.823647 0.443562 1.470599
149 -1.301465 -0.687125 0.257807 5.227827 1.627342 -2.006121 0.199614 0.653881 1.918296 1.485226 4.304577 -0.587117 6.799976 1.854001 2.332687 -0.589598 -2.682816 0.469759 -0.350550 -3.385067 -1.636265 -1.553825 6.715875 1.836870 -4.175451 4.537743 -4.751477 2.354493 -1.269435 -0.025920 -1.851808 -0.999113 2.098057 1.152655 -1.355833 -1.160284 -0.631366 -0.633589 -0.408894 -2.029474 3.906125 -1.001785 2.823827 3.720878 1.596189 0.455178 -3.030714 0.666154 0.904378 -1.622023 1.480796 4.698429 -1.422354 2.758044 -0.872237 -1.167662 -2.857563 0.755850 0.624396 -0.149521 -1.558647 3.480808 1.212815 2.096659
262 0.289176 -2.547708 -0.234873 0.676280 -0.333580 -0.140132 -4.367406 -1.332045 -0.966552 -1.568648 -1.769365 0.420882 0.003498 -1.379777 0.274622 1.934557 2.318626 2.588927 0.386674 -1.924875 2.562607 2.426829 -0.591776 0.516356 -0.478204 3.691757 1.661762 3.236654 -0.626517 -0.106903 0.478581 4.191327 2.001107 -1.034767 -0.447329 -0.078213 -0.476597 2.518925 -0.482535 -0.249901 -0.620310 -3.231524 2.475340 1.878253 -2.129614 -4.972584 0.644815 -0.110515 -0.764060 -0.619464 0.751381 -1.114815 0.472934 -1.436953 -3.036277 1.252277 1.225793 0.038157 1.928916 -2.482803 2.560332 -2.434631 0.583224 1.268609
66 -1.808007 3.519158 1.367446 0.214133 4.966923 -2.167897 -0.891583 -0.007488 -0.852069 2.045639 1.709104 1.537746 -0.692574 0.244175 1.054943 4.439902 -1.059195 0.259569 0.840658 -3.943000 1.021792 -1.006874 1.853489 2.114124 1.679289 4.634429 -0.975525 0.573430 0.547605 -2.586952 -0.086488 -5.304228 -0.680189 -1.306388 -1.262458 3.548357 -1.953075 3.838390 -1.361877 1.026809 3.401839 -1.530717 0.795028 -1.707108 3.724429 1.574896 -2.325166 -3.541637 1.369168 3.025563 -3.661479 -2.339903 0.524689 1.005698 -4.185507 0.636654 0.474578 -2.010389 -1.462490 0.469330 -1.055697 1.291935 -1.590044 -1.118723
417 -1.492939 -1.731505 -1.713413 0.415635 0.764156 3.179231 -0.041971 -1.908441 -0.403340 1.097530 -0.837026 -1.215135 4.403389 0.963888 -2.602138 -0.634736 2.672398 -0.371593 0.524604 0.458192 0.824471 1.534851 3.413741 -0.809523 1.437398 2.285834 1.047889 -3.356218 -2.623864 0.104602 -0.823644 -0.520939 -0.075918 0.443697 2.848777 -0.437866 1.251834 -2.369998 0.491059 1.344011 0.107214 0.665125 3.522574 1.981586 2.249916 0.428783 -0.872886 5.235195 -3.080625 -0.710941 1.415717 0.899231 -2.709730 0.462725 1.061094 -2.428404 -1.315236 1.382493 -5.242633 0.513617 2.596740 2.355985 0.142457 2.214137
94 -0.087028 0.126262 1.616826 2.839536 -0.852608 1.514078 -2.748631 0.090993 2.209663 -1.160651 -3.185346 -1.183717 -3.678846 4.846653 2.520004 -1.082419 -2.359050 -0.779091 -1.372032 -2.636250 1.269812 0.263375 -0.375148 -1.772603 0.337409 -0.121065 4.206422 -1.855245 -0.695709 -0.902794 -2.009840 -0.207425 -3.002326 -1.521335 2.142600 -2.370451 -0.707583 -0.187623 -1.948820 0.612448 0.173071 -0.438658 -0.483373 0.118762 2.676915 -0.803824 2.757521 -1.026098 0.358422 1.624621 0.705266 -2.450486 -0.250398 1.173314 0.931660 1.835108 0.632127 0.972428 1.894584 -2.248781 1.772110 -1.541117 -0.741563 -1.588942
235 -0.436809 -0.023002 0.568437 -4.386829 0.936823 1.240333 0.280267 0.922627 -1.586792 0.173028 0.209513 4.256176 -2.510955 -0.116699 1.499150 3.031528 -0.178663 1.472179 -1.252940 -2.866962 -0.204826 2.490055 1.957196 1.311007 -0.696794 -2.319670 0.605213 4.782320 -0.888333 -2.855836 2.881296 -1.079957 -3.504998 -2.590697 -1.413155 -3.709298 -3.401408 4.721989 0.262107 2.811944 2.976411 -2.010798 1.271741 0.290251 -1.843647 1.916949 1.739218 0.806735 -3.433962 -2.285319 -0.134011 -1.544254 0.224536 1.578873 1.349367 0.123202 4.788805 2.649856 -0.466657 0.368486 3.822336 -1.098786 1.019446 -2.179181
32 -2.714260 0.861670 0.725080 1.585987 2.218633 2.475492 1.650907 -2.568065 -2.108260 0.850706 -1.224250 -0.249356 0.247244 1.932348 0.625057 0.402800 0.045556 1.526539 0.721620 -0.601324 -1.971936 0.798309 -1.435066 0.313222 -1.394781 2.797680 -1.006607 0.231300 -1.573779 2.527886 1.898624 -1.250302 -0.546642 -0.406300 -1.507649 1.797828 -1.940795 -0.688172 -5.550672 2.812231 -0.014820 0.024313 2.550913 -1.349772 0.326403 1.374470 -0.435655 0.161956 -6.604527 -0.192560 -1.540355 0.551727 -3.180496 -1.462335 -2.368373 0.394538 -2.155268 -2.330465 -2.871404 -1.269637 -0.661380 0.021840 -2.564412 3.553683
325 4.157426 0.905131 -0.534831 1.875318 2.458101 -5.138641 -1.594466 2.285352 0.505093 -2.512125 2.593307 5.050192 1.814677 -0.755931 -3.869451 -0.500956 -1.063214 -1.974492 1.809570 -0.009764 0.603450 1.812493 -2.124469 0.482207 -0.501442 2.082897 -0.232327 1.286128 0.954054 2.094751 -2.446280 2.011915 0.428678 3.876682 -2.245696 1.640374 3.161784 -0.113640 1.439450 0.870675 -2.783580 1.679048 -2.005315 1.671919 0.790636 -1.516838 -0.992007 0.518209 0.127725 -0.000763 -3.253863 -0.404792 1.134829 2.974382 -0.035646 -1.420757 3.296806 -2.741168 2.907472 -0.563850 0.491872 0.107300 3.432097 4.772153
42 -1.292252 -0.319544 3.155589 -4.555133 1.141887 0.592356 2.154863 -0.516764 -2.856024 -0.171931 2.850427 -0.258094 1.861942 -2.879238 1.116019 -0.109438 2.184518 0.057345 -0.084417 3.440386 0.020597 -1.021537 -1.866880 -0.546237 2.243202 0.312280 1.658252 -1.758367 -3.520154 1.234673 -0.558850 -2.958698 -2.114347 -3.945628 3.376709 2.957049 -2.057199 -1.077594 -0.935688 -2.541037 0.385524 5.239212 1.662938 -1.512556 0.275823 2.354285 -2.129915 0.165761 2.204323 4.106277 -2.818831 0.339509 6.111685 0.249977 1.329257 -2.421279 0.750928 -0.765438 2.571967 -0.431755 1.622729 -2.314644 0.295208 1.492484
20 -3.265027 -2.522043 1.196927 2.568416 3.407580 -1.075504 2.397058 1.649417 2.056099 -0.206525 -0.025896 0.108404 2.840765 1.038721 -4.081134 -0.742048 -4.569237 -2.439569 0.451838 5.867254 -0.525622 2.008246 0.705150 -1.591336 -0.566648 2.259900 -2.209013 2.971242 -2.241710 0.897238 -2.791183 2.778147 -0.930646 1.825239 -3.327403 -2.554540 0.487139 0.706807 1.488308 0.986717 -3.177375 1.905210 -2.028532 3.234881 -0.667518 0.224180 0.446214 -0.122796 1.252505 1.486603 2.400406 0.179329 -1.471476 1.385092 1.447478 0.426499 1.606138 -1.116716 -1.596451 -0.806479 -7.064904 0.045960 -3.827077 -1.216587
425 -2.175011 -0.205956 -0.942141 -1.464965 -1.118048 1.259319 -3.332237 1.240501 2.825288 4.107074 -0.796797 0.389663 0.356007 0.747085 -1.045086 1.273574 -0.112025 -0.593921 0.936877 0.064357 -1.764513 0.284151 0.662475 1.121485 -0.387612 3.508123 -2.413709 -6.331762 -4.062640 -0.451927 2.835240 -0.814839 -0.275211 0.421254 0.556621 -1.048451 1.228047 3.433791 0.506582 -0.325099 1.774187 3.310840 -2.987463 -2.707447 -2.063151 -0.452423 0.540053 2.237734 -1.912265 2.653169 -0.351738 -1.326628 3.111827 -3.478578 3.818566 -3.043569 -0.988367 -1.304527 1.214238 -0.017454 -2.256031 -1.276946 -2.856514 -1.089467
164 -1.503510 -0.929103 0.281212 3.888994 -2.334516 1.597939 -3.396477 -2.745970 0.934213 -0.562360 -2.480217 -0.752479 1.759791 -1.890897 -0.322861 5.355453 -0.545332 0.757676 -1.683901 0.979040 0.322041 1.136293 -3.601250 0.624900 4.463362 0.700789 1.451070 1.589068 -2.476882 -0.594865 -0.220780 1.612800 -0.863758 -2.899714 2.526278 -2.739137 1.498121 3.270373 -2.198904 -0.704191 1.730938 -3.325414 2.848152 1.920365 0.024626 -1.773217 -0.264831 -0.504575 -0.381209 -1.031625 1.350154 0.839044 -0.108732 -3.844873 0.776222 2.520307 1.124660 -2.797621 1.936906 0.952055 2.763193 -1.477094 1.454826 1.880626
313 -0.447700 1.233416 2.116004 2.485914 0.655786 -3.374667 0.998839 0.103731 2.375448 -2.457057 -1.100955 3.240789 1.707890 -1.518549 -2.828808 -2.853197 0.389735 -1.575837 0.107544 3.284782 1.929820 -0.534172 1.627521 -2.152650 -2.599051 1.235816 3.505094 -1.385498 0.088216 0.886506 -0.732454 1.856282 2.815416 1.532178 -1.224268 -3.120269 0.946918 0.297861 3.009134 -2.493355 -2.360615 2.347401 -1.334862 -0.981573 -1.953581 1.121312 -1.580828 0.865171 0.701947 0.063131 -1.993350 -1.653425 -0.758993 0.981645 1.074045 1.928658 3.112736 -3.400297 -0.405915 0.446474 -2.629155 -2.682281 -0.084233 0.740944
78 1.582586 -1.661535 -3.909575 0.552610 4.179839 2.743100 0.511258 -0.893600 0.461155 -1.426467 0.439629 -2.162869 2.530990 -3.443176 -2.636753 0.547093 -3.900278 -2.336516 0.652834 2.806580 -1.569423 3.941673 -1.306209 -0.947332 3.526464 -1.285564 0.021144 -2.117291 2.032571 -3.903414 0.936613 2.292980 0.099134 -4.673570 -1.464935 0.226041 2.797079 -1.230636 2.084420 2.083939 1.433848 3.472156 2.697837 2.521022 1.496394 -0.808339 3.022816 -2.068491 0.107970 0.367582 -0.364239 2.190444 -2.592858 1.245366 3.896241 2.071698 -0.273268 1.813535 0.863317 3.465131 -1.620527 -1.507226 -1.081979 0.523596
82 2.123210 0.280049 -3.725381 -0.109464 -1.829486 2.214540 -4.101029 -0.876713 1.277571 0.770167 0.545966 0.529425 0.608109 -1.355828 -0.368790 1.341099 1.876250 -1.157867 1.627942 0.444757 -3.142558 -0.559497 2.774076 -1.504640 -0.229626 2.298189 2.546834 -0.701584 -2.246745 1.665274 1.495753 -1.291145 -1.148471 -0.588471 -0.563113 0.148466 4.752964 -1.119924 -1.290640 2.816051 0.324107 0.619311 4.187877 2.476820 0.367023 -1.104600 2.711851 2.625004 -3.004565 -0.692422 0.466306 1.218256 -3.118258 2.041263 1.503455 1.300597 -3.398033 0.334094 -0.204538 -5.376675 1.751844 0.885293 0.969863 -0.596818
30 2.725754 -0.553266 -2.499612 2.545481 1.588951 4.351461 1.741029 1.224590 1.502932 0.641812 5.435907 -1.270182 -2.302051 -0.872419 -0.533660 -0.821747 0.484698 -0.161202 -1.278889 0.905455 -0.799270 -0.070471 -1.735330 -1.880226 3.635308 -0.934048 -0.253130 -0.363690 -2.063659 1.519336 -1.973133 0.135160 2.461149 -2.235382 1.869104 -0.110876 -1.104368 0.190798 -1.740568 5.289778 1.218191 -0.611787 4.182453 0.663239 2.401184 0.303112 -1.903604 4.023108 -3.028261 -1.771301 -1.079079 -0.539328 -1.530749 -1.800142 -0.243845 0.265439 -4.830086 -1.477111 -1.145876 -0.101300 0.208933 4.289844 -2.858931 4.109431
306 0.863987 -3.458437 0.898552 1.736117 -0.952500 1.328900 -3.449232 0.754547 -0.292796 -4.995015 -0.809909 0.975187 -1.579745 -0.016890 -0.085479 3.331127 1.143631 1.991379 0.619968 -0.242100 0.841630 3.589942 -1.141557 -3.871127 0.167635 1.519898 1.687116 0.180658 -0.788244 0.520516 -1.774671 0.903447 0.265642 0.951585 0.289931 1.447221 -0.077874 2.648377 -2.912697 -1.611165 -0.297853 -3.056144 3.413919 1.592317 -1.483854 -2.100130 -1.301527 0.756495 0.716511 -0.800779 0.855726 -0.545088 -0.281325 -3.018876 0.232941 0.354217 2.065701 -2.027427 2.818628 -2.419333 4.120134 -1.532357 0.434105 1.115121
291 1.657625 0.233526 0.712540 2.952738 1.202654 0.327019 -2.089408 1.091043 -3.619767 2.561557 -3.215190 1.721306 -0.408001 0.358271 -1.013051 3.065702 -1.168602 0.853885 -2.760771 -1.441644 -0.166248 3.213423 -1.111747 -2.639971 1.480378 -0.646225 3.754038 -0.035717 -1.001624 -2.428864 -0.156048 1.238224 -1.676677 -0.696121 2.620147 1.054801 0.071534 5.177681 1.596220 -0.812396 -1.929987 -1.698348 3.367171 2.845544 1.651968 3.302109 1.433238 -1.252449 2.359302 -5.994138 -1.118599 -1.248053 3.503673 -3.797427 -1.669002 0.165079 -0.846203 -2.389350 3.079254 -0.456362 1.222186 -5.537069 1.447581 1.307928
443 -0.134144 0.476912 0.534831 -0.636745 -1.822197 -1.171720 0.049724 -4.053211 -2.041605 -2.232124 0.746757 -2.139089 -3.354417 -0.801865 -2.112438 -1.044236 -2.483686 -2.245862 1.764630 -2.875357 -0.731085 -1.590702 -0.354804 0.363045 1.243916 2.510839 1.381255 -0.988754 1.695580 -0.025911 -0.349061 -1.322734 1.541151 -2.293285 -0.885689 -1.483422 0.528225 -5.875355 -0.908126 1.275828 0.779579 2.473567 -2.022748 -2.647306 0.592950 -0.719680 -1.463024 0.412164 3.297458 -4.970166 0.857837 1.510204 1.287957 -1.623207 0.428535 2.553423 3.379667 3.964530 -2.168218 1.297821 3.571576 -4.475100 1.335670 -0.816530
321 1.119321 -0.088826 1.430631 -2.499568 -0.426668 -0.764243 1.268556 0.052693 3.044135 0.494796 1.794203 0.056379 0.988258 2.262713 3.028394 2.144624 0.678038 1.786273 -1.467501 -1.132807 1.322976 -0.264474 -1.275377 -3.235487 -3.807273 3.041247 -3.159747 -1.529422 -3.598496 0.064857 2.943838 -0.459716 -2.364586 1.858288 1.078910 -3.434153 -2.259771 0.953878 -1.006231 -0.468454 -1.314659 -1.908174 -2.011531 -1.317702 3.808339 -0.088321 1.815766 -3.484991 1.549250 1.298937 -2.000765 2.141870 -4.666313 1.643101 -0.223281 -0.212196 -0.343482 3.946079 0.459694 -0.880261 -1.518979 -0.938702 2.201626 -4.575197
147 3.152117 -1.826280 -1.785697 -2.261898 -0.415943 -0.831229 1.667722 0.879966 -0.150868 2.552336 -0.991229 1.243841 -4.773885 2.555725 2.710653 -1.485934 -1.475038 -1.514281 0.507848 -3.463217 1.792369 1.230334 -1.990927 0.602386 -0.375421 -1.867145 -0.374649 -0.285349 -1.602976 -2.747678 -2.422484 -1.509444 0.236676 0.420038 -1.957595 0.802296 1.551285 -2.983939 0.578272 -1.129766 -2.567307 -0.103237 -1.289719 -2.390907 1.083808 -0.735276 -0.370472 -2.578202 -1.561367 -0.005989 1.461320 3.130465 3.538161 -3.369462 0.495297 -2.033075 -0.297071 1.738614 -5.631533 -0.305165 2.961573 -2.216120 -1.317302 1.933595
31 0.315975 -1.443462 -1.489413 0.599728 1.615380 -0.703235 -0.426270 -2.569075 -1.214991 1.072586 1.640943 -3.708612 -0.981532 -2.727650 -1.572832 -1.370445 2.196718 1.266073 0.957282 1.896495 0.892361 3.305560 2.895695 -3.022497 -2.915395 -4.995217 -2.569830 -2.454322 1.428297 -0.012921 -0.959449 -0.431085 2.270987 -0.490817 -4.099875 -2.725646 1.180755 0.038207 -1.173800 1.847098 -0.621934 -3.040594 -0.194958 2.590990 1.708770 1.875239 0.212421 0.338374 5.806781 2.325221 -0.177955 1.493141 -4.359755 0.320934 4.138747 -0.273322 4.728757 -4.400905 -1.519687 0.248906 -2.993288 3.463495 -2.099641 -1.203786
221 -0.619550 -0.126960 1.239495 -2.682332 -0.516951 4.439612 0.476305 3.893950 2.593731 -1.132094 4.610469 -4.344524 0.731039 -1.111148 0.804306 -1.750191 2.170178 -0.407660 -0.888769 1.582396 -3.270789 0.229655 -2.722971 1.983435 1.790060 -1.393649 -1.042967 -2.158267 -4.023422 3.148689 -0.186657 -1.659694 0.144458 -2.907205 0.809593 -0.285457 -2.139395 -3.686827 -4.026379 -0.630137 -1.998718 3.603147 -0.682054 -0.832749 -0.125036 1.424177 -1.215742 2.023829 -2.597519 2.112052 -2.543404 -2.705808 4.990702 -0.805908 0.323996 1.068771 -0.721649 -2.245709 2.685746 -3.189394 2.024039 -1.677719 -2.369673 -2.200239
392 1.985591 -0.751081 -0.968434 -0.850995 1.508253 -2.799696 -2.791330 1.060476 -1.261588 -2.084523 1.607447 2.520098 1.053086 -1.387133 -2.738630 -0.422083 1.756870 -0.773562 -0.415902 -1.177883 0.614426 2.214633 0.312685 -0.258293 -2.174774 6.099786 2.340240 2.215658 3.498821 0.757158 3.626642 1.862191 1.372725 0.903267 -2.341485 -1.612395 1.381108 0.717016 -1.482909 -1.435207 -3.952791 0.120085 -2.786069 -0.017145 -1.009249 -2.016900 -2.761926 0.464767 -0.081020 -0.025417 -2.645056 -1.530470 -0.251769 2.528189 -0.698441 0.603506 -0.781934 -2.009339 -0.949165 -2.700775 -0.146175 -2.214609 0.093805 4.513947
25 1.241449 -1.222118 -2.617309 0.429651 -2.435633 -0.084524 0.138284 2.130702 -0.710483 0.530178 5.910372 0.214174 -0.502142 -0.029575 2.703327 -3.636801 1.364602 1.502934 -1.183053 -1.306510 0.701820 -2.645543 -0.045468 -1.758659 3.807143 0.681394 1.516778 -1.229265 0.940512 -1.963116 0.558012 0.537583 -2.359815 -2.723836 -0.266984 2.840039 0.780698 1.825526 2.759293 1.661687 1.562173 -0.526558 0.420613 1.105998 1.607008 -1.293422 0.174945 4.789092 -3.245552 -2.679642 -2.221720 1.061237 -3.970774 0.895275 2.281616 0.757598 -0.541032 -0.304018 -3.777642 -4.440069 2.719358 1.034712 2.699893 0.523770
50 0.015766 1.403207 -1.833605 -2.575075 -3.204260 -0.726734 5.791117 0.993357 1.568888 -1.294311 1.960150 1.810598 3.630486 1.350351 -1.485840 4.572490 -0.498453 1.404906 -0.605694 -2.027917 3.098707 -3.936756 1.708116 -1.299139 -3.669858 -2.981026 -1.718510 0.202737 1.809250 4.304436 -1.122041 3.369665 -2.450793 0.052328 3.961987 0.251061 1.092810 0.749441 0.539875 0.071195 -0.575980 -3.246501 -0.313767 -2.525259 -2.600391 -0.198627 3.467802 -0.596621 2.086646 0.244210 2.691406 -3.063697 2.646605 -0.675890 0.827000 2.653013 -3.732780 -3.035011 -0.859679 0.196433 0.306424 -0.109804 -1.251708 -0.704630
381 -4.694641 2.940930 -1.359409 0.739578 -1.025127 0.689799 1.866921 -2.405267 1.604036 -0.256482 -1.508485 -1.176039 0.583090 1.153248 3.216807 -0.629553 1.764269 0.378080 1.488653 -5.197818 0.627757 1.082626 -6.969219 1.215735 -2.368829 -3.023216 3.645567 -3.409371 3.790702 3.542006 2.798961 -1.670004 -2.397396 -1.154105 1.345735 -0.397048 4.305335 0.110902 -0.953437 -2.003061 0.500503 0.322405 -0.027976 -0.231247 -2.290768 1.987168 2.793111 -1.568839 2.744442 -0.914130 -0.072456 2.028818 -0.462361 -3.656072 -0.259832 2.871792 0.471621 0.294623 -1.980840 -4.507800 -2.127492 5.068845 2.716883 -1.545285
156 -2.168419 0.743172 2.473874 -5.245182 0.247418 4.053627 -1.088423 0.976133 -1.119182 1.678944 -2.318923 0.126759 -1.073662 -0.623298 -0.091800 -0.379328 -0.704913 2.731280 3.578165 0.925803 0.932815 -0.627822 1.406876 2.205703 0.692700 1.856847 -1.353489 -5.107893 -1.087549 -3.093968 -1.962450 -4.806163 -3.500479 -1.824633 0.652087 -0.051303 -1.717181 -2.314577 0.932531 -0.676752 3.233572 -1.038124 -1.516437 3.319601 -1.431903 3.226780 3.158975 -1.000212 -1.713781 -0.124732 -3.017316 0.355457 0.823485 -0.007333 2.860975 -2.249655 -3.173856 -0.503624 0.959985 0.266559 0.445617 1.505602 3.447709 5.247822
74 -1.915834 -1.946885 -3.494572 -1.375316 -3.326625 0.152176 0.715730 -2.115501 2.119446 3.555592 -2.445385 -1.600946 -4.673860 -0.109222 -2.474846 1.055879 -2.155891 0.975592 3.151658 -5.108277 0.160002 1.454051 -2.358595 1.704312 1.099922 3.553349 1.889028 0.481435 -0.420277 -2.699171 1.708230 -0.812211 0.371695 -2.223865 0.143847 -1.730327 -0.625088 -3.474228 -3.256599 -0.020276 -0.570174 2.396863 -6.009164 0.163247 -0.480714 -3.622426 -2.369488 -0.525966 0.445686 -4.030284 0.509773 2.064465 1.413115 2.556321 -0.960371 -2.179519 -1.342126 1.282632 -0.132549 1.537859 1.162652 -2.621680 -0.210523 -2.460820
5 -1.381799 -0.878748 -1.279395 -3.437165 1.083450 -1.558378 -0.840309 -1.847756 5.036879 0.861515 -1.949414 4.178976 3.057636 -1.553769 0.842325 4.845738 -2.247837 2.560823 0.772920 -2.634279 4.131512 -1.285299 -1.256559 -0.920735 -1.068231 -0.875048 -1.049626 -0.939099 1.006075 2.684055 0.056082 0.550065 0.752473 2.820806 2.012767 -0.826862 -0.192907 0.695644 1.791430 1.120417 -0.991380 2.087891 -2.675522 -0.983173 -3.648693 -1.584176 3.936533 -3.902252 0.184642 0.209022 1.199770 -3.893712 -0.526597 0.786279 -0.739738 3.812293 -3.155043 0.677894 -0.210226 -2.729556 0.031211 1.669854 -0.024105 3.593352
408 4.326591 -2.039001 -1.341061 1.169127 -2.081452 2.716460 2.638927 -1.052776 -0.275413 -2.895247 4.292815 1.118211 1.172518 -1.639682 -0.162701 -1.581006 2.198574 -2.140089 -3.066964 -1.779473 2.861016 -1.155438 -1.212553 -5.098022 6.284871 1.318679 -0.257306 -1.706847 -0.462745 -1.099301 0.991708 -0.347836 1.337379 -4.284424 1.217187 1.718758 -1.249335 2.669310 0.027320 1.507615 1.505159 -2.114605 0.703444 4.328192 2.041101 -1.333969 -0.584018 1.342770 0.434985 1.682033 -1.008742 1.308961 -4.716621 -1.543141 0.820096 -0.694140 0.091835 -1.424660 -3.096173 -1.146357 0.032165 3.627056 -1.932565 1.452181
301 -0.605978 -0.218814 -0.904766 -1.933767 1.539123 2.230122 2.661344 1.274727 2.709794 1.737745 -1.754098 -0.650460 -2.840757 4.567233 5.127737 -1.827738 -1.298974 0.825329 -1.656248 -1.838853 1.575282 0.182389 -0.974174 -1.661121 -0.801202 0.759239 -1.119293 -0.107832 -0.694316 0.194422 0.522248 -0.366010 0.017175 -2.196946 -2.135057 -4.035200 -3.513463 2.175118 -1.282738 -1.386889 -0.674243 -1.027532 -0.295850 1.234034 3.503646 -0.574053 -1.019068 -2.757552 -0.179733 2.646142 -2.151138 0.912268 -1.470452 -0.454413 1.035307 -1.486644 0.036576 2.070092 0.620436 0.218056 1.015004 -0.651016 0.099912 -3.145212
396 1.681733 -1.492445 2.675650 2.217878 1.427162 -0.971367 2.408715 -1.734240 1.302051 -2.987448 2.745767 2.748831 0.604989 -0.138393 -2.411323 -0.081576 1.576990 3.204177 -0.571010 2.359585 1.745407 1.124701 -2.447782 -0.206057 -3.727145 0.237612 -0.589006 -0.500945 2.150125 2.778637 -1.339619 0.623706 1.170046 0.176788 0.425276 1.601928 2.425899 -1.892625 4.515967 -3.551607 0.655529 1.849563 -0.948144 2.888699 2.750304 2.568550 -1.111931 1.921105 -2.789132 -1.774280 0.640308 2.313409 -2.391077 1.028189 -1.378069 -2.025418 3.135416 -3.947909 2.336070 -3.073682 -2.239757 -1.137091 0.434907 -0.745680
376 2.079910 0.510628 -0.791564 -3.858715 2.217554 -2.250277 2.218747 2.631911 -2.631946 0.696115 -0.649385 0.904031 2.265001 -2.325114 1.533811 0.596301 2.835009 0.997079 0.773530 -1.630826 2.798004 -1.736658 -2.037196 1.918215 -4.792513 0.292603 1.784653 -1.018918 5.281077 -2.996496 3.826490 -0.463039 1.013942 0.673832 1.418128 -0.184803 -0.437514 -1.405898 -0.124906 0.582652 -1.554676 0.442417 3.604343 0.639967 -0.019529 -1.441136 1.198339 0.448057 -3.285550 -0.979509 0.521041 1.846447 -2.454949 2.977944 1.003911 -1.138456 0.760656 -0.972813 0.404349 1.957592 0.143842 1.277972 -3.365686 -3.035163
320 -2.628612 -1.133153 0.029888 -6.797726 1.524074 0.770748 -2.574543 2.347620 1.550775 0.607942 3.417641 -1.893090 0.213509 -4.270188 -1.058230 0.691254 1.671405 -1.379513 1.959968 0.641147 0.941834 -1.868636 0.910579 0.516523 -0.441623 0.821263 2.373583 -1.472937 -0.533208 1.660594 0.847146 -2.812234 2.007521 -0.132052 -1.505862 1.338686 -2.366086 -0.419112 -0.513552 -2.917487 -1.066899 0.550308 1.833199 2.804374 -2.782753 -0.154594 1.068818 -1.282425 -0.523766 1.152051 2.782452 1.203754 4.601982 -2.484519 0.248772 -2.286936 -3.552824 2.516349 0.893350 0.400841 0.654951 1.838367 1.634727 0.294789
101 -2.416960 3.429550 -0.544028 2.219461 3.789980 -1.396166 -1.443324 -1.212076 -0.861168 -0.901415 3.923805 3.357960 0.633210 -0.125941 -1.582650 -2.199389 -0.634493 0.265593 -0.955396 0.648513 -0.814894 1.376117 0.713212 -0.557686 -0.405038 6.401000 -1.823518 1.318631 3.608290 3.619509 -1.051666 2.064766 1.750528 -3.650117 -2.054698 5.024719 -0.639865 0.722782 1.544944 -5.117343 2.825227 -1.171869 0.356767 0.669236 1.220624 0.300822 -0.453585 1.449204 -0.774353 -4.691701 -1.005283 -2.248895 2.846622 1.531171 -0.729851 -1.825305 1.812700 -0.602574 0.076276 -3.387444 0.288259 -1.033115 1.434469 -1.824800
441 0.013869 -0.745744 -0.147078 0.266876 -2.515730 -3.769053 2.025053 2.439065 -1.261085 1.150594 -0.399075 1.732430 -1.818731 0.513903 -0.403317 -0.785521 -3.322861 -0.015780 2.764368 -1.014709 -0.715552 -2.361347 -1.004569 -0.250073 3.262450 2.045933 2.024137 0.888531 1.000863 -3.932279 -2.501187 0.278740 2.194305 0.800870 -3.001229 1.076071 0.189008 -3.396335 1.518396 0.588707 -1.854854 -1.697400 -0.903078 -0.973291 1.328536 -0.126530 -0.160279 -1.940324 1.176889 -2.897215 -1.935167 3.575634 0.012115 -1.107170 -0.353670 -0.752136 1.476067 2.360561 -1.658088 3.024929 0.361856 -0.041817 -4.889849 -0.539262
316 1.513347 1.203706 0.768970 -0.676362 1.778479 -2.963225 2.471222 2.700836 2.963302 -2.243257 1.822060 -2.460670 1.275844 -0.952933 -5.539154 -1.025911 5.249370 0.024092 -0.591780 3.268517 0.124281 0.674922 0.542477 -0.965314 -0.487656 0.069780 2.775254 2.036512 0.802934 -0.547757 -0.101878 -0.804202 -2.164835 1.012259 -3.545362 -3.767527 2.214425 -1.188962 0.939481 -1.973206 -0.277917 3.648880 1.412097 0.169777 -3.202550 -0.460549 1.486421 -0.422291 1.054323 -3.085440 -0.353984 0.720837 -4.712457 0.110208 -0.659977 2.387700 2.530667 -2.191180 -2.386824 1.330281 -2.100509 -1.488948 -1.078087 -1.164620
127 0.813568 0.443202 -1.749607 -2.199853 -0.543639 -2.079764 0.996201 -0.407827 -0.140081 -1.609158 3.267165 4.655446 3.438007 1.551698 -4.227518 -1.159440 -1.093421 -1.016741 -0.247241 1.290313 1.990239 0.781856 -1.186854 0.741190 -1.533668 1.890908 0.985985 -1.771785 2.648496 1.900368 -2.291315 2.706060 0.214683 3.580865 -1.597541 -0.653304 2.958011 -1.346661 1.569227 -0.794380 -1.130668 1.451798 -3.220964 2.386098 1.672982 1.014620 -2.002187 1.779429 -1.743678 -1.400562 -3.471258 -1.099445 -1.006102 1.399048 0.230570 -2.056682 3.688271 -2.201368 -0.238088 0.840134 -1.763142 -0.438515 0.231705 -0.146158
430 -0.503211 1.529125 3.388172 0.722867 -0.193629 -3.798885 -1.610683 1.125943 -1.398377 -1.583856 0.590330 2.504943 -1.450303 -0.556126 -0.989873 1.488802 -1.007117 -2.856550 -0.471109 2.438636 3.322334 0.446605 0.177062 0.473315 -0.231463 2.090108 2.000215 0.074759 1.718893 2.088826 -1.004776 3.770475 -0.346043 2.610645 -0.661020 -0.902523 0.055589 -2.662671 2.194993 -2.443969 -1.300075 1.103396 -0.013013 2.235446 2.013009 1.551762 -1.883824 1.793867 -1.627085 -2.084090 -2.134327 0.740390 -1.082994 0.963394 1.780680 0.204596 2.210363 -1.505493 2.381272 1.491101 -1.202081 -3.658013 -3.647201 0.802359
395 2.825377 2.368991 -2.342367 -0.382332 -2.539797 -1.526017 2.306353 0.872959 0.133998 -1.817928 -3.724978 -1.059658 1.781103 -0.536206 0.063814 2.758109 -0.579128 4.509592 4.385973 -0.658728 5.892921 -0.053198 -1.870798 1.697474 -3.362597 -0.427641 -0.547107 0.186070 -0.629097 3.788204 -0.729193 0.597500 -1.444792 -3.006136 5.019373 -0.403266 -2.072907 2.062644 1.626172 -1.031486 -2.091441 0.003682 1.984131 -0.644670 -0.979866 -3.150750 1.514536 -1.515435 1.597761 -0.401299 0.377316 -1.616672 0.573316 3.953383 0.247991 -0.028734 0.773965 -0.984992 1.885942 -3.325387 -1.186644 3.849447 0.726723 1.716200
116 -0.914151 -1.107070 -0.756891 -4.769069 3.919275 0.612200 -4.858808 0.301645 2.169772 -1.794652 2.317010 -2.601877 -4.425099 1.405307 -1.577389 -4.275029 1.611717 -1.644370 4.995770 4.603868 -7.282693 -1.511801 1.511255 -2.720422 0.246692 1.066334 -0.807911 -1.361663 1.353357 -0.407618 5.820716 -1.365947 1.622516 -1.534722 3.209358 -3.209286 -2.134553 -0.264575 3.472440 -2.550083 0.465624 3.206047 -0.449405 -2.336835 -1.481003 -1.405243 0.305465 -2.057143 2.938737 0.859059 2.252756 -3.652004 0.851824 -4.456663 1.304597 -1.160690 0.034510 3.488725 3.659554 -3.829269 -1.002768 -0.344160 4.025864 3.047278
212 0.081656 -0.326344 1.797398 0.496506 0.587997 -2.607487 -3.822776 2.418444 -2.385551 1.739135 -2.225857 2.192519 2.857929 -1.764450 3.184399 0.910804 1.395092 1.507890 -3.387734 -2.903513 -2.080351 1.161593 0.641473 1.065238 0.026120 3.588908 3.607029 1.050055 1.729268 0.664307 1.802024 2.498685 1.151048 2.020529 -0.432997 -1.840670 0.418331 2.165553 1.292261 1.444023 2.704890 -3.493527 1.501728 2.391367 1.131079 -5.367907 -0.424867 -0.528088 2.801383 -1.786089 0.955784 -3.009473 2.089972 -1.086890 0.054743 1.053127 -1.296348 -0.772099 0.507483 1.203983 2.699034 -2.875877 0.522879 0.818080
247 -4.812030 -1.564165 1.502462 -6.389698 -0.820684 2.418506 0.596411 5.877748 -2.016412 3.571182 3.341895 1.796317 -0.393828 -0.396620 1.932900 0.005392 -0.278202 -3.286789 0.232823 4.096267 -2.224636 -2.539435 -3.251829 1.380761 2.026158 0.118331 -1.315713 -2.124736 3.135356 -2.933540 0.978193 -1.026599 -0.951329 0.538497 4.514204 0.392546 -0.957556 -0.311054 -2.011991 -1.168244 2.095145 1.421446 -3.356901 2.972773 -1.960215 -0.460091 1.073679 -3.613643 0.717412 2.083777 -3.272739 1.180183 1.719763 -0.123948 -1.455024 -2.258674 2.910099 0.412332 0.533599 1.691694 -1.004914 -0.588721 4.564397 -0.522123
144 1.333670 0.747410 0.829373 2.071613 0.408924 0.002927 0.275905 -0.966315 6.194490 -3.257554 1.246345 4.700321 1.033762 1.424027 0.056834 -1.297871 -0.209332 1.147817 -0.810598 1.594449 -1.157708 2.164461 2.184307 2.345450 -3.013911 1.287238 -0.290509 -2.210140 1.339343 3.843447 -1.331090 0.788820 -1.620339 -0.235370 -3.838006 0.173868 2.124854 -0.742577 1.936298 -0.452708 -0.000350 4.202343 0.534734 2.047568 0.685166 1.987893 -0.594009 2.125163 -0.999635 -2.298500 -0.499173 2.298287 -0.824991 2.282577 1.477365 1.905686 3.059607 -0.858603 -0.040475 -0.565837 -0.663988 -1.011830 -1.826616 -1.106459
380 1.805132 -2.122087 -3.025395 0.756937 -0.541455 -1.031739 3.994753 1.333279 0.134785 -0.145745 1.760463 1.796948 -0.909005 0.470740 -2.161202 -0.065065 0.834787 1.587454 -1.493940 0.200361 -2.604854 3.075458 -3.572546 -0.630571 2.850891 0.858229 0.581666 -1.077301 -1.357099 1.461554 0.752891 -1.014241 3.591657 -0.609710 3.026273 2.722473 3.010063 -1.910289 -1.090524 0.008500 1.263754 0.404620 4.652511 1.446202 1.278451 -0.781838 1.922385 2.891877 -3.322216 0.440928 -0.800841 -0.498987 -0.209733 0.506029 1.721837 -0.863351 -0.530196 -0.322073 -3.489661 -2.806182 0.176218 0.581874 -0.277724 3.178374
12 -1.962509 -3.038887 -0.713599 -2.539089 -0.512166 1.297171 0.445558 3.069870 0.236395 -0.002793 -0.924294 -5.153703 -2.227479 0.535870 -1.638535 -1.112849 -0.372077 -0.209010 0.004548 4.307759 -6.013284 2.850376 3.146664 -1.952514 2.116110 -0.916518 -2.412489 -4.894502 2.356230 -1.078423 3.161046 0.704329 2.669746 -2.746491 -1.851683 -0.550571 -1.877085 0.024219 1.199473 -1.267431 -0.001875 4.807989 -0.128764 1.592163 -2.536734 1.090962 0.145407 -2.463833 4.001604 1.361795 -0.681095 -2.431603 -0.107014 -1.083299 0.640180 -0.445212 0.019193 0.314543 -0.270459 -1.189387 -4.957684 0.231466 0.310727 1.506802
